1.055995449423789978e-01
1.456060409545898438e-01
-6.062899157404899597e-02
2.367394119501113892e-01
-3.121968358755111694e-02
2.466064505279064178e-02
-1.771154105663299561e-01
-7.039786130189895630e-02
4.152690991759300232e-02
-6.994631886482238770e-02
-9.153128601610660553e-03
-2.473477870225906372e-01
-2.793838828802108765e-02
4.631923511624336243e-02
1.579702496528625488e-01
-2.223031409084796906e-02
-1.679417490959167480e-01
1.558562368154525757e-01
2.611228525638580322e-01
4.373480677604675293e-01
-6.433978676795959473e-02
-2.194609306752681732e-02
5.937435477972030640e-02
1.224997937679290771e-01
-7.637957483530044556e-02
7.417894434183835983e-03
-2.059297561645507812e-01
-2.785889208316802979e-01
-2.683567106723785400e-01
1.981030106544494629e-01
4.750575125217437744e-02
-1.993591040372848511e-01
-2.788146734237670898e-01
-1.432192772626876831e-01
1.316767632961273193e-01
-3.312810137867927551e-02
-1.527982354164123535e-01
-2.072679437696933746e-02
-6.064701452851295471e-02
7.625042647123336792e-02
4.878693653154186904e-05
-1.436449885368347168e-01
-4.173579066991806030e-02
-1.440216153860092163e-01
-1.271788217127323151e-02
2.276275865733623505e-02
2.729353681206703186e-02
2.550846636295318604e-01
1.170435175299644470e-01
1.962359845638275146e-01
-2.020921409130096436e-01
-8.533135056495666504e-02
1.847254186868667603e-01
1.315010190010070801e-01
2.918206751346588135e-01
-3.225600421428680420e-01
-3.232038021087646484e-01
-5.146586522459983826e-02
-2.267287075519561768e-01
1.365044862031936646e-01
-1.248875260353088379e-01
1.037911623716354370e-01
5.878788977861404419e-02
2.048112452030181885e-02
1.807935684919357300e-01
-5.231458693742752075e-03
-8.979601413011550903e-02
1.426059100776910782e-02
1.383692957460880280e-02
2.575238421559333801e-02
-5.254055559635162354e-02
2.573190070688724518e-02
2.417419850826263428e-01
-8.178547024726867676e-02
-2.486488074064254761e-01
5.907631665468215942e-02
-2.792107462882995605e-01
-3.978580236434936523e-01
1.413017213344573975e-01
-1.980118080973625183e-02
1.517133414745330811e-01
-2.003045827150344849e-01
-3.899661600589752197e-01
-4.977717250585556030e-02
-2.020031660795211792e-01
7.027097791433334351e-02
-1.598874777555465698e-01
-1.447650790214538574e-01
-5.272213742136955261e-02
1.607991904020309448e-01
1.681483536958694458e-01
-8.468089997768402100e-02
-1.149371936917304993e-01
-6.181098893284797668e-02
6.714688986539840698e-02
3.150319159030914307e-01
-6.829308718442916870e-02
-1.632376573979854584e-02
-3.976797685027122498e-02
-1.303326487541198730e-01
6.086523085832595825e-02
-1.441513840109109879e-02
-1.789480447769165039e-01
3.527227044105529785e-01
3.063771426677703857e-01
8.170862495899200439e-02
-1.765054166316986084e-01
-3.619122803211212158e-01
-4.026370123028755188e-02
1.150115579366683960e-01
1.058020889759063721e-01
-2.233375906944274902e-01
4.972093924880027771e-02
1.015354990959167480e-01
2.466017603874206543e-01
1.671659201383590698e-01
-1.854434758424758911e-01
1.408341825008392334e-01
1.128581911325454712e-01
1.260680556297302246e-01
1.177017204463481903e-02
1.076825312338769436e-03
3.197669088840484619e-01
3.071212172508239746e-01
1.119465008378028870e-01
-2.458115369081497192e-01
-3.214994072914123535e-01
-4.788677990436553955e-01
-2.113250494003295898e-01
-1.013367474079132080e-01
-1.902695149183273315e-01
-4.174239337444305420e-01
-2.254084497690200806e-01
-1.957109570503234863e-01
6.701587140560150146e-02
1.322946995496749878e-01
-1.302180141210556030e-01
-5.235713347792625427e-02
-9.139748662710189819e-02
-2.210400551557540894e-01
1.189262568950653076e-01
-1.787775941193103790e-02
-7.540161907672882080e-02
-1.650894992053508759e-02
-1.687364876270294189e-01
8.833255618810653687e-02
3.369981423020362854e-02
3.955961205065250397e-03
-1.394869983196258545e-01
-3.344287872314453125e-01
4.041675627231597900e-01
-1.480406969785690308e-01
-1.243495121598243713e-01
-2.503521442413330078e-01
-1.347431391477584839e-01
-2.700226306915283203e-01
-7.452953606843948364e-02
-1.724716462194919586e-02
-1.376563608646392822e-01
2.248376607894897461e-01
-5.902829021215438843e-02
-5.274172127246856689e-02
-4.470735415816307068e-02
-5.404693633317947388e-02
1.454726308584213257e-01
-7.082274556159973145e-02
-2.284304983913898468e-02
-4.557315632700920105e-02
1.373518407344818115e-01
7.594693452119827271e-02
-5.049385875463485718e-02
4.694782197475433350e-02
-3.517829999327659607e-02
-3.856945317238569260e-03
1.970917358994483948e-02
-8.821965754032135010e-02
1.815209165215492249e-02
2.252283990383148193e-01
1.503290832042694092e-01
-1.135496869683265686e-01
-8.716139197349548340e-02
1.839544177055358887e-01
-2.686027437448501587e-02
1.044531613588333130e-01
1.260638236999511719e-01
-7.610058784484863281e-02
2.584949322044849396e-02
-2.923964289948344231e-03
4.319026321172714233e-02
-1.632814258337020874e-01
5.187302455306053162e-02
2.239773720502853394e-01
-1.727097630500793457e-01
-6.667419523000717163e-02
1.296766847372055054e-01
7.737557590007781982e-02
2.819388173520565033e-02
-1.856096833944320679e-01
-1.376063525676727295e-01
-7.471241056919097900e-03
7.954916357994079590e-02
2.612226903438568115e-01
-2.551364712417125702e-02
-1.567990630865097046e-01
-2.346640080213546753e-01
-7.677841931581497192e-02
7.906747609376907349e-02
1.091422364115715027e-01
1.253323853015899658e-01
6.284687668085098267e-02
1.155980601906776428e-01
-1.501887142658233643e-01
4.333239421248435974e-02
2.219898626208305359e-02
-1.670420765876770020e-01
-4.936741665005683899e-02
-4.031920433044433594e-02
-7.313556224107742310e-02
1.621556729078292847e-01
1.116153374314308167e-01
-1.509477104991674423e-02
-1.128267496824264526e-01
-4.923705011606216431e-02
-1.388199348002672195e-02
1.111785299144685268e-03
-8.839947730302810669e-02
-6.710967421531677246e-02
6.027434468269348145e-01
2.488140203058719635e-02
-3.853802978992462158e-01
-6.489796936511993408e-02
3.262783959507942200e-02
2.767126858234405518e-01
8.039107173681259155e-02
1.064522843807935715e-02
-2.017877297475934029e-03
-2.935995534062385559e-02
1.872612908482551575e-02
7.698095589876174927e-02
-5.641930620186030865e-04
1.266011409461498260e-02
-4.733002185821533203e-02
-3.157670795917510986e-02
-1.674205809831619263e-01
1.416402608156204224e-01
-5.882937461137771606e-02
-3.976410999894142151e-02
1.276509016752243042e-01
-1.001653969287872314e-01
-1.785886846482753754e-02
-1.855590194463729858e-01
4.586144909262657166e-02
8.509930223226547241e-02
-1.481976360082626343e-01
-2.375267744064331055e-01
-9.492734074592590332e-02
7.252535969018936157e-02
1.135909110307693481e-01
-1.545249763876199722e-02
9.476169943809509277e-03
-5.110577121376991272e-02
1.186033263802528381e-01
-7.206761091947555542e-02
-9.663103520870208740e-02
-1.770806610584259033e-01
1.537492424249649048e-01
-3.704208135604858398e-02
-7.460450381040573120e-02
-3.182074427604675293e-02
2.425657361745834351e-01
4.062896966934204102e-02
3.456883132457733154e-02
-1.521950066089630127e-01
-7.160025089979171753e-02
1.087392717599868774e-01
3.037712275981903076e-01
6.752483248710632324e-01
-6.601878255605697632e-02
-6.893956661224365234e-02
-1.179598346352577209e-01
-1.738581806421279907e-01
3.994152545928955078e-01
1.858745664358139038e-01
1.243081092834472656e-01
1.070796772837638855e-01
5.276731774210929871e-02
-9.415360167622566223e-03
1.660040616989135742e-01
2.120232023298740387e-02
8.038771897554397583e-02
1.024599447846412659e-01
-1.752033643424510956e-02
-1.029645949602127075e-01
3.710057213902473450e-02
-1.338199675083160400e-01
-2.353394627571105957e-01
1.586737185716629028e-01
-3.105691969394683838e-01
-1.259907931089401245e-01
6.266780197620391846e-02
3.757789358496665955e-02
3.478408455848693848e-01
-5.309120565652847290e-02
8.802723884582519531e-02
-2.286999374628067017e-01
-6.332156807184219360e-02
-2.480187080800533295e-02
2.251181751489639282e-02
1.559438463300466537e-02
-7.561284303665161133e-02
1.132142320275306702e-01
2.974193692207336426e-01
1.569484323263168335e-01
-1.825263649225234985e-01
-2.864333391189575195e-01
2.390802800655364990e-01
3.780013322830200195e-01
-5.977407097816467285e-02
-1.358966380357742310e-01
1.136432215571403503e-01
-1.580303311347961426e-01
-1.434629131108522415e-02
-1.962701678276062012e-01
-1.675730198621749878e-02
2.187966406345367432e-01
1.364560276269912720e-01
-8.887781202793121338e-02
-6.331338081508874893e-03
4.810271412134170532e-02
-8.728928118944168091e-02
2.258627302944660187e-02
2.292026765644550323e-02
1.221280544996261597e-02
1.654699444770812988e-01
1.320412964560091496e-03
1.631344854831695557e-01
1.564076393842697144e-01
-1.834427118301391602e-01
9.542080760002136230e-02
1.129840761423110962e-01
-1.619607061147689819e-01
1.111559569835662842e-01
-2.418943941593170166e-01
-1.708999872207641602e-01
6.101128458976745605e-02
-7.148583233356475830e-02
-2.761681936681270599e-02
-9.927357733249664307e-02
-1.867398470640182495e-01
1.527645438909530640e-01
-1.070132702589035034e-01
-4.210763052105903625e-02
-3.711408376693725586e-01
1.004454046487808228e-01
-6.497360765933990479e-02
-1.221538633108139038e-01
4.241529479622840881e-02
-6.884972006082534790e-02
1.125187873840332031e-01
5.255521833896636963e-02
-5.220464617013931274e-02
-2.322825975716114044e-02
3.280434012413024902e-02
6.596258282661437988e-02
2.042497843503952026e-01
-1.253431849181652069e-02
7.751826196908950806e-02
7.191999256610870361e-02
1.655642390251159668e-01
4.908465221524238586e-02
-4.032234847545623779e-02
-6.451509147882461548e-02
-3.759166970849037170e-02
1.581480056047439575e-01
3.023989498615264893e-01
-1.675710380077362061e-01
5.840483680367469788e-02
-1.376588270068168640e-02
2.213151007890701294e-02
2.595749199390411377e-01
7.564638555049896240e-02
1.239956840872764587e-01
-1.872071921825408936e-01
8.091910183429718018e-02
1.892752014100551605e-02
1.754439324140548706e-01
-2.128114691004157066e-03
-3.693300187587738037e-01
-1.191853284835815430e-01
-3.092813491821289062e-01
-8.402521163225173950e-02
4.036741703748703003e-02
2.067647725343704224e-01
-1.367399096488952637e-01
4.176596179604530334e-02
3.785423561930656433e-02
-8.786784112453460693e-02
1.782722920179367065e-01
-7.285464555025100708e-02
1.008031964302062988e-01
9.555497020483016968e-02
1.156284436583518982e-01
-1.952051222324371338e-01
-7.166425138711929321e-02
-4.841029644012451172e-03
1.815302483737468719e-02
-1.681376844644546509e-01
7.420702278614044189e-02
1.998312026262283325e-02
1.590017229318618774e-01
-3.159208688884973526e-03
-4.558541253209114075e-02
-1.336902752518653870e-02
-6.833497434854507446e-02
2.231025248765945435e-01
-8.295491337776184082e-02
-1.193127930164337158e-01
-2.214516252279281616e-01
-9.457297623157501221e-02
1.994519829750061035e-01
-3.160958886146545410e-01
-2.463973760604858398e-01
-1.649798154830932617e-01
-1.638189703226089478e-01
2.487067133188247681e-01
-3.151718676090240479e-01
-2.834044992923736572e-01
-3.703355491161346436e-01
1.647094041109085083e-01
5.781566351652145386e-02
1.466925442218780518e-01
-5.838074535131454468e-02
-2.733724750578403473e-02
7.866048067808151245e-02
1.551488786935806274e-01
-1.527248024940490723e-01
-2.756612934172153473e-02
1.047238186001777649e-01
7.950136810541152954e-02
-3.720732405781745911e-02
-1.478454768657684326e-01
1.815788745880126953e-01
2.002663910388946533e-01
9.448426216840744019e-02
4.840398952364921570e-02
2.512165158987045288e-02
3.925471901893615723e-01
2.852813005447387695e-01
3.184459805488586426e-01
3.102840185165405273e-01
1.256791949272155762e-01
-2.303741425275802612e-01
-3.725711405277252197e-01
-9.115543961524963379e-02
2.663786709308624268e-01
1.034820824861526489e-01
2.334234863519668579e-01
2.760374248027801514e-01
-2.214296720921993256e-02
-6.056630238890647888e-02
-1.070904731750488281e-01
-5.984916538000106812e-02
-1.990817040205001831e-01
4.488473758101463318e-03
-6.436980515718460083e-02
-1.164770573377609253e-01
5.337289348244667053e-02
2.070844471454620361e-01
4.511206969618797302e-02
1.187109481543302536e-02
7.594625651836395264e-02
6.583068519830703735e-03
-2.840724482666701078e-04
-3.628380596637725830e-02
1.239611208438873291e-01
3.273274004459381104e-02
-8.071790798567235470e-04
1.882549226284027100e-01
-2.312364131212234497e-01
7.954015582799911499e-02
1.220411509275436401e-01
1.140970736742019653e-01
4.903711751103401184e-02
-2.453086338937282562e-02
-1.260861940681934357e-02
-1.240423228591680527e-02
1.298787891864776611e-01
-4.742345958948135376e-02
-5.781211704015731812e-02
-1.462495047599077225e-02
-1.700118370354175568e-02
1.810721457004547119e-01
-1.323503553867340088e-01
-1.876906305551528931e-01
1.014079339802265167e-02
1.931580901145935059e-02
2.927663326263427734e-01
-2.345508784055709839e-01
-1.964946240186691284e-01
-4.576205834746360779e-02
-2.924403734505176544e-02
-4.299373030662536621e-01
-6.127150058746337891e-01
-3.482086956501007080e-01
-1.117709279060363770e-01
1.269592493772506714e-01
1.626029014587402344e-01
2.221610993146896362e-01
6.473339349031448364e-02
1.265246570110321045e-01
1.218702718615531921e-01
3.529665991663932800e-02
2.463059686124324799e-02
3.911152109503746033e-02
2.848995029926300049e-01
2.906991541385650635e-01
4.845754057168960571e-02
6.005116552114486694e-02
1.640052199363708496e-01
2.824126780033111572e-01
2.241016626358032227e-01
1.514757052063941956e-02
-1.780945509672164917e-01
4.984871484339237213e-03
1.499671675264835358e-02
-1.123552173376083374e-01
5.144197866320610046e-02
1.310076713562011719e-01
-1.430594623088836670e-01
-2.647233009338378906e-02
-1.334966570138931274e-01
2.988064847886562347e-02
1.734793744981288910e-02
2.751647233963012695e-01
-2.033045589923858643e-01
-1.799445003271102905e-01
-9.777316451072692871e-02
-6.622536480426788330e-02
3.884740173816680908e-02
-2.122144550085067749e-01
-1.326919496059417725e-01
-5.952605977654457092e-02
7.128207478672266006e-03
-1.449048519134521484e-01
-5.376059561967849731e-02
6.006869673728942871e-02
-1.944158138940110803e-04
2.190615050494670868e-02
-2.563300170004367828e-02
5.936561897397041321e-02
1.777503639459609985e-02
-2.738749682903289795e-01
-5.931571722030639648e-01
-6.499159336090087891e-01
-4.791207015514373779e-01
1.833792179822921753e-01
1.685433089733123779e-01
1.242562085390090942e-01
-5.587673932313919067e-02
1.611203700304031372e-01
2.623890936374664307e-01
1.041526421904563904e-01
5.197069421410560608e-02
3.066143020987510681e-02
2.700680196285247803e-01
2.936392128467559814e-01
2.199823111295700073e-01
2.104763127863407135e-02
9.151414036750793457e-02
2.471995800733566284e-01
6.210758537054061890e-02
1.683861464262008667e-01
4.723235592246055603e-02
-2.031541615724563599e-01
-8.218422532081604004e-03
3.446035087108612061e-01
2.115933038294315338e-02
-5.667103081941604614e-02
6.350795626640319824e-01
4.027037322521209717e-01
-1.541465967893600464e-01
-1.096638441085815430e-01
3.714333288371562958e-03
1.005602106451988220e-01
1.018318906426429749e-01
7.913403958082199097e-02
-8.364029228687286377e-02
-4.170913994312286377e-01
-1.230835169553756714e-01
-2.163438200950622559e-01
-1.639535576105117798e-01
-4.374142363667488098e-02
-1.735196709632873535e-01
-2.716913223266601562e-01
-7.974959164857864380e-02
-2.133088260889053345e-01
-9.238858520984649658e-02
-1.404097490012645721e-02
-3.211812973022460938e-01
6.044936552643775940e-02
1.984241753816604614e-01
7.862620055675506592e-02
8.057203143835067749e-02
2.966578602790832520e-01
2.525428235530853271e-01
-1.578250676393508911e-01
1.329420208930969238e-01
4.521060287952423096e-01
2.230786234140396118e-01
9.035558439791202545e-03
2.388727366924285889e-01
2.529761195182800293e-01
1.704906523227691650e-01
-8.759520202875137329e-02
-9.904088452458381653e-03
2.319865860044956207e-02
1.457376629114151001e-01
5.096173658967018127e-02
1.645345389842987061e-01
4.968717396259307861e-01
-1.925151050090789795e-01
5.420402884483337402e-01
5.412296056747436523e-01
5.587277412414550781e-01
3.333696722984313965e-01
-8.459451608359813690e-03
-4.435014352202415466e-02
3.579514473676681519e-02
-6.796695291996002197e-02
-2.653615176677703857e-01
-1.248181834816932678e-01
9.883298724889755249e-02
7.723653316497802734e-02
-1.201012544333934784e-02
-9.521123021841049194e-02
-3.147415444254875183e-02
-6.361309438943862915e-02
-3.905095905065536499e-02
7.735591381788253784e-02
1.894755661487579346e-02
2.533391350880265236e-03
-4.882608354091644287e-02
1.467054933309555054e-01
1.873573288321495056e-02
2.163003832101821899e-01
9.174292534589767456e-02
1.226984411478042603e-01
-1.731067299842834473e-01
6.522337347269058228e-02
2.258856594562530518e-01
-1.049956977367401123e-01
-1.645607799291610718e-01
-5.627403780817985535e-02
-2.026536315679550171e-01
-3.396074175834655762e-01
-1.765962690114974976e-01
-9.778080880641937256e-02
-1.422310024499893188e-01
-2.213170826435089111e-01
-3.659963011741638184e-01
2.408792451024055481e-02
6.648359447717666626e-02
1.146478652954101562e-01
-1.777724325656890869e-01
-2.907127737998962402e-01
-9.736842662096023560e-02
1.105963885784149170e-01
1.164912804961204529e-01
-9.502550214529037476e-02
1.353750079870223999e-01
-1.029900237917900085e-01
-6.283289939165115356e-02
1.767259836196899414e-01
3.832906857132911682e-02
4.192625731229782104e-02
4.038460610900074244e-05
-1.265724450349807739e-01
-2.984960330650210381e-03
5.531147122383117676e-02
-1.597947925329208374e-01
2.113925060257315636e-03
-2.240491099655628204e-02
4.581221193075180054e-02
-1.108791399747133255e-02
-1.453718096017837524e-01
1.969431787729263306e-01
5.531555414199829102e-02
-3.686548024415969849e-02
-1.608812250196933746e-02
-1.015095487236976624e-01
6.524022668600082397e-03
9.401286393404006958e-02
9.153491258621215820e-02
-3.121871873736381531e-02
7.224930822849273682e-02
8.349661529064178467e-02
4.658135175704956055e-01
3.180088847875595093e-02
2.440775483846664429e-01
1.436638832092285156e-01
-1.954263895750045776e-01
-1.831999868154525757e-01
-1.630112379789352417e-01
4.437673836946487427e-02
-3.336042463779449463e-01
-2.741224467754364014e-01
-2.325677871704101562e-01
-1.860399357974529266e-02
-2.229790836572647095e-01
-2.855113446712493896e-01
-1.006937250494956970e-01
2.710093185305595398e-02
1.432093679904937744e-01
1.940975338220596313e-02
-1.758841127157211304e-01
-1.449597775936126709e-01
-9.879466146230697632e-02
-8.008507080376148224e-03
1.166877895593643188e-01
1.816469132900238037e-01
-5.424061417579650879e-02
-1.653041839599609375e-01
-1.692715436220169067e-01
7.517142593860626221e-02
7.279571145772933960e-02
-1.193363964557647705e-01
-1.456087231636047363e-01
2.861317247152328491e-02
-3.152979314327239990e-01
-2.315671592950820923e-01
-3.702500462532043457e-02
-1.142688468098640442e-02
-7.337463647127151489e-02
-1.039110273122787476e-01
1.345986127853393555e-01
-3.364925831556320190e-02
1.221503689885139465e-01
-1.516430824995040894e-01
1.088010594248771667e-01
1.851337030529975891e-02
-1.155671942979097366e-02
3.598601520061492920e-01
-2.248931378126144409e-01
2.071102894842624664e-02
1.229012757539749146e-01
-2.453271746635437012e-01
4.095742478966712952e-02
-9.690537117421627045e-03
2.008247971534729004e-01
-2.713511511683464050e-02
2.385219484567642212e-01
-1.576854586601257324e-01
-3.130681514739990234e-01
9.115681797266006470e-02
1.264828890562057495e-01
8.742637932300567627e-03
-1.046178266406059265e-01
-4.292950928211212158e-01
-1.967148035764694214e-01
-1.209451332688331604e-01
4.626863077282905579e-02
1.261359304189682007e-01
-1.096312999725341797e-01
-2.066302299499511719e-01
-4.286930430680513382e-03
-1.027033627033233643e-01
8.083384484052658081e-02
2.132497727870941162e-01
-7.073901593685150146e-02
6.762431561946868896e-02
-2.366504967212677002e-01
5.064658820629119873e-02
1.872249245643615723e-01
2.404728205874562263e-03
-1.306811273097991943e-01
-7.310031354427337646e-02
1.038100421428680420e-01
2.067496180534362793e-01
-3.058701194822788239e-02
-2.177507281303405762e-01
-3.336527198553085327e-02
4.490256682038307190e-02
1.737511008977890015e-01
8.840383589267730713e-02
-9.947031736373901367e-02
5.764666944742202759e-02
-1.102821454405784607e-01
1.357700973749160767e-01
-1.747959293425083160e-02
-1.131880190223455429e-02
1.406383961439132690e-01
-7.846284657716751099e-03
-4.674201831221580505e-02
6.713591516017913818e-02
1.029295474290847778e-01
-4.827294498682022095e-02
-6.249921768903732300e-02
3.567201644182205200e-02
8.995831757783889771e-02
1.023860126733779907e-01
3.356286287307739258e-01
3.801673650741577148e-03
-3.190170824527740479e-01
-2.011355012655258179e-01
-5.233997479081153870e-02
-2.608107402920722961e-02
1.553165912628173828e-01
-4.425336122512817383e-01
-4.016705751419067383e-01
-1.942304968833923340e-01
-5.401186272501945496e-02
2.479555904865264893e-01
-7.678136695176362991e-03
-5.833265185356140137e-02
-1.053459569811820984e-01
-3.772460669279098511e-02
9.851460158824920654e-02
1.747334599494934082e-01
7.186528295278549194e-02
7.788262516260147095e-02
-6.924321409314870834e-03
2.009252458810806274e-02
1.372683048248291016e-01
7.760159671306610107e-02
2.043227404356002808e-01
-1.934478059411048889e-02
2.038101851940155029e-01
1.261255294084548950e-01
-1.997902989387512207e-01
-6.907593342475593090e-04
-6.861620396375656128e-02
6.634842604398727417e-03
2.824192345142364502e-01
-2.704769372940063477e-01
-2.208946943283081055e-01
1.775521785020828247e-01
-2.231597900390625000e-02
2.444119378924369812e-02
-5.718322936445474625e-03
-1.000399142503738403e-01
2.771716751158237457e-02
2.612404897809028625e-02
-1.156019046902656555e-01
5.191578995436429977e-03
-7.123333867639303207e-03
-5.158098414540290833e-02
-2.189309522509574890e-02
-6.952475011348724365e-02
-1.061408896930515766e-03
-1.223746687173843384e-01
-6.978544592857360840e-02
1.356471329927444458e-01
-1.063090562820434570e-01
-4.484429359436035156e-01
-2.692994773387908936e-01
-7.158222794532775879e-02
1.985383965075016022e-02
-7.430742681026458740e-02
-4.226889610290527344e-01
-4.090666472911834717e-01
-5.661115795373916626e-02
-1.582954227924346924e-01
8.775056153535842896e-02
-5.086209625005722046e-03
-1.473801676183938980e-02
-1.604941114783287048e-02
-2.235815823078155518e-01
2.111563831567764282e-02
1.879285424947738647e-01
8.265773206949234009e-02
-1.234530583024024963e-01
-1.474566906690597534e-01
8.189230412244796753e-02
2.173348218202590942e-01
2.379262745380401611e-01
2.534770965576171875e-01
1.920946538448333740e-01
-4.020628035068511963e-01
-1.353377941995859146e-02
1.492341905832290649e-01
1.136588677763938904e-01
4.712112545967102051e-01
-1.528676748275756836e-01
-1.246260032057762146e-01
1.170348525047302246e-01
-3.999660909175872803e-01
5.633468031883239746e-01
2.664436697959899902e-01
4.116983711719512939e-02
3.299132734537124634e-02
-4.702039361000061035e-01
2.593024075031280518e-01
2.938866317272186279e-01
-1.661282628774642944e-01
2.787324972450733185e-02
-1.156398355960845947e-01
1.116261705756187439e-01
1.259636133909225464e-01
-1.388977617025375366e-01
2.178390622138977051e-01
2.837197184562683105e-01
5.067629367113113403e-02
-1.619228720664978027e-01
-5.002438277006149292e-02
3.050574287772178650e-02
7.672704756259918213e-02
-1.350237876176834106e-01
-2.096607536077499390e-01
8.017543703317642212e-02
-8.647432178258895874e-02
-1.489950418472290039e-01
1.407214533537626266e-02
-3.749371170997619629e-01
-1.744885891675949097e-01
2.751870267093181610e-02
1.452089548110961914e-01
2.311867475509643555e-01
-1.404802650213241577e-01
-2.118339985609054565e-01
1.231659669429063797e-02
3.200184181332588196e-02
-2.497064471244812012e-01
1.725483536720275879e-01
1.688127964735031128e-02
-4.445492476224899292e-02
-3.219394758343696594e-02
-4.563467577099800110e-03
-3.117186948657035828e-02
6.576561182737350464e-02
-2.868195064365863800e-02
-5.489096045494079590e-03
1.261876374483108521e-01
1.590354442596435547e-01
-1.401485595852136612e-02
-1.574161946773529053e-01
-1.905531436204910278e-02
6.406780332326889038e-02
1.141312047839164734e-01
1.126258224248886108e-01
-2.108882516622543335e-01
3.861738834530115128e-03
-6.351629644632339478e-02
1.352116018533706665e-01
-1.892915926873683929e-02
-7.298681139945983887e-02
-3.136850520968437195e-02
9.693786501884460449e-02
3.019771873950958252e-01
-2.611626684665679932e-01
-1.245535835623741150e-01
8.389095962047576904e-02
1.395563185214996338e-01
-4.560258239507675171e-02
2.527106702327728271e-01
-1.004423499107360840e-01
1.894269287586212158e-01
4.449935629963874817e-02
-1.917387098073959351e-01
2.314477264881134033e-01
9.200253337621688843e-02
-1.324948016554117203e-02
-7.090143114328384399e-02
-1.803352385759353638e-01
3.408108279109001160e-02
8.199153095483779907e-02
1.747809350490570068e-02
3.266399353742599487e-02
-1.594011932611465454e-01
-2.348055504262447357e-02
-2.501842752099037170e-02
1.241068989038467407e-01
-1.976345926523208618e-01
-2.891565561294555664e-01
3.815475106239318848e-02
-1.546235755085945129e-02
-6.037531793117523193e-02
3.510162979364395142e-02
-2.181481011211872101e-02
-3.096040487289428711e-01
3.340745568275451660e-01
-3.121018782258033752e-02
-2.733812108635902405e-02
-9.124948992393910885e-04
-1.304591596126556396e-01
3.948219716548919678e-01
-2.672571130096912384e-02
-1.445562839508056641e-01
-6.559078395366668701e-02
-8.391565829515457153e-02
2.446324676275253296e-01
-6.127133592963218689e-02
-6.194974482059478760e-02
1.413232982158660889e-01
-1.433273404836654663e-01
2.538379430770874023e-01
-8.925428614020347595e-03
9.440065175294876099e-02
2.528144121170043945e-01
-2.353295832872390747e-01
3.078189492225646973e-01
-5.797508731484413147e-02
-9.528215974569320679e-03
2.653806237503886223e-03
-2.950822003185749054e-02
2.017349004745483398e-01
6.278716772794723511e-02
8.715114742517471313e-02
-3.932377323508262634e-02
-1.187517717480659485e-01
8.490866422653198242e-02
5.300328135490417480e-02
1.668261885643005371e-01
1.565198302268981934e-01
1.535464450716972351e-02
1.020482853055000305e-01
1.916008041007444263e-04
2.682171761989593506e-01
-1.583234816789627075e-01
-1.757638305425643921e-01
-2.619927376508712769e-02
1.758381873369216919e-01
-1.950582303106784821e-02
-1.153520122170448303e-01
-3.467655479907989502e-01
-7.603532075881958008e-02
2.423811145126819611e-02
1.358763575553894043e-01
-3.319517374038696289e-01
2.437673062086105347e-01
-2.203723415732383728e-02
-3.489606454968452454e-02
-2.479948848485946655e-02
-3.476281166076660156e-01
1.846418082714080811e-01
-5.227353051304817200e-02
4.036008566617965698e-02
7.536705583333969116e-02
-5.115460604429244995e-02
3.838068544864654541e-01
6.708221882581710815e-02
-4.445723444223403931e-02
-3.957908228039741516e-02
1.917486935853958130e-01
2.598760128021240234e-01
-5.040487274527549744e-03
-5.654839426279067993e-02
-8.674547076225280762e-02
-1.652122884988784790e-01
8.592792153358459473e-01
1.738997846841812134e-01
1.004775464534759521e-01
-7.067809253931045532e-02
1.992004364728927612e-01
4.218375086784362793e-01
3.257985711097717285e-01
-8.638897538185119629e-02
-2.075338549911975861e-02
3.085228800773620605e-01
2.812530398368835449e-01
2.812506556510925293e-01
-1.013501510024070740e-01
-5.478225648403167725e-02
5.091534927487373352e-02
-7.066649198532104492e-02
-2.081327289342880249e-01
-3.984092921018600464e-02
-5.649165809154510498e-02
-1.275586932897567749e-01
-2.871268689632415771e-01
-1.067684069275856018e-01
2.535707131028175354e-02
-1.329509466886520386e-01
-2.394717186689376831e-01
-2.445795834064483643e-01
-6.287232786417007446e-02
-1.779257208108901978e-01
-9.181632101535797119e-02
9.504748135805130005e-02
1.734798699617385864e-01
-9.152265265583992004e-03
-5.685238540172576904e-02
-1.977908425033092499e-02
9.477488696575164795e-02
-1.008567661046981812e-01
-1.639473587274551392e-01
2.001519314944744110e-02
8.630296587944030762e-02
6.599722057580947876e-02
-1.200962960720062256e-01
-1.747787147760391235e-01
9.071776270866394043e-02
7.464545965194702148e-02
1.679087877273559570e-01
-1.495697647333145142e-01
1.099589467048645020e-01
-2.490797638893127441e-02
3.200681880116462708e-02
-6.743378937244415283e-02
-1.300802826881408691e-02
1.954281702637672424e-02
1.334203034639358521e-01
1.534232199192047119e-01
3.249167203903198242e-01
1.298367232084274292e-01
1.178350076079368591e-01
1.169769540429115295e-01
1.777759566903114319e-02
5.754468590021133423e-02
-2.033360898494720459e-01
-1.822620183229446411e-01
8.399552106857299805e-02
-1.125864777714014053e-02
-1.082040518522262573e-01
-1.781406402587890625e-01
-1.426288485527038574e-01
-4.510710015892982483e-02
4.077443480491638184e-02
-1.857295483350753784e-01
-1.920681595802307129e-01
-9.589903056621551514e-02
7.247785478830337524e-02
1.272264122962951660e-01
-1.241203323006629944e-01
-2.642590701580047607e-01
4.623758420348167419e-02
-3.474361449480056763e-02
3.782521933317184448e-02
4.095999523997306824e-02
2.986917793750762939e-01
5.515042692422866821e-02
1.372269839048385620e-01
-3.621396049857139587e-02
1.401509195566177368e-01
3.467816412448883057e-01
8.947060257196426392e-02
-1.695165038108825684e-01
-9.718021005392074585e-02
1.370295137166976929e-01
-3.783333301544189453e-02
-1.268584132194519043e-01
-1.194770559668540955e-01
5.835924670100212097e-02
3.778158128261566162e-02
-1.868888288736343384e-01
-1.871569305658340454e-01
-9.093154221773147583e-02
2.410465106368064880e-02
1.642643287777900696e-02
-4.842025786638259888e-02
2.011850662529468536e-02
9.447651356458663940e-02
1.251940578222274780e-01
3.661812245845794678e-01
4.338679015636444092e-01
1.570252329111099243e-01
3.525507077574729919e-02
1.196125447750091553e-01
7.784220576286315918e-02
-1.596519351005554199e-01
-4.406116306781768799e-01
1.006322428584098816e-01
1.379697918891906738e-01
6.506470381282269955e-04
-1.164857968688011169e-01
-2.786442935466766357e-01
9.542676061391830444e-02
8.156611770391464233e-02
9.175859391689300537e-03
-2.429564446210861206e-01
-2.218911796808242798e-01
2.009968310594558716e-01
1.133135855197906494e-01
-4.647251591086387634e-02
-2.567319869995117188e-01
7.042033225297927856e-02
3.291734457015991211e-01
-1.210133209824562073e-01
1.524544656276702881e-01
-5.875148624181747437e-02
-3.318935632705688477e-01
-7.462731748819351196e-02
-2.372149527072906494e-01
-2.586396932601928711e-01
-2.391433268785476685e-01
-8.977112174034118652e-02
-3.269470930099487305e-01
1.334985624998807907e-02
-2.323384284973144531e-01
1.055476665496826172e-01
-5.054123234003782272e-03
-5.236367881298065186e-02
-9.059412777423858643e-02
-1.435419544577598572e-02
2.243276536464691162e-01
6.848956644535064697e-02
3.729396848939359188e-04
-1.316025406122207642e-01
6.955551356077194214e-02
-8.093618787825107574e-03
3.746323753148317337e-03
1.347302198410034180e-01
1.906475722789764404e-01
9.188145399093627930e-02
-3.505107462406158447e-01
-2.834463715553283691e-01
2.595786154270172119e-01
4.753366112709045410e-02
2.634579129517078400e-02
-3.957047127187252045e-03
-2.262138575315475464e-01
3.011371754109859467e-02
8.705426007509231567e-02
-2.860064432024955750e-02
-1.537594795227050781e-01
-3.500697910785675049e-01
1.184093654155731201e-01
1.144043654203414917e-01
6.787498295307159424e-02
-2.900926172733306885e-01
-4.821865260601043701e-01
5.948647111654281616e-02
2.280136197805404663e-01
2.708528637886047363e-01
-1.416173875331878662e-01
-2.006199806928634644e-01
2.113176882266998291e-01
9.213147312402725220e-02
-9.985729120671749115e-04
-2.806757763028144836e-02
-1.353896223008632660e-03
9.745687246322631836e-02
9.383962303400039673e-02
1.079212203621864319e-01
-5.733872577548027039e-02
-7.204959541559219360e-02
-6.455188244581222534e-02
3.919037804007530212e-02
1.197460144758224487e-01
-5.084424465894699097e-02
-4.183383192867040634e-03
-9.800928831100463867e-02
2.195831947028636932e-02
-9.372602403163909912e-02
-2.085099183022975922e-02
1.066236644983291626e-01
2.664657868444919586e-02
8.077121526002883911e-02
-1.306718140840530396e-01
1.244829148054122925e-01
8.145111054182052612e-02
-1.905601173639297485e-01
9.123633801937103271e-02
2.141704112291336060e-01
-3.058468401432037354e-01
-4.769562184810638428e-01
1.921455003321170807e-02
1.072172224521636963e-01
-2.138668112456798553e-02
-2.531929612159729004e-01
-2.775401473045349121e-01
-1.512556374073028564e-01
6.093782931566238403e-02
2.514894865453243256e-02
-1.126725375652313232e-01
-3.255017101764678955e-01
-6.448218133300542831e-03
1.144338324666023254e-01
8.587105572223663330e-02
1.744279265403747559e-02
-2.065722942352294922e-01
-1.109575703740119934e-01
1.307691931724548340e-01
6.523481756448745728e-02
6.601414829492568970e-02
9.510239213705062866e-02
-6.449208408594131470e-02
1.017661169171333313e-01
-1.569094806909561157e-01
-6.391983479261398315e-02
-1.706145852804183960e-01
4.990708455443382263e-02
1.471319347620010376e-01
-6.685514003038406372e-02
1.135280728340148926e-01
1.234561651945114136e-01
1.765214800834655762e-01
6.245616357773542404e-03
-1.556188240647315979e-02
5.992308259010314941e-02
-7.792942970991134644e-02
9.708793461322784424e-02
-6.004013866186141968e-02
-8.108410239219665527e-02
-9.736534208059310913e-02
-6.516563892364501953e-02
-7.315427809953689575e-02
4.119014367461204529e-02
4.539331048727035522e-02
-2.135195732116699219e-01
-1.764082014560699463e-01
-8.193825185298919678e-02
-3.904179856181144714e-02
1.816055774688720703e-01
8.752373605966567993e-02
-4.761848747730255127e-01
3.875969648361206055e-01
-6.400391459465026855e-02
-3.138042613863945007e-02
6.477376073598861694e-02
-2.709168195724487305e-01
3.069906830787658691e-01
9.227689355611801147e-02
1.654390692710876465e-01
-2.120640315115451813e-02
-9.627338498830795288e-02
9.800013154745101929e-02
-1.032878085970878601e-01
2.368479669094085693e-01
1.786308884620666504e-01
1.118759717792272568e-02
-1.025275588035583496e-01
6.134913489222526550e-02
5.603246018290519714e-02
2.206720858812332153e-01
4.433685913681983948e-02
2.166289240121841431e-01
1.202493757009506226e-01
1.677286624908447266e-01
4.428973421454429626e-03
-3.559362888336181641e-01
2.328641898930072784e-02
7.335709780454635620e-02
-3.378467634320259094e-02
-1.269707828760147095e-01
-4.995592534542083740e-01
-1.962250769138336182e-01
2.646434307098388672e-01
-1.193587929010391235e-01
-1.909720152616500854e-01
-3.858603239059448242e-01
-2.151673585176467896e-01
2.936369180679321289e-01
1.180828064680099487e-01
-1.983637660741806030e-01
-3.783330023288726807e-01
1.365082412958145142e-01
5.137207452207803726e-03
2.116020172834396362e-01
-2.457519471645355225e-01
-1.182846426963806152e-01
-3.091631829738616943e-01
-1.517338603734970093e-01
1.107199788093566895e-01
3.683347953483462334e-03
-3.128320276737213135e-01
-4.504444822669029236e-02
2.007963806390762329e-01
2.294853627681732178e-01
2.747940421104431152e-01
5.264856666326522827e-02
-1.174488812685012817e-01
1.267483085393905640e-01
3.016268014907836914e-01
3.108591735363006592e-01
-2.642613947391510010e-01
-7.671815901994705200e-02
4.945572465658187866e-02
2.168370038270950317e-01
1.337740272283554077e-01
-1.048237904906272888e-01
-1.104443371295928955e-01
1.167002543807029724e-01
-1.086029857397079468e-01
8.602084964513778687e-02
-9.268656373023986816e-02
3.722849860787391663e-02
-4.065915197134017944e-02
-2.035908997058868408e-01
5.405032634735107422e-02
2.054037153720855713e-01
-4.719535633921623230e-02
-3.184295818209648132e-02
-5.324751511216163635e-02
1.530776768922805786e-01
1.367260515689849854e-01
-3.387048840522766113e-02
-2.328792400658130646e-02
-2.493657544255256653e-02
-1.625516861677169800e-01
1.843347996473312378e-01
4.287398979067802429e-02
2.812268435955047607e-01
-1.489591598510742188e-02
-2.505114972591400146e-01
-8.284752070903778076e-02
1.278760880231857300e-01
2.227203547954559326e-01
-1.164032369852066040e-01
-3.271235823631286621e-01
-1.149568259716033936e-01
-2.288138717412948608e-01
-3.457292616367340088e-01
2.033939659595489502e-01
1.449147760868072510e-01
-3.582170307636260986e-01
1.711588911712169647e-02
1.300516817718744278e-02
4.535495340824127197e-01
1.195436418056488037e-01
-6.924337893724441528e-02
2.521905116736888885e-02
-1.414124369621276855e-01
1.447656154632568359e-01
2.911778166890144348e-03
-1.635310798883438110e-01
9.680097550153732300e-02
-1.118929833173751831e-01
-5.058768764138221741e-02
-7.554021198302507401e-03
-2.976846396923065186e-01
4.027977585792541504e-02
-3.324307799339294434e-01
-1.816559880971908569e-01
8.978314697742462158e-03
-2.619489729404449463e-01
3.423276543617248535e-02
-1.986718177795410156e-01
-2.588944435119628906e-01
-6.524359434843063354e-02
1.802704334259033203e-01
-2.200027182698249817e-02
-6.784415990114212036e-02
1.159861087799072266e-01
1.766000986099243164e-01
-1.741576194763183594e-01
1.470779776573181152e-01
9.703917801380157471e-02
1.656672656536102295e-01
1.461906433105468750e-01
-1.124636828899383545e-01
5.260766670107841492e-02
-4.397993441671133041e-03
3.251146674156188965e-01
1.068821102380752563e-01
-2.996179088950157166e-02
2.613248527050018311e-01
1.099039614200592041e-01
2.003861516714096069e-01
-8.597565442323684692e-02
-8.049002848565578461e-03
-2.859313189983367920e-01
-3.069097101688385010e-01
1.461462080478668213e-01
3.934683203697204590e-01
1.699615865945816040e-01
9.182512760162353516e-02
1.618120819330215454e-01
3.365617990493774414e-02
4.615325331687927246e-01
2.435354143381118774e-01
6.952875852584838867e-02
4.627212509512901306e-02
-5.876225605607032776e-02
6.974636763334274292e-02
-1.463601645082235336e-02
1.975744366645812988e-01
-5.089840665459632874e-02
-2.724900841712951660e-01
-3.079016804695129395e-01
-1.825090646743774414e-01
1.449280828237533569e-01
3.120057843625545502e-02
-4.857703745365142822e-01
-3.501905798912048340e-01
-1.792724877595901489e-01
5.015815142542123795e-03
-1.735660992562770844e-02
6.136861443519592285e-01
-2.133971452713012695e-01
-1.432840377092361450e-01
1.932748109102249146e-01
2.009587585926055908e-01
-7.932855933904647827e-02
-1.209561899304389954e-01
-2.026204019784927368e-01
-1.663993671536445618e-02
1.472587883472442627e-01
-1.703720241785049438e-01
1.308024823665618896e-01
-2.447423785924911499e-01
1.676604151725769043e-02
-1.284698247909545898e-01
-1.915423870086669922e-01
4.678639471530914307e-01
-3.967825695872306824e-02
7.684525102376937866e-02
-3.997353315353393555e-01
3.027686476707458496e-01
6.876908540725708008e-01
1.143160164356231689e-01
2.107063867151737213e-02
2.141823768615722656e-01
1.809627562761306763e-02
2.166465073823928833e-01
1.060501709580421448e-01
7.456139475107192993e-02
-1.338389981538057327e-02
2.256767451763153076e-02
9.137068688869476318e-02
2.949997223913669586e-02
1.057340577244758606e-02
4.491759464144706726e-02
-5.397785454988479614e-02
-6.442271173000335693e-02
-7.009693235158920288e-02
7.568927109241485596e-02
-1.021275203675031662e-02
-9.041687846183776855e-02
-2.865660563111305237e-02
-2.795322984457015991e-02
-2.725559286773204803e-02
3.810114040970802307e-02
7.803330570459365845e-02
1.984923630952835083e-01
1.643891632556915283e-01
-9.279836900532245636e-03
-1.012861207127571106e-01
-8.060942054726183414e-04
-3.605666011571884155e-02
6.957571953535079956e-03
-2.040363475680351257e-02
-3.141836076974868774e-02
-9.718663990497589111e-02
2.344028837978839874e-02
-6.381817907094955444e-02
-4.641301557421684265e-02
5.316770821809768677e-02
-8.229167014360427856e-02
1.577830873429775238e-02
-2.842668071389198303e-02
1.669687479734420776e-01
1.432723999023437500e-01
4.133290424942970276e-02
3.665110096335411072e-02
-2.589540369808673859e-02
2.275153100490570068e-01
1.812061965465545654e-01
5.587648227810859680e-02
-2.435017004609107971e-02
-4.272979125380516052e-02
-1.556238979101181030e-01
-9.056188911199569702e-02
-7.643683254718780518e-02
-7.913157343864440918e-02
-1.727960258722305298e-01
-9.042373299598693848e-02
-2.548821568489074707e-01
-2.332482300698757172e-02
-1.556365340948104858e-01
-1.132856681942939758e-01
-8.676838874816894531e-02
-2.345430552959442139e-01
-1.994195207953453064e-02
-1.092476844787597656e-01
-5.565459653735160828e-02
-6.695309281349182129e-02
-1.494302600622177124e-01
-1.001960113644599915e-01
-3.475425019860267639e-02
8.713591843843460083e-02
-8.708854764699935913e-02
-5.222133174538612366e-02
-7.682427763938903809e-02
1.424407213926315308e-01
1.635546237230300903e-01
2.858479507267475128e-02
7.220540940761566162e-02
5.913805961608886719e-02
1.966002285480499268e-01
5.943562462925910950e-02
9.629999846220016479e-02
9.079080075025558472e-02
-5.236437544226646423e-02
9.314879029989242554e-02
1.288751214742660522e-01
1.801763325929641724e-01
3.085298277437686920e-02
-1.235557124018669128e-01
7.712276279926300049e-02
-2.101176790893077850e-02
1.266320496797561646e-01
2.676240727305412292e-02
6.385497283190488815e-03
-5.422832816839218140e-02
1.613511145114898682e-02
-7.615576498210430145e-03
-6.073429062962532043e-02
-1.857800967991352081e-02
-1.546267420053482056e-01
-9.074848890304565430e-02
-1.396783590316772461e-01
-6.475815922021865845e-02
-1.309566795825958252e-01
-1.084984168410301208e-01
-1.199183240532875061e-01
-6.139625981450080872e-02
-1.365006417036056519e-01
-2.428316026926040649e-01
-1.726450920104980469e-01
-8.240874111652374268e-02
-3.415431454777717590e-02
-1.884482204914093018e-01
-1.919433474540710449e-01
-4.445184394717216492e-02
-4.049343988299369812e-03
-2.004875242710113525e-02
-5.687434598803520203e-02
-1.726221293210983276e-01
-9.237848222255706787e-02
3.115347027778625488e-02
2.126750051975250244e-01
-4.155510291457176208e-02
-2.615911886096000671e-02
4.587158560752868652e-02
2.399510890245437622e-01
-3.989039734005928040e-02
-1.648760586977005005e-01
2.572781145572662354e-01
-1.463756114244461060e-01
-1.569561809301376343e-01
-8.635968714952468872e-02
-1.678873300552368164e-01
3.066701591014862061e-01
-8.740258403122425079e-03
9.070245176553726196e-02
-4.533835500478744507e-02
-1.401465088129043579e-01
1.557832658290863037e-01
1.423819065093994141e-01
-1.206979248672723770e-02
-1.893486641347408295e-02
-3.326740860939025879e-02
6.284642964601516724e-02
3.579306006431579590e-01
1.768926680088043213e-01
2.948812767863273621e-02
-6.117778271436691284e-02
-5.800338461995124817e-02
1.270656287670135498e-01
1.180644929409027100e-01
-1.028275713324546814e-01
-1.761195361614227295e-01
-1.640664190053939819e-01
-2.218827232718467712e-02
-1.016363278031349182e-01
-1.096892803907394409e-01
-1.550678610801696777e-01
-2.092896401882171631e-02
8.327034860849380493e-02
-2.910204604268074036e-02
-1.822510957717895508e-01
-8.119530230760574341e-02
1.256971657276153564e-01
8.418948948383331299e-02
3.237568214535713196e-02
-1.701416373252868652e-01
-2.207335382699966431e-01
6.054536905139684677e-03
1.105408221483230591e-01
-3.034243732690811157e-02
-4.140051901340484619e-01
-9.149932861328125000e-02
4.421387314796447754e-01
7.134851217269897461e-01
3.981506526470184326e-01
1.203201040625572205e-01
6.330490857362747192e-02
-1.885185763239860535e-02
1.748589575290679932e-01
3.989660367369651794e-02
6.547416001558303833e-02
7.905007153749465942e-02
-7.496148347854614258e-02
5.287252366542816162e-02
1.236535459756851196e-01
9.023991972208023071e-02
-1.782232075929641724e-01
-4.353065788745880127e-02
1.586589775979518890e-02
-5.422007665038108826e-02
-6.807744503021240234e-02
-1.723523736000061035e-01
-1.833199895918369293e-02
4.881225526332855225e-02
-6.475756876170635223e-03
2.012152075767517090e-01
-1.311010867357254028e-01
-5.521990358829498291e-02
-5.702508985996246338e-02
-9.941612184047698975e-02
2.437054645270109177e-03
-1.604341529309749603e-02
-3.414688631892204285e-02
2.124003767967224121e-01
-2.264821529388427734e-01
1.167685240507125854e-01
1.820932924747467041e-01
-1.033669896423816681e-02
3.356588259339332581e-02
8.719518780708312988e-02
5.871752277016639709e-02
1.482904423028230667e-02
-3.989938274025917053e-02
3.473113104701042175e-02
-1.558809131383895874e-01
-4.481849074363708496e-02
-6.171252205967903137e-02
-1.144371777772903442e-01
1.281922906637191772e-01
-1.668667979538440704e-02
1.027278006076812744e-01
-2.880659103393554688e-01
2.704516425728797913e-02
-5.719605088233947754e-02
-3.764343261718750000e-02
-4.808130487799644470e-02
1.540340576320886612e-02
9.476187825202941895e-02
6.823982298374176025e-02
1.553220152854919434e-01
-5.066165700554847717e-03
6.056441739201545715e-02
2.465626299381256104e-01
-1.634914427995681763e-03
3.412704542279243469e-02
-1.231770291924476624e-01
3.143982589244842529e-02
3.480340242385864258e-01
-1.225726604461669922e-01
8.657132089138031006e-02
-4.353914037346839905e-02
2.049380093812942505e-01
8.595256507396697998e-02
-3.307810053229331970e-02
2.163172960281372070e-01
-1.307797282934188843e-01
3.652372062206268311e-01
3.477615118026733398e-01
2.263047248125076294e-01
-2.791646420955657959e-01
1.721738874912261963e-01
-1.027361210435628891e-02
-3.841812908649444580e-02
1.533810198307037354e-01
-1.253248155117034912e-01
1.835110038518905640e-01
-1.769048906862735748e-02
-9.119042754173278809e-02
1.576659083366394043e-01
1.601511798799037933e-02
-1.693437620997428894e-02
1.018626522272825241e-02
-3.101634383201599121e-01
-4.406786523759365082e-03
-1.381809860467910767e-01
-2.402729839086532593e-01
-5.703607574105262756e-02
-1.091944649815559387e-01
1.384273320436477661e-01
3.129404410719871521e-02
-2.091595679521560669e-01
-7.565081119537353516e-02
-1.190428808331489563e-02
9.010683745145797729e-02
-2.022953033447265625e-01
6.765586882829666138e-02
-3.533060252666473389e-01
3.542135655879974365e-02
-1.551345586776733398e-01
1.532413810491561890e-01
9.424436092376708984e-02
-9.726874530315399170e-02
-4.035961627960205078e-02
-7.944019883871078491e-02
-5.454564467072486877e-02
-1.022614352405071259e-02
-3.059307634830474854e-01
-1.843250691890716553e-01
7.540293037891387939e-02
3.966363146901130676e-02
2.906862199306488037e-01
-1.226812973618507385e-02
-9.215728938579559326e-02
1.227927580475807190e-01
1.250181645154953003e-01
1.050563573837280273e+00
-4.081508517265319824e-02
6.010289117693901062e-02
-9.871579706668853760e-02
1.147608906030654907e-01
-2.498682141304016113e-01
-3.168456256389617920e-01
1.449286192655563354e-01
6.300149112939834595e-02
3.145297616720199585e-02
-1.623479276895523071e-01
-2.018594890832901001e-01
1.208626106381416321e-01
-1.475872192531824112e-02
-2.000419348478317261e-01
-2.678617835044860840e-01
2.382778674364089966e-01
2.453342527151107788e-01
-4.614468291401863098e-02
9.331981092691421509e-02
7.523296028375625610e-02
-1.365216821432113647e-01
-1.225583851337432861e-01
-1.247558072209358215e-01
7.287934422492980957e-02
-5.521518364548683167e-02
-6.616821140050888062e-02
-6.357105076313018799e-02
3.441672027111053467e-02
-6.626639515161514282e-02
-5.408019199967384338e-02
-3.738199472427368164e-01
-1.953919976949691772e-01
-1.030642986297607422e-01
3.295722305774688721e-01
-1.585232317447662354e-01
-3.988476842641830444e-02
1.403249651193618774e-01
1.098594740033149719e-01
-5.374222621321678162e-02
-5.888948217034339905e-02
2.636806806549429893e-03
-1.313365697860717773e-01
1.311552375555038452e-01
7.762916386127471924e-02
-2.527621388435363770e-01
9.444252401590347290e-02
1.501508709043264389e-02
2.691520005464553833e-02
8.452430367469787598e-02
9.778345003724098206e-03
2.373875677585601807e-01
1.516767889261245728e-01
1.851034164428710938e-01
2.713427692651748657e-02
-4.347992539405822754e-01
-3.557707667350769043e-01
-1.235939413309097290e-01
1.714569143950939178e-02
1.606206446886062622e-01
-1.763225793838500977e-01
2.264899164438247681e-01
-7.603202015161514282e-02
9.835472702980041504e-02
2.119974605739116669e-02
3.139860695227980614e-03
-1.151529327034950256e-02
1.945316046476364136e-01
1.650362014770507812e-01
1.079062893986701965e-01
-1.409921701997518539e-02
-4.679585341364145279e-03
-5.969947949051856995e-02
-9.233114868402481079e-02
-4.982396960258483887e-03
1.190999075770378113e-01
1.741368137300014496e-02
-3.877164423465728760e-02
6.241098046302795410e-02
2.626035213470458984e-01
-4.548146948218345642e-02
-1.921604275703430176e-01
-3.731154501438140869e-01
1.145306602120399475e-01
1.026979833841323853e-01
-2.273181974887847900e-01
-1.711934432387351990e-02
-1.209681928157806396e-01
-7.301980257034301758e-02
2.930350005626678467e-01
-2.305301278829574585e-02
-7.094711810350418091e-02
-2.008246816694736481e-02
-1.308094412088394165e-01
3.180850148200988770e-01
-9.086745232343673706e-02
-1.632534712553024292e-01
-1.211644485592842102e-01
-1.273151189088821411e-01
1.081584468483924866e-01
-3.352680476382374763e-03
-1.787478327751159668e-01
-9.427078068256378174e-02
-1.864247173070907593e-01
1.741327941417694092e-01
-5.256404280662536621e-01
-5.786746740341186523e-01
-3.010866343975067139e-01
3.902263194322586060e-02
-8.043565601110458374e-02
-1.080380976200103760e-01
-3.447358608245849609e-01
3.165314793586730957e-01
1.404833048582077026e-01
-4.546807333827018738e-02
1.692942716181278229e-02
7.387223094701766968e-02
2.784840762615203857e-01
4.310510680079460144e-02
-5.516139417886734009e-02
1.191250458359718323e-01
9.346141666173934937e-02
8.143670111894607544e-02
3.946184180676937103e-03
-5.918007716536521912e-02
2.502774298191070557e-01
3.131847083568572998e-01
1.247376650571823120e-01
6.863095611333847046e-02
1.583526730537414551e-01
-1.119138151407241821e-01
-2.042029947042465210e-01
9.066699147224426270e-01
1.725164204835891724e-01
-4.187601432204246521e-02
2.817074954509735107e-01
3.923668265342712402e-01
-2.325138775631785393e-03
-4.194295499473810196e-03
6.599349528551101685e-02
2.665524780750274658e-01
2.341323941946029663e-01
-1.936978995800018311e-01
-2.600884139537811279e-01
5.988935008645057678e-02
1.143629774451255798e-01
-1.466230601072311401e-01
-2.346998751163482666e-01
-6.943171471357345581e-02
-8.502419106662273407e-03
-3.590565547347068787e-02
-2.959931790828704834e-01
-3.724227845668792725e-01
-9.479531645774841309e-02
4.370028153061866760e-02
2.002769410610198975e-01
5.843778327107429504e-02
3.825089931488037109e-01
1.083529293537139893e-01
-4.431346431374549866e-02
-7.354737073183059692e-02
-2.893740534782409668e-01
-1.968274563550949097e-01
-4.177060723304748535e-02
-2.474496960639953613e-01
6.172288581728935242e-02
1.846128255128860474e-01
1.642037034034729004e-01
1.061748042702674866e-01
-9.544092230498790741e-03
-1.273979991674423218e-01
-5.078038573265075684e-02
1.813102066516876221e-01
1.498989760875701904e-02
4.814639315009117126e-02
4.555987194180488586e-02
5.669168382883071899e-02
4.758109450340270996e-01
3.959777355194091797e-01
1.269828528165817261e-01
-1.688577979803085327e-01
-1.255940198898315430e-01
1.360662430524826050e-01
5.162196606397628784e-02
-1.246802136301994324e-01
-6.065931543707847595e-02
1.055869683623313904e-01
1.738915294408798218e-01
1.699811816215515137e-01
9.252619743347167969e-02
-2.452875524759292603e-01
6.618981808423995972e-02
-8.680275827646255493e-02
-3.404742851853370667e-02
-2.739277295768260956e-02
-1.322913765907287598e-01
2.256795763969421387e-01
-2.407199516892433167e-02
2.542060613632202148e-02
8.728355914354324341e-02
7.530574500560760498e-02
5.980081856250762939e-02
-9.675807505846023560e-02
-6.237844750285148621e-02
-1.646686159074306488e-02
-1.879740506410598755e-01
1.116855293512344360e-01
4.072350859642028809e-01
6.416575610637664795e-02
-2.881643176078796387e-01
-1.302130222320556641e-01
6.931661814451217651e-02
-1.734446734189987183e-01
7.552278041839599609e-02
-4.716174677014350891e-02
-1.666130125522613525e-02
1.714615225791931152e-01
-8.903009444475173950e-02
-2.028995938599109650e-02
-2.994888462126255035e-02
-4.457292333245277405e-02
6.121756974607706070e-03
-1.943110674619674683e-01
-1.950006000697612762e-02
3.193559348583221436e-01
1.146616935729980469e-01
-1.373574435710906982e-01
-3.715305924415588379e-01
-1.753703504800796509e-01
2.635549306869506836e-01
-4.668415337800979614e-02
-1.173352915793657303e-02
3.197801709175109863e-01
4.275002181529998779e-01
-2.529197335243225098e-01
1.219550594687461853e-01
-2.544679865241050720e-02
4.622486978769302368e-02
2.785963239148259163e-03
6.815444678068161011e-02
-7.964717596769332886e-02
-2.374009042978286743e-02
1.087141484022140503e-01
7.160359621047973633e-02
-2.828410863876342773e-01
-1.474590301513671875e-01
-1.595961153507232666e-01
-8.599588274955749512e-02
-1.757155805826187134e-01
-9.846031665802001953e-02
1.345845013856887817e-01
-3.975671902298927307e-02
2.718394100666046143e-01
-3.034479543566703796e-02
-1.444077938795089722e-01
-2.935766577720642090e-01
-9.680218249559402466e-02
-7.510391622781753540e-02
2.533921897411346436e-01
7.088992744684219360e-02
-2.997962757945060730e-02
-8.853245526552200317e-02
-4.121792316436767578e-02
2.158882655203342438e-02
-1.759202331304550171e-01
-1.973701268434524536e-01
4.208939149975776672e-02
2.476243376731872559e-01
-9.699612855911254883e-02
-1.443377137184143066e-01
7.498098909854888916e-02
1.651591658592224121e-01
2.515832483768463135e-01
-9.174566715955734253e-02
-8.516505360603332520e-03
3.058656454086303711e-01
-6.641649641096591949e-03
4.744597896933555603e-02
-3.125768899917602539e-01
-6.022933498024940491e-02
2.926274836063385010e-01
-9.629447758197784424e-02
5.380558967590332031e-01
-1.771911084651947021e-01
-3.255305588245391846e-01
-7.260572910308837891e-02
-6.317733228206634521e-02
-2.087039873003959656e-02
-2.316712290048599243e-01
-5.700041353702545166e-02
-7.825569063425064087e-02
1.737063378095626831e-01
-2.233269065618515015e-01
-2.775983512401580811e-01
3.960568457841873169e-02
1.172517016530036926e-01
-9.555760771036148071e-02
-5.461146831512451172e-01
-2.400008440017700195e-01
2.568305470049381256e-02
1.647094935178756714e-01
-4.461755752563476562e-01
-4.651203453540802002e-01
-1.717679798603057861e-01
2.397969737648963928e-02
-7.038749009370803833e-02
-1.032609492540359497e-01
-9.193594008684158325e-02
-1.692826449871063232e-01
2.678998112678527832e-01
-1.235850676894187927e-01
9.317141026258468628e-03
1.584299653768539429e-01
1.788368076086044312e-01
4.081319272518157959e-02
-1.674344241619110107e-01
-5.744643136858940125e-02
-1.943756341934204102e-01
-5.868412181735038757e-02
1.501390058547258377e-02
-2.297068201005458832e-02
-4.189851507544517517e-02
-2.135224895027931780e-05
4.323131218552589417e-02
1.030901595950126648e-01
1.868090033531188965e-01
3.072223961353302002e-01
1.094292253255844116e-01
3.978930413722991943e-02
1.207231357693672180e-01
-1.416866481304168701e-01
-8.454930037260055542e-02
7.540700584650039673e-02
-7.182200998067855835e-02
-2.554974853992462158e-01
5.101672932505607605e-02
-1.588995158672332764e-01
-6.462252885103225708e-02
-3.180835396051406860e-02
-4.209924023598432541e-03
6.773888319730758667e-02
-7.233010604977607727e-03
-2.905593253672122955e-02
-3.832493443042039871e-03
-4.504243284463882446e-02
1.503563970327377319e-01
1.013804301619529724e-01
-3.270968049764633179e-02
9.573041647672653198e-02
1.037219837307929993e-01
5.350970663130283356e-03
1.825282871723175049e-01
5.837547127157449722e-03
1.811659038066864014e-01
1.739517897367477417e-01
-3.930672109127044678e-01
-3.147186338901519775e-01
-3.199555873870849609e-01
-4.648011624813079834e-01
-1.467128694057464600e-01
6.180160120129585266e-02
-1.749694496393203735e-01
-1.574333608150482178e-01
-1.951311826705932617e-01
-5.353049933910369873e-02
2.720145322382450104e-02
-1.350481957197189331e-01
4.270846396684646606e-02
-2.536896802484989166e-02
-7.195630669593811035e-02
1.485856473445892334e-01
1.352005079388618469e-02
1.086543351411819458e-01
9.457713365554809570e-02
1.368812769651412964e-01
3.377726674079895020e-01
2.564897537231445312e-01
3.054338693618774414e-01
1.191056966781616211e-01
1.288138777017593384e-01
9.658519923686981201e-02
-1.908751428127288818e-01
1.819214820861816406e-01
-2.473625987768173218e-01
-1.901808977127075195e-01
-1.122565940022468567e-01
-9.851670265197753906e-02
-1.191187370568513870e-02
-1.469372361898422241e-01
4.799884557723999023e-02
-1.523299813270568848e-01
-8.545821160078048706e-02
-1.769013851881027222e-01
1.699018612271174788e-04
5.147355422377586365e-02
1.466290503740310669e-01
-1.267955303192138672e-01
-2.137610316276550293e-02
8.833809942007064819e-02
-1.662076637148857117e-02
1.951756179332733154e-01
1.974657773971557617e-01
2.894242934416979551e-04
-1.001923996955156326e-02
3.491049110889434814e-01
-2.529960274696350098e-01
-3.904318213462829590e-01
-4.357534348964691162e-01
-5.896975398063659668e-01
-2.016702592372894287e-01
-5.208015441894531250e-02
-2.063006460666656494e-01
-7.513866573572158813e-02
-9.601158648729324341e-02
-1.921440958976745605e-01
-6.976533681154251099e-03
4.692627117037773132e-02
9.609050303697586060e-02
-8.811351843178272247e-03
8.185357600450515747e-02
2.970126569271087646e-01
1.975350826978683472e-01
1.337835192680358887e-01
1.505255103111267090e-01
8.486623317003250122e-02
4.025912880897521973e-01
3.564490079879760742e-01
1.997220367193222046e-01
2.726168334484100342e-01
2.720271944999694824e-01
-5.487070679664611816e-01
-1.419574320316314697e-01
-1.567606627941131592e-01
2.533531188964843750e-02
4.406593143939971924e-01
-2.745139598846435547e-01
-1.526883710175752640e-02
-1.513047143816947937e-02
3.240813314914703369e-01
1.539676636457443237e-01
7.068785838782787323e-03
-4.782315343618392944e-02
-3.333267569541931152e-01
-5.825410131365060806e-03
6.038606911897659302e-02
-1.178378462791442871e-01
-1.296294033527374268e-01
-1.407802104949951172e-01
-5.401858687400817871e-02
-4.200005158782005310e-02
-2.724361233413219452e-02
-1.552190929651260376e-01
-9.067006409168243408e-02
7.032041996717453003e-02
-1.169446948915719986e-02
3.557026088237762451e-01
9.659045934677124023e-02
1.925042420625686646e-01
1.206912249326705933e-01
4.259112179279327393e-01
-7.010634243488311768e-02
1.901304423809051514e-01
3.172840774059295654e-01
6.297343224287033081e-02
3.865011334419250488e-01
-5.880557745695114136e-02
-1.674411445856094360e-01
2.511670589447021484e-01
1.925906687974929810e-01
2.373031824827194214e-01
-1.968465000391006470e-02
1.519486457109451294e-01
2.105805724859237671e-01
2.636579871177673340e-01
4.625749215483665466e-02
-3.557757940143346786e-03
5.719316005706787109e-02
2.225120961666107178e-01
5.415558815002441406e-02
3.573414310812950134e-02
-3.071647882461547852e-02
1.106715761125087738e-02
9.049028903245925903e-02
-8.926577866077423096e-02
1.526547968387603760e-01
-9.440170228481292725e-02
-7.140906155109405518e-02
-4.883484914898872375e-02
-3.789640218019485474e-02
1.572901904582977295e-01
7.333233207464218140e-02
5.202675238251686096e-02
4.697534441947937012e-02
-5.590122938156127930e-02
2.223460525274276733e-01
-1.301263421773910522e-01
-1.493720263242721558e-01
-1.227413341403007507e-01
-2.539781630039215088e-01
-4.038010165095329285e-02
-2.149625718593597412e-01
-1.506654024124145508e-01
-2.320454120635986328e-01
-5.037413239479064941e-01
-3.152110055088996887e-02
1.297648102045059204e-01
2.852798998355865479e-01
1.814463138580322266e-01
3.372851312160491943e-01
2.782122194766998291e-01
-7.649476081132888794e-02
8.286403119564056396e-02
1.345552206039428711e-01
1.346226409077644348e-02
3.348210453987121582e-02
2.302228100597858429e-02
-1.591472774744033813e-01
2.107448726892471313e-01
7.314788550138473511e-02
9.011900052428245544e-03
-1.731719970703125000e-01
-1.809190362691879272e-01
7.631924934685230255e-03
9.839438134804368019e-04
-1.033554226160049438e-01
1.632947102189064026e-02
-1.297407150268554688e-01
-1.743311285972595215e-01
-1.645870059728622437e-01
-8.025974035263061523e-02
5.078546330332756042e-02
1.929272711277008057e-01
-1.198126375675201416e-01
-2.129045724868774414e-01
4.998343996703624725e-03
-1.893832683563232422e-01
-6.893406808376312256e-02
3.732873126864433289e-02
-5.999861285090446472e-02
-4.328345507383346558e-02
-1.625067740678787231e-02
-2.160045206546783447e-01
-7.453300058841705322e-02
-1.490724384784698486e-01
-5.050826072692871094e-02
9.742917120456695557e-02
2.095364034175872803e-02
-1.759948134422302246e-01
2.467314340174198151e-02
-2.051065117120742798e-01
-6.329050660133361816e-02
1.031512171030044556e-01
1.117825433611869812e-01
-1.486001759767532349e-01
-3.414375782012939453e-01
-7.798243314027786255e-02
1.240069270133972168e-01
1.663014441728591919e-01
2.226187139749526978e-01
2.632072567939758301e-01
-3.512746095657348633e-01
-1.567992120981216431e-01
3.423159942030906677e-02
2.072892785072326660e-01
2.638038098812103271e-01
-3.223649561405181885e-01
-4.172208905220031738e-02
1.214202120900154114e-01
2.059936821460723877e-01
3.379029035568237305e-01
-3.341456055641174316e-01
-1.415124088525772095e-01
-1.778149902820587158e-01
-6.299897283315658569e-02
4.310166090726852417e-02
-1.679095923900604248e-01
-4.464472085237503052e-02
-2.570345997810363770e-01
-3.459475338459014893e-01
-1.273542046546936035e-01
1.135214194655418396e-01
-1.583140194416046143e-01
1.545023359358310699e-02
-4.302613735198974609e-01
-4.818615317344665527e-02
-6.061322242021560669e-02
1.972254924476146698e-02
7.889922708272933960e-03
-1.492782235145568848e-01
-2.250988781452178955e-01
4.418743308633565903e-03
-1.025384813547134399e-01
4.763426631689071655e-02
-6.435665767639875412e-03
-1.920079346746206284e-03
-2.445638030767440796e-01
9.193709120154380798e-03
-1.436724513769149780e-01
-1.988296806812286377e-01
-5.752851441502571106e-02
-2.493609189987182617e-01
1.266950666904449463e-01
-2.682428061962127686e-01
-2.706200480461120605e-01
-2.137481272220611572e-01
