-6.641491055488586426e-01
-3.709087967872619629e-01
7.384343147277832031e-01
1.516149401664733887e+00
1.077384471893310547e+00
4.819754362106323242e-01
8.309066295623779297e-01
5.668551325798034668e-01
3.556010723114013672e-01
1.151704713702201843e-01
-9.403059259057044983e-03
1.813772916793823242e-01
1.656160503625869751e-01
-7.638549804687500000e-02
8.337291330099105835e-02
-3.610016405582427979e-02
-4.484941363334655762e-01
-2.676616013050079346e-01
-6.260617375373840332e-01
-6.478992104530334473e-01
-3.470377624034881592e-01
-3.886197507381439209e-01
-4.707308411598205566e-01
-9.716181755065917969e-01
-8.319460153579711914e-01
9.574590623378753662e-02
-7.707730680704116821e-02
9.786934405565261841e-02
2.816464900970458984e-01
-4.722576737403869629e-01
3.125878572463989258e-01
-4.169480502605438232e-01
1.636961102485656738e-02
3.126920461654663086e-01
-1.771941930055618286e-01
1.462902575731277466e-01
-1.214892044663429260e-01
-1.445747762918472290e-01
1.096970960497856140e-01
-5.957017540931701660e-01
2.942517101764678955e-01
6.850540041923522949e-01
2.443465143442153931e-01
-1.079267412424087524e-01
-7.797904610633850098e-01
1.468861103057861328e-01
4.808779656887054443e-01
6.830987930297851562e-01
4.243629574775695801e-01
-5.449328422546386719e-01
-4.776763916015625000e-02
3.821249306201934814e-01
3.470504283905029297e-01
1.084940195083618164e+00
2.904741764068603516e-01
4.112900793552398682e-02
2.319343090057373047e-01
-6.984285712242126465e-01
2.715133428573608398e-01
4.657728374004364014e-01
1.729946434497833252e-01
-1.078821718692779541e-01
-4.555164277553558350e-01
1.186789125204086304e-01
4.459392726421356201e-01
-1.434359848499298096e-01
-2.810175120830535889e-01
9.768705815076828003e-02
2.958571314811706543e-01
1.537787169218063354e-01
-3.446830064058303833e-02
-9.366784989833831787e-02
-1.903202235698699951e-01
1.690512001514434814e-01
2.059569805860519409e-01
-6.654517054557800293e-01
1.111544609069824219e+00
2.571836411952972412e-01
-1.837424337863922119e-01
-3.236028850078582764e-01
-8.320165872573852539e-01
8.849889039993286133e-01
-3.070202469825744629e-01
1.785980165004730225e-01
5.910680890083312988e-01
-2.140372842550277710e-01
1.015648841857910156e+00
-2.239777296781539917e-01
-1.199385896325111389e-01
-1.835087239742279053e-01
-2.407923191785812378e-01
8.804869651794433594e-01
2.390076667070388794e-01
-8.298037648200988770e-01
-5.795221924781799316e-01
-1.415904611349105835e-01
7.152649760246276855e-01
2.122674323618412018e-02
-5.974134802818298340e-01
-5.043231844902038574e-01
6.838431209325790405e-02
1.776356250047683716e-01
8.573148250579833984e-01
5.772488713264465332e-01
-3.879248499870300293e-01
-1.684467643499374390e-01
5.081071853637695312e-01
3.012171685695648193e-01
2.893099784851074219e-01
-2.306385189294815063e-01
-7.257088273763656616e-02
2.884982228279113770e-01
2.581074237823486328e-01
-1.386676728725433350e-01
-1.130994409322738647e-01
3.760859370231628418e-01
4.058618545532226562e-01
1.266679912805557251e-01
-5.015708133578300476e-02
1.224004700779914856e-01
-1.113491877913475037e-01
4.642597436904907227e-01
1.763436943292617798e-01
-9.296119213104248047e-02
6.704142782837152481e-03
-1.743829995393753052e-01
-1.222215414047241211e+00
2.235177904367446899e-01
9.202799201011657715e-01
2.587481141090393066e-01
-1.093128812499344349e-03
-1.713652610778808594e+00
-1.966011375188827515e-01
1.116124033927917480e+00
4.407783150672912598e-01
5.079823136329650879e-01
-1.143022656440734863e+00
-3.701598644256591797e-01
9.031778573989868164e-01
2.671091258525848389e-01
2.633977830410003662e-01
-1.588261127471923828e+00
-2.247666865587234497e-01
1.421377062797546387e+00
2.556625306606292725e-01
-7.577361464500427246e-01
-5.756125450134277344e-01
5.125375837087631226e-02
1.041649103164672852e+00
2.164305150508880615e-01
