-6.416566669940948486e-02
1.252565532922744751e-02
-9.492205083370208740e-02
6.910422234795987606e-04
-8.592496067285537720e-02
-8.843743242323398590e-03
-3.680486604571342468e-02
-6.736813485622406006e-02
1.117595564574003220e-02
1.878008432686328888e-02
-1.128442138433456421e-01
-8.485058695077896118e-02
-7.831079512834548950e-02
7.792566437274217606e-03
-1.102112978696823120e-01
-2.615320496261119843e-03
-2.848919481039047241e-02
-7.592933624982833862e-02
-3.255574777722358704e-02
-1.824107021093368530e-02
-3.616131097078323364e-02
1.340571641921997070e-01
3.809750080108642578e-02
3.266537934541702271e-02
1.095887459814548492e-02
6.134283542633056641e-02
1.523310225456953049e-02
1.260185800492763519e-02
4.574336856603622437e-02
-5.576318874955177307e-02
-4.326179623603820801e-02
8.746901899576187134e-02
-1.106533631682395935e-01
1.166425924748182297e-02
7.339733839035034180e-02
-5.872481968253850937e-03
2.481714636087417603e-02
2.834582701325416565e-02
3.549640998244285583e-02
-1.744049601256847382e-02
-3.986945748329162598e-02
-3.776573762297630310e-02
-5.387440696358680725e-02
-6.634419783949851990e-03
1.295948475599288940e-01
4.077594727277755737e-02
4.491212591528892517e-02
-4.641331266611814499e-03
-2.397706173360347748e-02
6.299358792603015900e-03
3.238872857764363289e-03
-6.196225062012672424e-02
-3.223676607012748718e-02
-1.840148121118545532e-03
8.835460990667343140e-03
3.169422224164009094e-02
1.396906096488237381e-02
-6.396838463842868805e-03
4.660907015204429626e-02
7.122052460908889771e-02
1.164436191320419312e-01
2.488038502633571625e-02
2.887808158993721008e-02
9.294506162405014038e-02
1.139835640788078308e-01
-3.274178504943847656e-02
1.223163120448589325e-02
6.876280903816223145e-02
-8.017996698617935181e-02
1.371689289808273315e-01
2.093007788062095642e-02
-5.789689719676971436e-03
2.867260202765464783e-02
-1.025848835706710815e-01
3.198221698403358459e-02
2.603783085942268372e-02
-3.019435890018939972e-02
-3.407643362879753113e-02
-1.577815860509872437e-01
-1.894211210310459137e-02
1.653765290975570679e-01
5.279753357172012329e-02
9.272686205804347992e-03
1.243546023033559322e-03
1.713231019675731659e-02
-1.042399555444717407e-02
9.714830666780471802e-03
-4.946400970220565796e-02
-5.005820095539093018e-02
-1.933577097952365875e-02
-3.026753291487693787e-02
2.506893873214721680e-02
9.896557033061981201e-02
1.555683761835098267e-01
3.850576281547546387e-02
6.952470634132623672e-03
4.183800145983695984e-02
1.211107224225997925e-01
-2.776643633842468262e-02
-8.451778441667556763e-02
1.254312545061111450e-01
3.698127716779708862e-02
1.446072459220886230e-01
-1.102722361683845520e-01
2.951327897608280182e-02
-9.075745940208435059e-02
7.894501835107803345e-02
1.979152671992778778e-03
1.053858026862144470e-01
3.712766617536544800e-02
-5.544609948992729187e-02
-3.290628641843795776e-02
-6.525788456201553345e-02
-4.668407142162322998e-02
-1.165782008320093155e-02
-3.004044480621814728e-02
5.347315222024917603e-03
-5.009708926081657410e-02
1.034303829073905945e-01
6.963610649108886719e-02
-3.106964938342571259e-02
-3.421649709343910217e-02
2.077020145952701569e-02
4.454142617760226130e-05
1.725514233112335205e-02
2.179678902029991150e-02
-2.591023035347461700e-02
1.407214701175689697e-01
1.353998482227325439e-02
6.442809104919433594e-02
-1.220523267984390259e-01
-6.132167205214500427e-02
-3.139650449156761169e-02
9.259955585002899170e-02
-2.305022254586219788e-02
-6.750085391104221344e-03
-1.279359310865402222e-02
1.411293298006057739e-01
-4.426400363445281982e-02
4.693491756916046143e-02
-4.120995476841926575e-02
1.514813601970672607e-01
-1.238097622990608215e-02
-2.095274999737739563e-02
1.468611359596252441e-01
2.430301532149314880e-02
-1.815163716673851013e-02
-2.162330411374568939e-02
2.811403013765811920e-02
-9.302078932523727417e-02
-6.242058798670768738e-02
-5.032315477728843689e-02
-8.490378409624099731e-02
4.561451077461242676e-02
1.473975274711847305e-02
-3.466893220320343971e-03
1.006449237465858459e-01
-1.577971316874027252e-02
5.777047201991081238e-02
-1.272340863943099976e-01
-8.961576968431472778e-02
-2.973558008670806885e-02
-1.827479805797338486e-03
-2.366228401660919189e-02
-1.137834638357162476e-01
-1.606296002864837646e-02
2.905718237161636353e-02
7.609307300299406052e-03
-1.118501275777816772e-01
3.952964022755622864e-02
-2.375465445220470428e-02
3.289713524281978607e-03
-3.238070011138916016e-02
-3.371410071849822998e-02
-5.187755078077316284e-02
-6.327593326568603516e-02
4.207945987582206726e-02
6.872290745377540588e-03
6.882487237453460693e-02
8.137430995702743530e-02
-9.515425190329551697e-03
-3.118057176470756531e-02
-9.285574406385421753e-02
-1.293779313564300537e-01
1.787895411252975464e-01
4.175928607583045959e-02
3.335095569491386414e-02
6.311871856451034546e-02
-1.066496372222900391e-01
9.511965513229370117e-02
-2.807717584073543549e-02
4.567718878388404846e-02
-2.037294954061508179e-01
-9.933547675609588623e-02
7.872195541858673096e-02
4.196530207991600037e-02
1.460865586996078491e-01
-1.280369460582733154e-01
5.130302533507347107e-02
-1.679982803761959076e-02
-6.122704595327377319e-02
-2.372299879789352417e-02
-1.233411952853202820e-02
-3.147497400641441345e-02
2.454585582017898560e-02
-1.194319501519203186e-01
1.068353205919265747e-01
5.611059069633483887e-02
-7.270947098731994629e-02
6.685512512922286987e-02
1.314969807863235474e-01
-3.976054117083549500e-02
5.090751498937606812e-02
3.587401937693357468e-03
-7.219591736793518066e-02
-1.088216900825500488e-02
-1.650938391685485840e-02
3.958684974350035191e-04
5.744596570730209351e-02
9.349590539932250977e-02
-2.938383445143699646e-02
2.037370763719081879e-02
-6.481668353080749512e-02
1.009292155504226685e-01
-1.126432325690984726e-02
5.122908204793930054e-02
1.353286504745483398e-01
2.856146730482578278e-02
7.387138903141021729e-02
-1.428208798170089722e-01
-1.475687325000762939e-02
8.472285419702529907e-02
-6.583008170127868652e-02
2.824831940233707428e-02
-5.866378918290138245e-02
1.027813553810119629e-01
-2.571458928287029266e-03
2.456085570156574249e-02
-1.778073310852050781e-01
3.289735689759254456e-02
1.761836186051368713e-02
-5.453262850642204285e-02
-2.777870558202266693e-02
-5.005852133035659790e-02
2.190886251628398895e-02
1.333540584892034531e-02
4.606446623802185059e-02
3.996228799223899841e-02
-6.102937832474708557e-02
1.059224735945463181e-02
6.454775482416152954e-02
-1.656532846391201019e-02
-9.687431901693344116e-02
-1.245436221361160278e-01
-6.275325268507003784e-02
2.850285172462463379e-02
5.274842027574777603e-03
4.842216894030570984e-02
1.611500233411788940e-02
1.818064949475228786e-03
-3.740632673725485802e-03
7.517407834529876709e-02
1.287943101488053799e-03
1.098461523652076721e-01
-1.704461686313152313e-02
1.116387918591499329e-01
8.258697390556335449e-02
3.651252388954162598e-02
-1.140015199780464172e-01
-5.066352430731058121e-03
1.065263226628303528e-01
6.133773550391197205e-02
3.615039959549903870e-02
5.450361873954534531e-03
6.128551810979843140e-02
-1.089155822992324829e-01
2.062399536371231079e-01
1.292518340051174164e-02
1.195344552397727966e-01
-4.585770890116691589e-02
1.141233220696449280e-01
3.242698684334754944e-02
3.393858671188354492e-02
5.683030188083648682e-02
-1.096936315298080444e-01
2.031352743506431580e-02
5.908236652612686157e-02
-3.418783098459243774e-02
-4.882379621267318726e-02
1.042746379971504211e-02
-5.683148279786109924e-02
-8.223518729209899902e-02
1.433570235967636108e-01
1.693585515022277832e-01
2.704730629920959473e-02
7.591261714696884155e-02
5.337980762124061584e-02
1.361194532364606857e-02
3.071883507072925568e-02
1.771203614771366119e-02
-1.793677210807800293e-01
5.050262063741683960e-02
-1.357047706842422485e-01
-4.260858893394470215e-02
-1.251825713552534580e-03
-1.548603326082229614e-01
-1.861491501331329346e-01
2.188910730183124542e-02
-8.859451115131378174e-02
2.550332061946392059e-02
2.641272265464067459e-03
1.914440840482711792e-01
-1.312261372804641724e-01
5.421130359172821045e-02
1.104544773697853088e-01
7.561755925416946411e-02
-2.945686504244804382e-02
-4.391365870833396912e-02
-3.677722066640853882e-02
-1.139499130658805370e-03
1.369460579007863998e-02
-2.758158929646015167e-02
2.018727175891399384e-02
-2.036799341440200806e-01
7.103940844535827637e-02
-2.067854627966880798e-02
1.049418281763792038e-02
-2.225732356309890747e-01
6.904895883053541183e-03
-1.268721558153629303e-02
-1.125596985220909119e-01
-1.498637646436691284e-01
6.964501738548278809e-02
5.557155236601829529e-02
-6.702913343906402588e-02
-9.618311375379562378e-02
1.932113245129585266e-02
-7.997695356607437134e-02
1.138423532247543335e-01
-3.330383077263832092e-02
9.430504590272903442e-02
-9.275177121162414551e-02
6.869592517614364624e-02
4.988773167133331299e-02
-1.193789020180702209e-01
3.676214441657066345e-02
5.231280624866485596e-02
4.216204211115837097e-02
-9.988225251436233521e-02
-5.212385579943656921e-02
4.724154993891716003e-02
-3.578553348779678345e-02
1.587140560150146484e-01
-1.028896197676658630e-01
5.107908323407173157e-02
-5.188366398215293884e-02
4.518526792526245117e-02
9.928705543279647827e-02
6.954396516084671021e-02
1.871944069862365723e-01
-9.281905367970466614e-03
2.058743685483932495e-01
-9.322265535593032837e-02
1.171185299754142761e-01
-9.246312826871871948e-02
2.561291307210922241e-02
-1.276481300592422485e-01
8.830621838569641113e-02
1.571159251034259796e-02
8.836018852889537811e-03
-6.284603732638061047e-04
-3.670287504792213440e-02
4.984719678759574890e-02
-2.237468957901000977e-03
-7.671001553535461426e-02
-1.059738248586654663e-01
-9.718171507120132446e-02
-1.310727000236511230e-01
3.139005228877067566e-02
4.914616793394088745e-02
-2.079859003424644470e-02
1.586488820612430573e-02
-1.960524916648864746e-02
6.695145368576049805e-02
-6.593707948923110962e-02
-1.227457672357559204e-01
2.216095477342605591e-02
1.291472911834716797e-01
2.696443907916545868e-02
4.897322505712509155e-02
1.019588857889175415e-01
5.297949165105819702e-02
-1.190014258027076721e-01
-1.046557202935218811e-01
-1.174576021730899811e-02
-7.765255868434906006e-02
-5.186394229531288147e-02
-8.223625272512435913e-02
-3.964224085211753845e-02
-2.121059969067573547e-02
6.061347573995590210e-02
-1.085796952247619629e-01
-1.784598529338836670e-01
-1.677646040916442871e-01
-5.773684754967689514e-02
-9.840160608291625977e-02
-7.268500048667192459e-03
-4.266930371522903442e-02
-2.241826355457305908e-01
-1.286414731293916702e-02
1.213552653789520264e-01
6.254432350397109985e-02
2.082088738679885864e-01
1.786954998970031738e-01
5.742179229855537415e-02
1.155517920851707458e-01
3.708291426301002502e-02
-1.021820213645696640e-02
2.795037871692329645e-04
6.723947077989578247e-02
-7.134137302637100220e-02
-1.027114540338516235e-01
8.172298222780227661e-02
1.414727070368826389e-03
-4.124175012111663818e-02
4.451346397399902344e-02
8.962850086390972137e-03
-8.359893225133419037e-03
-7.123730331659317017e-02
-2.880368940532207489e-02
-5.169696733355522156e-02
-7.360436767339706421e-02
-9.898675605654716492e-03
3.837132081389427185e-02
-3.027640050277113914e-03
-2.368517778813838959e-02
7.110260426998138428e-02
5.799982324242591858e-02
5.621671676635742188e-02
-4.471534863114356995e-02
-7.351597398519515991e-02
-6.313632428646087646e-02
1.661307550966739655e-02
-1.354584842920303345e-01
3.121328353881835938e-02
-1.810925640165805817e-02
-8.582728356122970581e-02
1.013044491410255432e-01
-1.500556897372007370e-02
1.242443099617958069e-01
-1.699583679437637329e-01
5.088396742939949036e-02
-1.544977575540542603e-01
1.381147503852844238e-01
1.238348777405917645e-03
1.661284118890762329e-01
-4.052849486470222473e-02
1.949380338191986084e-02
1.152974218130111694e-01
7.856996357440948486e-02
-1.309819221496582031e-01
4.950141161680221558e-02
5.748423188924789429e-02
5.235867574810981750e-02
-1.177354454994201660e-01
-4.577648639678955078e-02
-1.153203248977661133e-01
-6.711817532777786255e-02
-3.555461764335632324e-02
-1.378655284643173218e-01
1.558991800993680954e-02
3.570051863789558411e-02
-8.997580036520957947e-03
4.433100670576095581e-02
5.832096561789512634e-02
-4.171472042798995972e-02
1.774703385308384895e-03
6.401547789573669434e-02
6.806671619415283203e-03
1.018074378371238708e-01
-2.966164425015449524e-02
1.830659359693527222e-01
-5.269694328308105469e-02
-9.052970260381698608e-02
-1.171640604734420776e-01
-7.422377821058034897e-03
8.449824899435043335e-02
5.708417668938636780e-02
-1.144059374928474426e-01
-9.689329192042350769e-03
7.123252749443054199e-02
3.103032708168029785e-02
-2.830939181149005890e-02
-3.727794066071510315e-02
-8.211849257349967957e-03
-9.635374695062637329e-02
-9.152819216251373291e-02
-2.338779717683792114e-02
5.389985628426074982e-03
-7.125851511955261230e-02
-5.853214487433433533e-02
-3.310449421405792236e-02
5.025007948279380798e-02
1.274427492171525955e-02
1.074070483446121216e-01
3.625459969043731689e-02
-4.121749103069305420e-02
-1.354675590991973877e-01
-4.194882139563560486e-02
4.360254853963851929e-02
-6.759700924158096313e-02
-1.704772859811782837e-01
-5.820704624056816101e-02
-1.976158097386360168e-02
8.300668001174926758e-02
-1.527793556451797485e-01
-1.132073551416397095e-01
3.772727400064468384e-02
2.404964528977870941e-02
-1.536424010992050171e-01
-2.770292572677135468e-02
1.476332778111100197e-03
-7.830646634101867676e-02
5.219344422221183777e-02
-7.490056008100509644e-02
-5.390333384275436401e-02
-2.890103496611118317e-03
1.008461564779281616e-01
-2.175676077604293823e-01
2.108616009354591370e-02
-1.435462385416030884e-01
1.845046505331993103e-02
-8.138038218021392822e-02
-9.646192193031311035e-03
-4.045820236206054688e-02
6.973693519830703735e-02
-8.725535869598388672e-02
-6.612455099821090698e-02
-7.597115635871887207e-02
1.785724237561225891e-02
1.900973357260227203e-02
6.369719654321670532e-02
8.222078904509544373e-03
3.143133362755179405e-03
6.995079666376113892e-02
-1.719149947166442871e-01
1.237638294696807861e-02
-8.614317327737808228e-02
1.351907104253768921e-01
-1.018928289413452148e-01
1.251469254493713379e-01
-4.451883956789970398e-02
-1.647170633077621460e-01
-5.510547757148742676e-02
8.547347038984298706e-02
7.643780857324600220e-02
2.294366061687469482e-02
6.905064731836318970e-02
1.023424416780471802e-01
-1.433924734592437744e-01
6.364516168832778931e-02
9.931513667106628418e-02
8.000963926315307617e-02
-5.808888375759124756e-02
-6.247210875153541565e-02
-2.866099588572978973e-03
-1.892923563718795776e-02
1.022979803383350372e-02
7.549697160720825195e-02
1.371860597282648087e-02
5.263547599315643311e-02
2.781469374895095825e-02
1.082915589213371277e-01
6.219885312020778656e-03
2.416208013892173767e-02
-1.489360444247722626e-02
4.171318188309669495e-02
-6.688440218567848206e-03
7.335036993026733398e-02
1.664889305830001831e-01
1.002039462327957153e-01
6.043345481157302856e-02
-2.643799595534801483e-02
1.256449371576309204e-01
4.851463250815868378e-03
-8.950239978730678558e-03
-2.428922988474369049e-02
5.169567838311195374e-02
-5.742216110229492188e-02
-1.880112439393997192e-01
-9.107206761837005615e-02
1.820081844925880432e-02
-1.473283320665359497e-01
2.508441917598247528e-03
-4.728484526276588440e-02
9.546449407935142517e-03
-4.091057181358337402e-02
1.896545756608247757e-03
1.123214978724718094e-02
6.708568334579467773e-02
2.823611162602901459e-02
-4.562093876302242279e-03
-9.631856530904769897e-02
-3.085966594517230988e-02
-3.009705804288387299e-02
8.660507947206497192e-02
-6.427820771932601929e-02
5.952325463294982910e-02
-8.689314126968383789e-02
6.117217987775802612e-02
2.493920270353555679e-03
-1.864288300275802612e-01
-1.494850069284439087e-01
4.927609860897064209e-02
1.282292045652866364e-02
-8.721371740102767944e-02
-1.229283958673477173e-01
7.729469984769821167e-02
-4.327512905001640320e-02
8.013784140348434448e-02
1.053537502884864807e-01
5.244026705622673035e-02
-1.251980513334274292e-01
-1.773181259632110596e-01
-3.714039921760559082e-02
1.024749800562858582e-01
1.463711541146039963e-02
2.140181511640548706e-02
-6.207397580146789551e-02
5.693099461495876312e-03
3.247420117259025574e-02
4.379397630691528320e-02
-3.633007407188415527e-02
3.459343314170837402e-02
-5.618447065353393555e-02
-4.516404867172241211e-02
-8.181121200323104858e-02
3.285802528262138367e-02
-8.455286175012588501e-02
5.239405483007431030e-02
5.047459900379180908e-02
6.814684718847274780e-02
2.121802233159542084e-02
-1.053765565156936646e-01
6.797035224735736847e-03
7.990223169326782227e-02
3.209413588047027588e-02
3.684712946414947510e-02
-2.218420431017875671e-02
4.865700751543045044e-02
1.607678830623626709e-02
4.038630425930023193e-02
-7.338608801364898682e-02
-3.646357799880206585e-04
-7.276101503521203995e-03
1.045658141374588013e-01
2.591376751661300659e-02
1.059112139046192169e-02
-2.165814489126205444e-02
2.606904879212379456e-02
6.640634965151548386e-03
-8.482654392719268799e-02
3.957886993885040283e-02
-4.244005307555198669e-02
5.541886761784553528e-02
1.165986619889736176e-02
6.839046627283096313e-02
-5.232058092951774597e-02
-3.667569253593683243e-03
-2.189968712627887726e-02
-1.398436427116394043e-01
5.539878457784652710e-02
-6.091877073049545288e-02
4.114025458693504333e-02
2.484715543687343597e-02
-4.115215688943862915e-02
-1.105797812342643738e-01
8.757062256336212158e-03
-3.889129683375358582e-02
-1.627808809280395508e-02
-6.563383340835571289e-02
-3.961208462715148926e-02
-4.609981086105108261e-03
4.027537629008293152e-02
2.902995049953460693e-02
-8.734372258186340332e-02
-1.655546575784683228e-02
-4.368724767118692398e-03
-4.714578762650489807e-02
2.160374075174331665e-02
-5.963933467864990234e-02
-6.372193992137908936e-02
5.302256718277931213e-02
8.216065913438796997e-02
-9.043702483177185059e-02
-2.234735339879989624e-02
1.227526366710662842e-01
-7.558115571737289429e-02
1.843960396945476532e-02
4.421479254961013794e-02
-5.049448832869529724e-02
9.034790098667144775e-02
7.799303531646728516e-02
7.754263933748006821e-03
2.774244360625743866e-02
-8.265291154384613037e-02
-6.229340285062789917e-02
7.739301025867462158e-02
5.902631580829620361e-02
-7.201299816370010376e-02
9.324099868535995483e-02
-1.338871419429779053e-01
8.667986094951629639e-02
3.484817454591393471e-03
7.308774441480636597e-02
-6.051879376173019409e-03
1.271252632141113281e-01
-1.654286533594131470e-01
-9.597772359848022461e-02
6.642304360866546631e-02
8.326818048954010010e-02
1.232160329818725586e-01
4.197206720709800720e-02
5.286017060279846191e-02
5.116354674100875854e-02
4.663858935236930847e-02
-9.853917872533202171e-04
-2.142805838957428932e-03
3.951715677976608276e-02
-9.801809489727020264e-02
-5.470331758260726929e-02
1.062677428126335144e-01
7.352440804243087769e-02
2.403951017186045647e-03
-1.489575207233428955e-01
8.034929633140563965e-03
1.079796701669692993e-01
-1.418368145823478699e-02
1.566674262285232544e-01
1.260111182928085327e-01
1.602428220212459564e-02
-2.714874863158911467e-04
1.046514436602592468e-01
4.843876138329505920e-02
1.020984277129173279e-01
1.159895807504653931e-01
4.311043024063110352e-02
-2.340365760028362274e-02
1.158321648836135864e-01
-6.890159845352172852e-02
-1.974634379148483276e-01
-1.536231860518455505e-02
3.489451855421066284e-02
-1.526225358247756958e-02
1.647684350609779358e-02
-8.124591782689094543e-03
1.391701698303222656e-01
6.353390216827392578e-02
6.382069736719131470e-02
-1.092459633946418762e-01
-2.416853606700897217e-02
1.898157410323619843e-02
-4.863136634230613708e-02
-5.146766826510429382e-02
-1.490881294012069702e-01
-1.348821222782135010e-01
1.080252751708030701e-01
-1.290113013237714767e-02
1.260932385921478271e-01
3.299075737595558167e-02
4.914402216672897339e-02
-4.335116595029830933e-02
-4.552655667066574097e-02
2.745792455971240997e-02
7.790838181972503662e-02
-8.397214114665985107e-02
-3.847301378846168518e-02
-1.335738971829414368e-02
8.234915882349014282e-02
1.576621457934379578e-02
-7.477147737517952919e-04
-6.264562159776687622e-02
-4.979831725358963013e-02
-1.339453607797622681e-01
2.425438724458217621e-02
1.742683053016662598e-01
-3.060219436883926392e-02
5.954971909523010254e-02
1.134207248687744141e-01
1.457494124770164490e-02
-6.108586862683296204e-02
-5.937233567237854004e-02
2.531183324754238129e-02
-1.533805485814809799e-02
-2.850119024515151978e-02
-2.868506610393524170e-01
-1.520800753496587276e-03
-7.059622555971145630e-02
1.174331828951835632e-01
-2.542119659483432770e-02
2.216387540102005005e-02
1.886762119829654694e-02
-9.730812162160873413e-02
-6.801468133926391602e-02
-6.333654373884201050e-02
-1.110652554780244827e-02
-1.314786076545715332e-01
-4.772786423563957214e-02
1.258361935615539551e-01
-8.684695512056350708e-02
-1.156653538346290588e-01
-6.349722295999526978e-02
6.202899664640426636e-02
6.772958487272262573e-02
-1.236716955900192261e-01
4.508041590452194214e-02
3.527990728616714478e-02
8.965390175580978394e-02
8.920312975533306599e-04
4.289382696151733398e-02
-3.002163954079151154e-02
1.189291570335626602e-02
2.509063482284545898e-02
4.840968176722526550e-02
-1.649805530905723572e-02
-2.669310010969638824e-02
-8.774536848068237305e-02
-1.689000576734542847e-01
-7.031090557575225830e-02
-2.856965921819210052e-02
3.336451016366481781e-03
-4.532841965556144714e-02
1.149376556277275085e-01
1.596854254603385925e-02
1.445936132222414017e-02
2.867067791521549225e-02
-2.756904345005750656e-03
1.019201502203941345e-01
5.778233334422111511e-02
3.706987947225570679e-02
1.051717102527618408e-01
1.102224066853523254e-01
1.379023492336273193e-01
1.334268040955066681e-02
-1.284858733415603638e-01
-1.486365310847759247e-02
-2.173601277172565460e-02
-9.705787152051925659e-02
-3.143611550331115723e-02
-3.027492761611938477e-02
2.124815434217453003e-02
9.447756409645080566e-02
1.002316251397132874e-01
-3.269340842962265015e-02
-8.573915064334869385e-02
-1.316696554422378540e-01
1.940657496452331543e-01
3.085164912045001984e-02
4.475296661257743835e-02
-8.671520650386810303e-02
-2.014779672026634216e-02
-4.720332566648721695e-03
-1.825881004333496094e-02
-9.695739299058914185e-02
1.707714945077896118e-01
4.369662329554557800e-02
-1.175867170095443726e-01
3.873338177800178528e-02
-3.385533392429351807e-02
-3.437871858477592468e-02
-5.921814218163490295e-02
-6.702632457017898560e-02
5.285652726888656616e-02
2.943574637174606323e-02
-1.243678852915763855e-01
1.190697960555553436e-02
7.214193791151046753e-02
8.299951255321502686e-02
-1.469265669584274292e-01
-4.106732457876205444e-02
-7.257162779569625854e-02
6.905527412891387939e-02
4.239355772733688354e-02
3.785721957683563232e-02
-9.323308244347572327e-03
5.656844004988670349e-02
-5.603746324777603149e-02
-1.637708581984043121e-02
-5.422726646065711975e-02
-1.810070872306823730e-02
-1.897913590073585510e-02
8.464495092630386353e-02
-6.705330312252044678e-02
6.683396548032760620e-02
-8.370913565158843994e-02
6.216583773493766785e-02
1.302785426378250122e-01
-7.135631050914525986e-03
1.527369916439056396e-01
8.106309175491333008e-02
8.052935451269149780e-02
-3.259379416704177856e-02
5.119238048791885376e-02
-8.125860244035720825e-02
9.833627380430698395e-03
5.519973114132881165e-03
-7.557858480140566826e-04
-2.079785019159317017e-01
-9.258877485990524292e-03
-1.734560355544090271e-02
6.747125089168548584e-02
-1.841942407190799713e-02
-9.614218142814934254e-04
5.353267863392829895e-02
5.702569335699081421e-02
-1.798011809587478638e-01
3.885838389396667480e-02
8.546767383813858032e-02
-1.139399185776710510e-01
-1.442003548145294189e-01
-4.771406576037406921e-02
4.630667716264724731e-02
-6.684805452823638916e-02
-1.459089964628219604e-01
-1.434588581323623657e-01
9.275657683610916138e-02
-1.475558429956436157e-01
-1.769175380468368530e-01
7.291650772094726562e-02
-6.681016087532043457e-02
-8.021482080221176147e-02
-6.691523641347885132e-02
-4.037133604288101196e-02
-3.186559677124023438e-02
-6.079946458339691162e-02
2.420315705239772797e-02
1.679461076855659485e-02
3.880646824836730957e-02
3.290795162320137024e-02
2.698891796171665192e-02
-2.945138141512870789e-02
-8.892743289470672607e-02
-7.101275771856307983e-02
-4.545029252767562866e-03
3.217623801901936531e-03
3.783348202705383301e-02
-5.637416616082191467e-02
-2.161309495568275452e-02
-2.010020427405834198e-02
8.121101185679435730e-03
-6.611805409193038940e-02
-8.640238642692565918e-02
-9.289740771055221558e-02
1.327627301216125488e-01
-8.994393050670623779e-02
-1.092700846493244171e-02
-1.326989084482192993e-01
3.132901713252067566e-02
-1.714395731687545776e-01
-5.290935188531875610e-02
-1.484472602605819702e-01
1.245656795799732208e-02
3.670112416148185730e-02
-3.258097171783447266e-02
2.010883390903472900e-01
2.083636671304702759e-01
-2.370123751461505890e-02
-3.867014544084668159e-03
-1.693761199712753296e-01
2.619597874581813812e-02
-4.390859231352806091e-02
-4.104476794600486755e-02
-3.705808147788047791e-02
1.533933356404304504e-02
-2.697332762181758881e-02
-2.913248166441917419e-02
-3.894837573170661926e-02
7.449206709861755371e-02
6.777167320251464844e-02
4.730742424726486206e-02
2.510763518512248993e-02
1.067405939102172852e-01
-6.444234750233590603e-04
-1.038289745338261127e-03
2.068364806473255157e-02
-1.488439925014972687e-02
-4.140691086649894714e-02
2.756557986140251160e-02
-1.151574552059173584e-01
-1.502552032470703125e-01
-8.225976675748825073e-02
-8.212387561798095703e-02
-3.213359974324703217e-03
-7.151179760694503784e-02
-3.064774163067340851e-02
2.919357456266880035e-02
5.806594714522361755e-02
-1.867340877652168274e-02
8.932134509086608887e-02
3.392073884606361389e-02
1.499494444578886032e-02
3.523357585072517395e-02
3.874594718217849731e-02
5.366349965333938599e-02
-1.203585043549537659e-01
-4.536120221018791199e-02
2.970592677593231201e-02
4.860300570726394653e-02
6.962946057319641113e-02
3.994514420628547668e-02
9.072906523942947388e-02
3.800314618274569511e-03
-6.052169576287269592e-02
8.321853727102279663e-02
9.658484719693660736e-03
-5.326195806264877319e-02
7.062565535306930542e-02
5.968058854341506958e-02
8.244440704584121704e-02
-2.220050245523452759e-02
6.197734177112579346e-02
-7.814793288707733154e-02
1.672679372131824493e-02
-8.945453166961669922e-02
-1.686424762010574341e-02
5.022690675104968250e-05
-1.422142088413238525e-01
4.961737897247076035e-03
2.760844863951206207e-02
1.145682111382484436e-01
-4.898970574140548706e-02
3.188019618391990662e-02
2.971706446260213852e-03
3.142148256301879883e-02
-2.503330074250698090e-02
7.476180791854858398e-02
6.901802867650985718e-02
5.206670239567756653e-02
1.402685344219207764e-01
1.679123491048812866e-01
-2.056019008159637451e-02
1.085438504815101624e-01
-1.262870384380221367e-03
8.120823767967522144e-04
6.805646419525146484e-02
-9.275870025157928467e-02
-1.024780124425888062e-01
1.355269458144903183e-02
4.578643292188644409e-02
-1.048626601696014404e-01
6.180961802601814270e-02
4.891657456755638123e-02
4.110720381140708923e-02
-2.123128250241279602e-02
2.657026611268520355e-02
1.057311333715915680e-02
1.364741176366806030e-01
7.181178033351898193e-02
-7.503012567758560181e-02
-1.210455745458602905e-01
6.996309757232666016e-02
8.825945109128952026e-02
1.007261313498020172e-02
3.072143718600273132e-02
1.364782005548477173e-01
1.313925087451934814e-01
-9.099498391151428223e-02
-5.058112367987632751e-02
-1.528797745704650879e-01
2.053562551736831665e-01
-1.220130026340484619e-01
-1.144263893365859985e-01
-1.148126721382141113e-01
-5.632372200489044189e-02
-8.782628923654556274e-02
-1.114934086799621582e-01
-5.655334517359733582e-02
-1.923853531479835510e-02
5.340333282947540283e-02
9.684928506612777710e-02
-5.792587995529174805e-02
1.017434522509574890e-01
1.185896322131156921e-01
8.712366968393325806e-02
1.154012233018875122e-01
-3.045350313186645508e-02
7.971426844596862793e-02
2.406393736600875854e-01
2.911586761474609375e-01
9.336907416582107544e-02
-7.997418195009231567e-02
-3.085894882678985596e-02
2.545243501663208008e-02
7.015132158994674683e-02
8.665845543146133423e-02
-2.390137873589992523e-02
8.360966295003890991e-02
-5.069652199745178223e-02
-3.058875910937786102e-02
-7.853167504072189331e-02
-9.941413998603820801e-02
-9.368531405925750732e-02
-1.452768221497535706e-02
-4.468267038464546204e-02
-6.723792105913162231e-02
-1.451092492789030075e-02
-2.155368030071258545e-02
5.995135009288787842e-02
2.509363740682601929e-02
-3.153180330991744995e-02
-4.662575665861368179e-04
5.852295085787773132e-02
-4.051839560270309448e-02
-1.519971191883087158e-01
-2.309853956103324890e-02
6.492502242326736450e-02
-1.771181076765060425e-02
3.463318804278969765e-03
4.648320376873016357e-03
-2.903798595070838928e-02
-1.275140643119812012e-01
-1.141869798302650452e-01
-7.038802653551101685e-02
-6.422100216150283813e-02
8.429231494665145874e-02
8.911962620913982391e-03
-1.062791096046566963e-03
1.208598017692565918e-01
-4.203781858086585999e-02
4.132669419050216675e-03
3.610204905271530151e-02
6.431781686842441559e-03
-4.002193734049797058e-02
1.288985013961791992e-01
-7.043963670730590820e-02
-8.241682499647140503e-02
-4.059073515236377716e-03
5.016235169023275375e-03
-4.515166208148002625e-02
-2.556530386209487915e-02
-1.043968647718429565e-01
-3.252391889691352844e-02
8.750355988740921021e-02
-5.822550505399703979e-02
-3.311869129538536072e-02
-8.908805251121520996e-02
-1.674612164497375488e-01
-1.423163563013076782e-01
3.084233589470386505e-02
-5.722568929195404053e-02
-1.243668273091316223e-01
6.366533041000366211e-02
-1.036312803626060486e-01
1.108537893742322922e-02
5.169587209820747375e-03
-1.289799809455871582e-01
-4.842192307114601135e-02
6.802660226821899414e-02
2.831066958606243134e-02
6.775176525115966797e-02
-7.147102616727352142e-03
-5.007810518145561218e-02
-1.720815524458885193e-02
-3.656670451164245605e-02
-7.466968894004821777e-02
5.076244100928306580e-02
-4.729489609599113464e-02
8.536688238382339478e-02
-4.252825304865837097e-02
1.080834195017814636e-01
-9.959144145250320435e-02
-5.944866687059402466e-02
1.597285643219947815e-02
-3.227529302239418030e-02
-1.078371331095695496e-01
-1.043340936303138733e-01
-5.366183817386627197e-02
7.386113703250885010e-02
-4.835521394852548838e-04
-3.086791746318340302e-02
-2.974919229745864868e-02
-7.440500706434249878e-02
-8.519358001649379730e-03
-2.825397849082946777e-01
5.085420608520507812e-02
-6.232390180230140686e-02
1.324139833450317383e-01
1.041855216026306152e-01
3.663258627057075500e-02
-4.416014254093170166e-02
4.553489014506340027e-02
2.963961660861968994e-02
9.614865295588970184e-03
-6.267967820167541504e-02
-2.020774036645889282e-02
-3.686437010765075684e-02
9.609135240316390991e-02
-1.350938901305198669e-02
2.485026419162750244e-02
2.750958316028118134e-02
-8.926433324813842773e-02
5.972356069833040237e-03
1.118161529302597046e-01
1.967741921544075012e-02
-1.676872745156288147e-02
7.726723700761795044e-02
3.709998354315757751e-02
3.531259670853614807e-02
1.689439862966537476e-01
9.249741584062576294e-02
-5.635610967874526978e-02
1.197119653224945068e-01
-4.360971599817276001e-02
-1.573374122381210327e-01
2.409080741927027702e-03
2.868367917835712433e-02
2.286121621727943420e-02
3.069647215306758881e-02
-9.757911413908004761e-02
-3.965867310762405396e-02
2.046828716993331909e-01
-1.956904865801334381e-02
-5.113941058516502380e-02
4.137622192502021790e-02
-9.377208352088928223e-02
8.331362903118133545e-02
8.278965204954147339e-02
6.623644381761550903e-02
-1.009790506213903427e-02
8.160653710365295410e-02
-2.274833060801029205e-02
5.577330291271209717e-02
3.427222743630409241e-02
-3.320194082334637642e-03
4.035712918266654015e-04
1.137241628021001816e-02
7.108629494905471802e-02
3.335395455360412598e-02
3.606916591525077820e-02
-1.824931800365447998e-02
-3.865300118923187256e-02
-4.526081681251525879e-02
1.689473539590835571e-02
1.355879604816436768e-01
3.763533011078834534e-02
-1.388051640242338181e-02
2.276657335460186005e-02
1.720176190137863159e-01
3.284478187561035156e-02
7.402414828538894653e-02
6.573289632797241211e-02
3.210422396659851074e-02
5.157606303691864014e-02
3.011566959321498871e-02
9.931673109531402588e-02
1.524625718593597412e-01
-6.253685057163238525e-02
-3.855440765619277954e-02
7.225012779235839844e-02
1.741921901702880859e-01
-1.954141259193420410e-02
3.309490159153938293e-02
-5.845574196428060532e-03
-2.969373390078544617e-02
9.283104538917541504e-02
2.693896368145942688e-02
7.358350604772567749e-02
-5.217563733458518982e-02
2.153822407126426697e-02
-3.486241027712821960e-02
8.519576513208448887e-04
-5.424262210726737976e-02
-1.122637558728456497e-02
4.652840644121170044e-02
-2.907545864582061768e-02
-1.561152786016464233e-01
-1.166834980249404907e-01
-1.048505157232284546e-01
-1.211224943399429321e-01
-1.456469595432281494e-01
-1.466306447982788086e-01
9.396400302648544312e-03
1.471197698265314102e-02
-2.346781492233276367e-01
-5.786680057644844055e-02
4.110154882073402405e-02
-3.376880288124084473e-02
3.025871329009532928e-02
-7.301317900419235229e-02
4.265139624476432800e-02
3.226374834775924683e-02
-3.099304251372814178e-02
2.304029278457164764e-02
2.616765536367893219e-02
7.857153564691543579e-02
2.021442651748657227e-01
-6.860321015119552612e-02
-2.200771495699882507e-02
1.472018361091613770e-01
2.688591778278350830e-01
-5.552995204925537109e-02
8.032295852899551392e-02
-1.567916870117187500e-01
3.906666859984397888e-02
6.148142367601394653e-02
9.145810268819332123e-03
-2.016593702137470245e-02
-4.766453802585601807e-02
2.417397871613502502e-02
-2.844711393117904663e-02
-8.194272220134735107e-02
1.358101814985275269e-01
-1.856435388326644897e-01
-3.128543496131896973e-02
3.068829514086246490e-02
-4.591345787048339844e-02
-1.120525319129228592e-02
-8.704129606485366821e-02
-9.423719719052314758e-03
9.693428128957748413e-02
2.612398006021976471e-02
8.924845606088638306e-02
-8.233150467276573181e-03
1.491821110248565674e-01
7.003875076770782471e-02
2.030699849128723145e-01
3.842572867870330811e-02
-1.518019288778305054e-01
-1.525383256375789642e-02
3.216253593564033508e-02
1.297480016946792603e-01
-1.078260466456413269e-01
2.045106841251254082e-03
1.117967665195465088e-01
6.474507600069046021e-02
4.577887430787086487e-02
-1.275801956653594971e-01
-4.155943542718887329e-02
2.735643461346626282e-02
8.574850112199783325e-02
-8.642965555191040039e-02
-6.807365268468856812e-02
-9.766237437725067139e-02
7.231612503528594971e-02
-4.365186765789985657e-02
-2.109748125076293945e-02
-1.038831546902656555e-01
2.316963113844394684e-02
-2.899508178234100342e-02
7.091163843870162964e-02
2.303278632462024689e-02
-1.054229661822319031e-01
1.054822187870740891e-02
2.888632379472255707e-02
-4.746810346841812134e-02
-8.359414339065551758e-02
1.086155399680137634e-01
7.264586165547370911e-03
6.555012613534927368e-02
1.224325895309448242e-01
-1.372845470905303955e-01
1.192824915051460266e-01
-1.611556708812713623e-01
1.987286359071731567e-01
3.737117722630500793e-02
7.767640519887208939e-03
-5.904195457696914673e-02
7.039599120616912842e-02
-8.292046375572681427e-03
-3.995234891772270203e-02
-8.865807950496673584e-02
-2.141290344297885895e-02
-4.529068991541862488e-02
1.173129770904779434e-02
4.382463172078132629e-02
-8.069791644811630249e-02
1.712646782398223877e-01
2.301918119192123413e-01
-4.601814225316047668e-02
-1.139997784048318863e-02
-3.159685432910919189e-02
1.585268527269363403e-01
1.849843561649322510e-02
-5.999599024653434753e-02
7.891502231359481812e-03
4.913102090358734131e-02
1.745877228677272797e-02
-3.919794782996177673e-02
5.358507111668586731e-02
-7.809148728847503662e-02
-6.081492081284523010e-02
-1.858906820416450500e-02
5.775588750839233398e-02
2.116300314664840698e-01
1.845969259738922119e-02
-1.786771789193153381e-02
-5.916758999228477478e-02
-9.542793035507202148e-02
-2.285192757844924927e-01
-1.635383367538452148e-01
2.920736931264400482e-02
-2.776403352618217468e-02
6.329254806041717529e-02
-4.142680764198303223e-02
5.303294584155082703e-02
-1.961888559162616730e-02
-6.426791101694107056e-02
-1.087990924715995789e-01
7.744591683149337769e-02
1.760736852884292603e-02
1.065218588337302208e-03
7.647998631000518799e-02
1.534505635499954224e-01
9.992383420467376709e-03
-4.541683010756969452e-03
-4.985650628805160522e-02
4.108180478215217590e-02
-4.086589813232421875e-02
2.255221642553806305e-02
-9.547442942857742310e-02
1.103874482214450836e-02
-6.125290691852569580e-02
-4.232795163989067078e-02
-8.172017335891723633e-02
-1.169398501515388489e-01
6.318976730108261108e-02
-4.781033471226692200e-02
-1.609089523553848267e-01
7.346421480178833008e-02
-1.339876204729080200e-01
-7.203523535281419754e-03
-7.686027884483337402e-02
1.067089885473251343e-01
3.300767391920089722e-02
-3.223209828138351440e-02
5.294387787580490112e-02
-2.561412006616592407e-02
2.412268705666065216e-02
4.303230345249176025e-02
-1.103711873292922974e-01
-4.286115244030952454e-02
4.685889557003974915e-02
5.479932948946952820e-02
7.353416830301284790e-02
-4.759681969881057739e-02
-1.119951680302619934e-01
5.758677050471305847e-02
2.393092773854732513e-02
-4.936214163899421692e-02
-8.183572441339492798e-02
3.980749752372503281e-03
-9.568856912665069103e-04
-7.436027377843856812e-02
-1.564774848520755768e-02
1.812178408727049828e-03
7.821855694055557251e-02
-1.895238459110260010e-01
4.606336355209350586e-02
-1.655996143817901611e-01
1.210729181766510010e-01
-1.906040124595165253e-02
1.317132115364074707e-01
1.422896683216094971e-01
4.921429976820945740e-02
-1.125268731266260147e-02
2.659106850624084473e-01
-4.242786765098571777e-02
1.505227945744991302e-02
-3.913107141852378845e-02
1.089676376432180405e-02
6.175249814987182617e-02
5.129475519061088562e-02
-2.282282710075378418e-02
-1.197024360299110413e-01
1.636658012866973877e-01
6.567128747701644897e-02
7.708317041397094727e-02
-1.254008561372756958e-01
1.951562911272048950e-01
-8.614607900381088257e-02
-1.421973225660622120e-03
-1.783744543790817261e-01
-1.468542497605085373e-02
-2.955234423279762268e-02
1.801725663244724274e-02
3.647411987185478210e-02
-3.898404538631439209e-02
-2.161579031962901354e-04
2.390083223581314087e-01
-1.568288728594779968e-02
-4.755605384707450867e-02
4.907857999205589294e-02
-4.457311704754829407e-02
-9.267295151948928833e-02
-8.959670364856719971e-02
-6.079803034663200378e-02
4.298996552824974060e-02
1.173273846507072449e-01
-1.059541627764701843e-01
-3.605199232697486877e-02
5.256781354546546936e-02
-1.465290933847427368e-01
-6.758837401866912842e-02
4.048416018486022949e-02
-3.152753040194511414e-02
-1.529203075915575027e-02
5.673861131072044373e-02
1.176917105913162231e-01
5.503923818469047546e-02
8.463046513497829437e-03
2.973176166415214539e-02
4.213074222207069397e-02
-5.314597859978675842e-02
2.984354272484779358e-02
-1.681355386972427368e-02
1.141474172472953796e-01
-5.356964468955993652e-02
-1.979045197367668152e-02
-1.693955389782786369e-03
3.090712614357471466e-02
1.131836250424385071e-01
-2.639141380786895752e-01
-1.390498876571655273e-01
-5.019651725888252258e-02
-3.447621688246726990e-02
-2.715423107147216797e-01
-1.807721555233001709e-01
-6.231897696852684021e-02
6.069253385066986084e-02
-6.042772531509399414e-02
1.151362061500549316e-02
6.182420998811721802e-02
1.448725908994674683e-01
9.643783420324325562e-02
8.586508780717849731e-02
5.318667739629745483e-02
-2.366160042583942413e-03
1.104104593396186829e-01
1.329881995916366577e-01
-1.339978873729705811e-01
-1.686176471412181854e-02
-4.537228122353553772e-02
-6.162717193365097046e-02
-1.163012906908988953e-01
-1.123631075024604797e-01
-1.989963278174400330e-02
2.109377272427082062e-02
1.671205088496208191e-02
-1.212301552295684814e-01
-3.405329957604408264e-02
-3.088394552469253540e-02
-2.034083195030689240e-02
-2.875179238617420197e-02
-1.152930594980716705e-02
-1.702548265457153320e-01
-2.194054611027240753e-02
8.722543716430664062e-02
-6.938048452138900757e-02
-6.508703529834747314e-02
7.435545325279235840e-02
5.670591816306114197e-02
-1.009105220437049866e-01
5.309763923287391663e-02
4.333630204200744629e-02
2.516360022127628326e-02
2.146507799625396729e-01
-7.736446801573038101e-03
-2.871881611645221710e-02
-5.659744516015052795e-02
-1.095783784985542297e-01
2.029759809374809265e-02
-8.420158922672271729e-02
-3.860666230320930481e-02
-1.086050551384687424e-02
1.052462533116340637e-01
-9.892305731773376465e-02
-9.388305246829986572e-02
5.556629970669746399e-02
1.068025305867195129e-01
7.761700451374053955e-02
3.415987268090248108e-02
-1.053553912788629532e-02
8.026614040136337280e-02
-1.191406399011611938e-01
-1.138665452599525452e-01
8.814591169357299805e-02
1.410928461700677872e-02
-1.529647707939147949e-01
2.814245410263538361e-02
4.978384822607040405e-02
-8.449742197990417480e-02
-4.375565797090530396e-02
1.349837183952331543e-01
-1.143105328083038330e-02
2.138422243297100067e-02
1.188798993825912476e-01
3.942880406975746155e-02
1.984404474496841431e-01
-9.811163693666458130e-02
-3.795067220926284790e-02
-1.159295532852411270e-02
7.333600521087646484e-02
2.536413073539733887e-01
1.455978304147720337e-01
4.074795171618461609e-02
-5.104339867830276489e-02
4.210514575242996216e-02
1.106267645955085754e-01
4.120504856109619141e-02
7.885579764842987061e-02
-5.208870396018028259e-02
-5.382012203335762024e-02
1.405814886093139648e-01
-1.512009464204311371e-02
-6.638900935649871826e-02
5.820313002914190292e-03
-5.546205863356590271e-02
-7.486003637313842773e-02
-1.677077449858188629e-02
8.908015675842761993e-03
-1.263884156942367554e-01
7.937838882207870483e-02
9.966555517166852951e-04
-7.729272544384002686e-02
8.988335728645324707e-02
4.566938057541847229e-02
4.708823747932910919e-03
-8.673371747136116028e-03
-7.972305640578269958e-03
-1.616961136460304260e-02
-3.870100528001785278e-02
-7.808413356542587280e-02
-4.144824051763862371e-04
-1.321687549352645874e-01
8.663646876811981201e-02
-2.300678007304668427e-02
-1.727628149092197418e-02
-6.194484606385231018e-02
-5.669719353318214417e-02
-4.757695272564888000e-02
8.157782140187919140e-04
6.190807372331619263e-02
-9.034983813762664795e-02
2.995358593761920929e-02
-2.007765695452690125e-03
4.470482096076011658e-02
-4.251432791352272034e-02
1.081817820668220520e-01
1.882432401180267334e-02
-1.341259032487869263e-01
-7.726557552814483643e-02
7.156486809253692627e-02
-7.533464115113019943e-03
-1.581904478371143341e-02
-4.567564651370048523e-02
-6.123610306531190872e-03
3.618952585384249687e-03
-1.911896839737892151e-02
-7.021743804216384888e-02
-1.341770589351654053e-01
4.805549606680870056e-02
7.523058354854583740e-02
-4.909721016883850098e-02
2.889028564095497131e-02
3.321048244833946228e-02
1.084341183304786682e-01
-1.074924319982528687e-01
1.106482893228530884e-01
1.953416503965854645e-02
-4.826261103153228760e-02
-4.026971012353897095e-02
1.178185716271400452e-01
4.685196653008460999e-02
-5.725508555769920349e-02
4.229570273309946060e-03
7.052708417177200317e-02
-3.072953037917613983e-02
-4.306804761290550232e-02
8.823531121015548706e-02
-1.222606822848320007e-01
-1.443513482809066772e-01
-1.189846545457839966e-01
1.559612806886434555e-02
1.143085286021232605e-01
6.745667755603790283e-02
6.098620966076850891e-02
-9.620650671422481537e-03
-6.079075485467910767e-02
-6.443817913532257080e-02
7.582580298185348511e-02
-2.682516537606716156e-02
-6.052101030945777893e-02
-5.142197012901306152e-02
1.462485492229461670e-01
-9.090165048837661743e-02
4.244687408208847046e-02
-3.018544614315032959e-02
5.066405981779098511e-02
-4.956436529755592346e-02
-6.392193585634231567e-02
-1.272081881761550903e-01
4.973428323864936829e-02
2.709331735968589783e-02
-4.948821291327476501e-02
-3.995746374130249023e-02
5.120397731661796570e-02
3.730020252987742424e-03
4.413446038961410522e-02
-6.161255761981010437e-02
4.627738893032073975e-02
1.047781948000192642e-02
-3.474855050444602966e-02
-5.595981702208518982e-02
1.534208357334136963e-01
-2.392433770000934601e-02
-1.031358838081359863e-01
4.148806259036064148e-02
2.603629976511001587e-02
-4.665190353989601135e-02
1.278903800994157791e-02
-6.531849503517150879e-02
-1.828167028725147247e-02
-6.722254306077957153e-02
9.280922263860702515e-02
8.188258111476898193e-02
-3.641302511096000671e-02
-1.536921858787536621e-01
-4.059054423123598099e-03
-8.299946784973144531e-02
-1.506051570177078247e-01
8.478879183530807495e-02
-2.277257852256298065e-02
2.163911312818527222e-01
-1.017586663365364075e-01
1.306101027876138687e-02
-7.441716641187667847e-02
2.598980963230133057e-01
-8.853843808174133301e-02
2.294443361461162567e-02
4.589040577411651611e-02
1.245623826980590820e-01
-2.905954234302043915e-02
-1.975975930690765381e-02
-3.394374856725335121e-03
-1.554193161427974701e-02
9.762194752693176270e-02
4.640050232410430908e-02
3.505556285381317139e-02
-1.193729266524314880e-01
-3.016120940446853638e-02
-6.151895970106124878e-02
-2.347817085683345795e-02
3.457753360271453857e-02
-1.223355939146131277e-04
-5.720634385943412781e-02
1.395840495824813843e-01
3.203026577830314636e-02
6.662897020578384399e-02
-6.697917729616165161e-02
1.186174973845481873e-01
-1.030252054333686829e-01
-1.276709139347076416e-02
3.988477215170860291e-02
5.504529550671577454e-02
2.387527748942375183e-02
6.282668560743331909e-02
1.758218742907047272e-02
1.177555695176124573e-01
-4.988255351781845093e-02
1.067225337028503418e-01
8.124236762523651123e-02
-3.156223520636558533e-02
-6.611845642328262329e-02
5.435236543416976929e-02
-7.407621480524539948e-03
-4.993724822998046875e-02
-1.294846534729003906e-01
-2.679419936612248421e-03
-1.193352341651916504e-01
4.800948873162269592e-02
-3.317752480506896973e-02
5.818888545036315918e-02
5.357905477285385132e-02
-1.310201585292816162e-01
-2.740014530718326569e-02
5.440712347626686096e-02
-5.908916890621185303e-02
-1.330657452344894409e-01
-1.195140630006790161e-01
1.245675049722194672e-02
8.086734265089035034e-02
-1.538997422903776169e-02
6.175311282277107239e-02
3.198929876089096069e-02
-7.922130823135375977e-02
-1.223738938570022583e-01
6.282553821802139282e-02
4.144611582159996033e-02
-3.947331383824348450e-02
6.328361481428146362e-02
-2.983289584517478943e-02
-4.883600026369094849e-02
-4.795886948704719543e-02
7.340121269226074219e-02
2.350546792149543762e-02
-3.418252244591712952e-02
1.041758368955925107e-04
-7.049886882305145264e-02
-1.724567860364913940e-01
8.441953361034393311e-02
-3.883587196469306946e-02
1.141456514596939087e-02
-8.549292385578155518e-02
-7.856082916259765625e-02
-6.044128537178039551e-02
7.482910901308059692e-02
5.008603259921073914e-02
-8.189480006694793701e-02
2.809437178075313568e-02
6.038777902722358704e-02
-6.266186479479074478e-03
-5.667771399021148682e-02
2.217264100909233093e-02
8.163661509752273560e-02
-1.577365770936012268e-02
1.475915685296058655e-02
-6.422763317823410034e-02
1.662749610841274261e-02
-1.093364432454109192e-01
-1.353988796472549438e-01
2.737085893750190735e-02
1.296857893466949463e-01
4.936873167753219604e-02
2.026838436722755432e-02
1.239159777760505676e-01
1.314849555492401123e-01
-1.546304393559694290e-02
-9.257754683494567871e-02
-3.817324340343475342e-02
-1.068049073219299316e-01
1.549965143203735352e-01
-4.464473202824592590e-02
-5.638831853866577148e-02
2.096882648766040802e-02
1.570924222469329834e-01
-6.629937142133712769e-02
5.406887456774711609e-02
5.282695218920707703e-02
1.515551060438156128e-01
1.226224526762962341e-01
6.143037229776382446e-02
2.852411475032567978e-03
-8.932150155305862427e-02
1.274038944393396378e-02
-8.204389363527297974e-02
-7.401561737060546875e-02
-8.927818853408098221e-04
7.717898581176996231e-03
-3.505598520860075951e-03
3.716378659009933472e-02
-1.061840951442718506e-01
-5.418458022177219391e-03
-4.789483174681663513e-02
6.162556819617748260e-04
-1.393210738897323608e-01
-8.969517052173614502e-02
-3.042971156537532806e-02
3.425309062004089355e-02
7.092702668160200119e-03
7.813837379217147827e-03
3.016679082065820694e-03
-2.902309410274028778e-02
-1.385241448879241943e-01
-1.283909566700458527e-02
-5.472673475742340088e-02
9.658706188201904297e-02
-3.660400211811065674e-02
5.612239614129066467e-02
1.104346476495265961e-02
-2.431932836771011353e-02
9.600528329610824585e-02
1.837093569338321686e-02
-3.095067664980888367e-02
2.832931652665138245e-02
2.166715264320373535e-02
-3.140809759497642517e-02
-2.604119293391704559e-02
-4.115734249353408813e-02
3.003233484923839569e-02
-3.419952467083930969e-02
2.364140702411532402e-03
1.043298169970512390e-01
1.750707775354385376e-01
5.407893564552068710e-03
-2.747926861047744751e-02
6.960072368383407593e-02
-4.872675985097885132e-02
6.242246553301811218e-02
3.466955944895744324e-02
-6.224544718861579895e-02
-1.929291710257530212e-02
8.439207822084426880e-02
6.142825633287429810e-02
-9.863022714853286743e-02
5.583285167813301086e-02
-2.027659863233566284e-01
-2.628457546234130859e-02
-1.429947614669799805e-01
8.493245393037796021e-02
-1.060533430427312851e-02
1.218660920858383179e-01
8.523313328623771667e-03
3.611451759934425354e-02
3.429654613137245178e-02
1.535975337028503418e-01
3.470222279429435730e-02
1.415144503116607666e-01
-3.690025955438613892e-02
4.828741028904914856e-02
2.691971324384212494e-02
-1.067781820893287659e-01
-1.629835739731788635e-02
8.938461542129516602e-02
-1.026116758584976196e-01
8.947874419391155243e-03
1.588308811187744141e-02
-2.236974425613880157e-02
6.940047442913055420e-02
1.762035191059112549e-01
3.328916803002357483e-02
3.978748992085456848e-02
-1.202336773276329041e-01
7.508721947669982910e-02
-1.949558593332767487e-02
1.457126345485448837e-02
-6.921470910310745239e-02
1.234638020396232605e-01
1.707243500277400017e-03
-9.257124364376068115e-02
8.082842081785202026e-02
-8.316383697092533112e-03
3.539883345365524292e-02
-3.225144930183887482e-03
5.398014932870864868e-02
-4.126288741827011108e-02
-8.283439092338085175e-03
-9.419047832489013672e-02
8.347569406032562256e-02
-1.925544887781143188e-01
-1.711548417806625366e-01
-2.373646385967731476e-02
9.244904667139053345e-02
-3.603089973330497742e-02
-3.434382006525993347e-02
4.310534149408340454e-02
1.050201207399368286e-01
-3.224155679345130920e-02
-2.044031396508216858e-03
-1.553006563335657120e-02
-3.311004862189292908e-02
-8.253135532140731812e-02
-7.152648270130157471e-02
-8.618090301752090454e-03
4.097683355212211609e-02
-1.128663718700408936e-01
2.345011569559574127e-02
6.263084709644317627e-02
-4.372892528772354126e-02
1.069813892245292664e-01
2.176927216351032257e-02
-4.622314497828483582e-02
2.325160801410675049e-02
-2.670330740511417389e-02
-1.738661155104637146e-02
-1.619079522788524628e-02
4.581559449434280396e-02
-5.634032934904098511e-02
6.541036069393157959e-02
-5.910881236195564270e-02
-5.925204139202833176e-03
1.408411413431167603e-01
1.507902443408966064e-01
-4.636956751346588135e-02
-4.370567947626113892e-02
8.675147593021392822e-02
-1.955622620880603790e-02
4.994079843163490295e-02
4.389470815658569336e-02
1.135825291275978088e-01
-8.130163699388504028e-02
-6.634246557950973511e-02
-1.011263132095336914e-01
-7.758271694183349609e-02
-6.708635389804840088e-02
-1.029466241598129272e-01
2.271532453596591949e-02
8.644675463438034058e-02
5.372869223356246948e-02
-3.499375656247138977e-02
7.057709246873855591e-02
3.073759377002716064e-02
-3.337649255990982056e-02
-4.779241606593132019e-02
-3.687857883051037788e-03
6.474009901285171509e-02
7.562123239040374756e-02
3.373760357499122620e-02
9.712969511747360229e-02
3.222365304827690125e-02
-6.498556584119796753e-02
-9.483580291271209717e-02
-1.232503633946180344e-02
7.958088815212249756e-02
2.011283636093139648e-01
-7.607961446046829224e-02
-1.005281507968902588e-01
1.597550958395004272e-01
8.591409027576446533e-02
-5.269297584891319275e-02
-3.043784014880657196e-02
4.340162500739097595e-02
4.775087162852287292e-02
6.648660451173782349e-02
-2.127902582287788391e-02
8.586044609546661377e-02
-2.039917046204209328e-03
4.467540979385375977e-02
1.167076453566551208e-01
-4.507861658930778503e-02
2.809323556721210480e-02
8.508084714412689209e-02
7.991828024387359619e-03
-1.148111224174499512e-01
2.257868275046348572e-02
-9.646647423505783081e-02
1.150476653128862381e-02
-1.071866136044263840e-02
1.284858882427215576e-01
7.797043025493621826e-02
3.360761702060699463e-02
3.098803013563156128e-02
-1.150660738348960876e-01
2.923052292317152023e-03
5.561759695410728455e-02
2.290499396622180939e-02
-1.233423203229904175e-01
-1.246389448642730713e-01
9.639750234782695770e-03
6.207692250609397888e-02
-1.425730288028717041e-01
-2.161256521940231323e-01
-4.836444929242134094e-02
1.741014420986175537e-02
3.124083206057548523e-02
8.171158283948898315e-02
-8.655595779418945312e-02
3.514798730611801147e-02
-2.041924186050891876e-02
-1.483164820820093155e-02
-9.089062362909317017e-02
5.606016144156455994e-02
-1.552031449136848096e-06
-4.540435969829559326e-02
-5.713033303618431091e-02
2.497280761599540710e-02
2.249409556388854980e-01
1.168300583958625793e-01
-6.894885003566741943e-02
2.500853873789310455e-02
-1.887998729944229126e-01
-6.313401460647583008e-02
6.109169870615005493e-02
4.833788797259330750e-02
-3.084910847246646881e-02
-6.561364978551864624e-02
-3.110547363758087158e-02
2.185589633882045746e-02
-7.221690565347671509e-02
4.472296277526766062e-04
2.830735407769680023e-02
1.471083462238311768e-01
-2.843004651367664337e-02
-2.603044919669628143e-02
2.457151748239994049e-02
-1.141024082899093628e-01
5.132523924112319946e-02
1.034129038453102112e-02
3.845578758046030998e-03
5.111958459019660950e-02
4.329854995012283325e-02
-1.503528468310832977e-02
-6.919877137988805771e-03
-8.714548498392105103e-02
6.609669327735900879e-02
-5.418165773153305054e-02
-5.904746428132057190e-02
3.248007968068122864e-02
1.903468221426010132e-01
1.657080054283142090e-01
1.682696491479873657e-01
-7.538457959890365601e-02
-1.239658296108245850e-01
-8.590063452720642090e-02
2.265307307243347168e-02
-4.912044107913970947e-02
-4.247859760653227568e-04
-5.065626278519630432e-02
-8.236537873744964600e-02
8.340165950357913971e-03
3.508844226598739624e-02
6.196705251932144165e-02
-4.727429524064064026e-02
5.067651346325874329e-02
-1.417737267911434174e-02
1.254187226295471191e-01
-5.525625869631767273e-02
-1.197762414813041687e-01
4.937869682908058167e-02
-5.871962010860443115e-02
-1.278402954339981079e-01
2.865658327937126160e-02
2.750003524124622345e-02
-6.918502971529960632e-03
-1.110400855541229248e-01
8.661767467856407166e-03
-1.010069474577903748e-01
-6.096438691020011902e-02
1.584379561245441437e-02
-2.368045039474964142e-03
-9.703625924885272980e-03
1.041127666831016541e-01
1.753988862037658691e-01
-8.101755380630493164e-02
3.248285129666328430e-02
-1.417524833232164383e-02
-2.797948196530342102e-03
2.507927641272544861e-02
3.764975816011428833e-02
2.509736642241477966e-02
6.421792786568403244e-03
-6.470093876123428345e-02
-7.609847187995910645e-02
-5.033016204833984375e-02
1.184854507446289062e-01
-7.464158535003662109e-02
-9.243016690015792847e-02
1.100266203284263611e-01
3.061793558299541473e-02
-8.544396609067916870e-02
-5.739863589406013489e-02
-1.212719827890396118e-01
1.104743257164955139e-01
-2.612445876002311707e-02
-3.547503799200057983e-02
2.165758237242698669e-02
9.972940385341644287e-02
-5.283546820282936096e-02
-1.223062947392463684e-01
-3.522403910756111145e-02
-6.131998077034950256e-02
-1.379489153623580933e-01
-9.596160054206848145e-02
-3.884034231305122375e-02
-5.839533358812332153e-02
-1.058012545108795166e-01
1.577388495206832886e-01
2.212465703487396240e-01
1.152047738432884216e-01
6.271483004093170166e-02
8.804968744516372681e-02
6.089573726058006287e-02
-6.003708764910697937e-02
-8.978230506181716919e-02
-5.705790594220161438e-02
5.097327753901481628e-03
-6.307137198746204376e-03
-8.465734124183654785e-02
-1.195823699235916138e-01
2.187056988477706909e-01
4.345211386680603027e-02
-4.143406823277473450e-02
1.666813157498836517e-02
-5.083426460623741150e-02
-4.907625168561935425e-02
1.256134361028671265e-01
6.871964782476425171e-02
6.126433238387107849e-02
-5.062233284115791321e-02
1.791826188564300537e-01
7.884277403354644775e-02
3.122957795858383179e-02
2.670988673344254494e-03
-1.540557742118835449e-01
1.289499253034591675e-01
3.151673451066017151e-02
-2.343842573463916779e-02
1.510229855775833130e-01
5.185636132955551147e-02
8.588795363903045654e-02
-1.207204535603523254e-02
2.426137030124664307e-02
-2.728815935552120209e-02
3.769875690340995789e-02
-3.133777156472206116e-02
-4.779779165983200073e-02
-1.419512629508972168e-01
7.307429611682891846e-02
5.749527364969253540e-02
1.132320053875446320e-02
4.644784703850746155e-02
1.323296874761581421e-02
1.581317395903170109e-03
7.948639988899230957e-02
3.615941107273101807e-02
-6.213525775820016861e-03
6.686935573816299438e-02
9.880267083644866943e-02
-7.209119200706481934e-02
-2.847875468432903290e-02
-5.498139187693595886e-02
-5.530118569731712341e-02
-2.869580499827861786e-02
-8.424370549619197845e-03
3.837169334292411804e-02
-1.032293960452079773e-01
7.386174052953720093e-02
-3.822331130504608154e-02
7.866998761892318726e-02
-1.264821141958236694e-01
-5.139600113034248352e-02
5.130430683493614197e-02
6.573498249053955078e-02
1.281734704971313477e-01
4.335789009928703308e-03
-2.933887578547000885e-02
9.035066515207290649e-02
-1.074789538979530334e-01
-1.146542578935623169e-01
-4.604374617338180542e-02
1.847746819257736206e-01
1.675636321306228638e-02
9.414007514715194702e-02
3.817908093333244324e-02
2.050588130950927734e-01
3.546036779880523682e-02
-1.090185791254043579e-01
-1.401507109403610229e-01
-7.778801769018173218e-02
-1.035868078470230103e-01
-8.192747086286544800e-02
9.730531834065914154e-03
-1.456815167330205441e-03
-3.414246067404747009e-02
6.736666709184646606e-02
1.042589470744132996e-01
4.363172128796577454e-02
-9.580624848604202271e-02
9.392950683832168579e-02
3.639416396617889404e-02
6.066842004656791687e-02
4.672974348068237305e-02
5.361317470669746399e-02
-1.755308359861373901e-02
-6.104261055588722229e-02
5.398891121149063110e-02
-1.081841289997100830e-01
4.409566894173622131e-02
-3.283620253205299377e-02
1.081448495388031006e-01
3.997734561562538147e-02
1.523686759173870087e-02
3.182736784219741821e-02
-3.598442301154136658e-02
5.911979824304580688e-02
7.102400809526443481e-02
-1.609199494123458862e-01
-1.444827616214752197e-01
-2.588469162583351135e-02
-1.488813757896423340e-01
6.339142564684152603e-03
-2.546013146638870239e-02
4.590943083167076111e-02
-8.592990040779113770e-02
-9.006846696138381958e-02
3.649083897471427917e-02
7.708198577165603638e-02
4.586050286889076233e-02
4.786719381809234619e-02
-5.116132274270057678e-02
1.838154904544353485e-02
2.063035033643245697e-02
-2.950407378375530243e-02
3.170289099216461182e-02
1.418556571006774902e-01
5.769373103976249695e-02
1.220797188580036163e-02
2.208849415183067322e-02
8.599022775888442993e-02
6.389940530061721802e-02
5.375040322542190552e-02
-9.816681966185569763e-03
-9.473744779825210571e-03
-5.719215050339698792e-02
7.378269731998443604e-02
-7.621775567531585693e-02
-1.102546527981758118e-01
-3.082848526537418365e-02
6.357002258300781250e-02
7.229416223708540201e-05
-9.133336693048477173e-02
-3.715114435181021690e-03
1.481067668646574020e-02
1.846666783094406128e-01
-1.694980263710021973e-02
-7.693534716963768005e-03
9.831578284502029419e-02
1.077335104346275330e-01
-4.943114891648292542e-02
1.225007884204387665e-02
6.426812708377838135e-02
1.110842600464820862e-01
7.330457866191864014e-02
1.692504063248634338e-02
4.631258174777030945e-02
-9.935589134693145752e-02
8.725994825363159180e-02
-7.799313403666019440e-03
6.116198375821113586e-02
-1.353616267442703247e-01
-1.151380017399787903e-01
-7.914869487285614014e-02
4.259578883647918701e-02
3.849660605192184448e-02
-3.449493646621704102e-02
-1.490353643894195557e-01
6.087380647659301758e-02
4.697204567492008209e-03
-1.813326030969619751e-02
3.078257292509078979e-02
6.564491987228393555e-02
-3.488169610500335693e-02
-1.479917019605636597e-01
-8.721105754375457764e-03
-9.127203375101089478e-02
-6.334614008665084839e-02
-1.150232851505279541e-01
-7.457100600004196167e-02
1.386714912950992584e-02
-6.040513515472412109e-02
-2.149681933224201202e-02
5.291507393121719360e-02
-4.674752801656723022e-02
6.619559228420257568e-02
-8.078628033399581909e-02
-1.293648779392242432e-01
2.690302673727273941e-03
-3.290384635329246521e-02
-8.734636753797531128e-02
3.567668050527572632e-02
5.434337630867958069e-02
7.674475014209747314e-02
8.452833443880081177e-02
8.500976115465164185e-02
9.127398580312728882e-02
1.630338132381439209e-01
9.705898910760879517e-02
1.159308627247810364e-01
-6.103714182972908020e-02
-1.089518219232559204e-01
-1.320198327302932739e-01
-7.409753650426864624e-02
-7.309749722480773926e-02
-8.980862796306610107e-02
-1.331941485404968262e-01
-3.718596324324607849e-02
-6.826218962669372559e-02
-2.441908232867717743e-02
-1.186236180365085602e-02
-4.006011411547660828e-03
-3.307973220944404602e-02
4.903646185994148254e-02
-4.893075302243232727e-02
2.851192606613039970e-03
2.176441699266433716e-01
9.951193630695343018e-02
-2.705132961273193359e-02
-1.313039511442184448e-01
-1.411871146410703659e-02
-6.384716928005218506e-02
4.442508891224861145e-02
-3.444141894578933716e-02
-2.220871672034263611e-02
-8.912929147481918335e-02
4.505034536123275757e-02
-8.218607306480407715e-02
5.081689730286598206e-02
-3.178820386528968811e-02
-1.333078444004058838e-01
8.591393008828163147e-03
-3.978426009416580200e-02
5.247948225587606430e-03
1.132393814623355865e-02
-3.872861713171005249e-02
-2.878304570913314819e-02
8.109965175390243530e-02
-2.061697654426097870e-02
3.827230632305145264e-02
-4.232823103666305542e-02
8.238250762224197388e-02
-2.646999619901180267e-02
8.082486689090728760e-02
6.845857948064804077e-02
4.752387851476669312e-02
-1.922081038355827332e-02
3.211043775081634521e-02
-5.236318334937095642e-02
1.442750636488199234e-02
7.791355997323989868e-02
3.115019947290420532e-02
2.172872275114059448e-01
-6.342936307191848755e-02
-1.001401222310960293e-03
-6.814705580472946167e-02
-2.572842314839363098e-02
1.309079974889755249e-01
8.474896103143692017e-02
9.310385584831237793e-02
-1.685558557510375977e-01
1.944142132997512817e-01
1.749391704797744751e-01
1.656233370304107666e-01
1.439270190894603729e-02
2.050947584211826324e-02
-3.540019318461418152e-02
-9.560891985893249512e-02
-6.997169554233551025e-02
2.931769564747810364e-02
1.306068804115056992e-02
-9.115704894065856934e-02
-1.110807582736015320e-01
2.139431983232498169e-01
3.673610091209411621e-02
7.754244655370712280e-02
-6.387516856193542480e-02
1.303644925355911255e-01
7.357718795537948608e-02
-2.333541773259639740e-02
-2.443231642246246338e-01
6.878897547721862793e-02
5.079583451151847839e-02
-2.389068342745304108e-02
-1.181198731064796448e-01
1.032712012529373169e-01
-5.675042048096656799e-02
1.222595646977424622e-01
5.866799131035804749e-02
2.067334800958633423e-01
-1.253783889114856720e-02
2.068521641194820404e-02
-7.848095893859863281e-02
7.776272296905517578e-02
-1.472242642194032669e-02
-1.303300913423299789e-02
1.684803217649459839e-01
-3.869136795401573181e-02
-5.992710217833518982e-02
-5.947029963135719299e-02
-1.204265467822551727e-02
-4.134997352957725525e-02
-1.441564559936523438e-01
-4.019609466195106506e-02
-2.304061874747276306e-02
3.260811790823936462e-02
-5.025722458958625793e-02
-6.215870752930641174e-02
-1.800828985869884491e-02
-2.954347617924213409e-02
-3.472862392663955688e-02
-1.932371407747268677e-02
5.530009046196937561e-02
9.048552066087722778e-02
8.198563940823078156e-03
-7.166146533563733101e-04
-8.785226941108703613e-02
2.749191597104072571e-02
-4.510153457522392273e-02
8.215121179819107056e-02
-4.924693703651428223e-02
1.235243678092956543e-01
-1.706115752458572388e-01
3.519332408905029297e-02
-2.947647497057914734e-02
-1.142472121864557266e-02
-2.447896301746368408e-01
2.016287297010421753e-01
1.198754683136940002e-01
-1.410343796014785767e-01
-6.249616295099258423e-02
-5.207877140492200851e-03
-8.119069784879684448e-02
8.339153230190277100e-02
-1.346229165792465210e-01
5.748712271451950073e-02
-1.582580618560314178e-02
4.614345729351043701e-02
7.826880551874637604e-03
-3.687241673469543457e-02
-1.056468114256858826e-01
6.165323406457901001e-02
-3.850585967302322388e-02
2.558359876275062561e-02
-4.888321273028850555e-03
1.370366960763931274e-01
-7.594478130340576172e-02
1.869041658937931061e-02
2.094261161983013153e-02
7.338088750839233398e-02
-8.238009363412857056e-02
-4.740038514137268066e-02
-5.827391054481267929e-03
-4.889759793877601624e-02
4.347763210535049438e-02
1.005320847034454346e-01
2.108203247189521790e-03
1.867996901273727417e-01
-1.858371309936046600e-02
1.408338397741317749e-01
6.747224926948547363e-02
-3.048049099743366241e-02
-1.209668815135955811e-01
-4.059860948473215103e-03
1.368299126625061035e-02
-7.596322894096374512e-02
-9.396768361330032349e-02
-3.345318511128425598e-02
-7.725062966346740723e-02
-4.363259673118591309e-02
7.203576713800430298e-02
9.371648728847503662e-02
-4.299917072057723999e-02
-1.183193847537040710e-01
5.749030411243438721e-02
-4.637293517589569092e-02
-2.713554305955767632e-03
1.688915640115737915e-01
-4.262168891727924347e-03
-6.774836033582687378e-02
-6.983698904514312744e-02
-1.561031490564346313e-01
-2.483797073364257812e-02
-5.639320705085992813e-03
6.638418883085250854e-02
-1.397344321012496948e-01
-3.310197219252586365e-02
1.862312108278274536e-02
1.716274917125701904e-01
-1.035163179039955139e-01
-1.454027183353900909e-02
2.361703477799892426e-02
2.722084522247314453e-01
7.939232140779495239e-02
1.011565029621124268e-01
1.359269171953201294e-01
-3.186483308672904968e-02
-8.024425059556961060e-02
-5.783237889409065247e-02
-3.584441542625427246e-02
1.126749068498611450e-02
-7.360364496707916260e-02
-3.245916962623596191e-02
9.138012677431106567e-02
3.965528309345245361e-02
-8.283995836973190308e-02
1.456085685640573502e-02
3.536471351981163025e-02
2.623117901384830475e-02
-1.225555986166000366e-01
-5.518139153718948364e-02
-1.163657978177070618e-01
-1.848064921796321869e-02
-2.974816597998142242e-02
4.067987948656082153e-02
3.738585859537124634e-02
-6.393063068389892578e-02
2.702644467353820801e-02
-6.512839347124099731e-02
-2.948184497654438019e-02
-3.176923468708992004e-02
9.658790379762649536e-02
4.342259466648101807e-02
6.975870579481124878e-02
2.753909863531589508e-02
-5.304902791976928711e-03
1.368659082800149918e-02
5.082963779568672180e-02
-3.735393285751342773e-02
1.999433152377605438e-02
-1.006942335516214371e-02
3.119404800236225128e-02
1.628480292856693268e-02
2.003909461200237274e-02
-9.736022353172302246e-02
1.077806204557418823e-02
1.199987530708312988e-01
1.736239045858383179e-01
5.088939331471920013e-03
1.000143215060234070e-01
5.521199479699134827e-02
-1.620940268039703369e-01
-7.123955339193344116e-02
-8.516925573348999023e-02
-1.811689436435699463e-01
-7.861395180225372314e-02
3.714277967810630798e-02
1.332403421401977539e-01
3.636500984430313110e-02
1.920069754123687744e-02
5.400977656245231628e-02
6.140428036451339722e-02
-5.251120403409004211e-02
-8.534434437751770020e-02
-1.167107969522476196e-01
-2.287593670189380646e-02
-1.629164442420005798e-02
9.992790967226028442e-02
7.810164242982864380e-02
1.417183727025985718e-01
3.933545376639813185e-04
-3.046660125255584717e-02
7.665769010782241821e-02
9.135655313730239868e-02
2.202371321618556976e-02
1.403304487466812134e-01
-3.562032245099544525e-03
8.321374654769897461e-02
4.298238549381494522e-03
-1.185243725776672363e-01
-4.362199828028678894e-02
-1.006041318178176880e-01
-1.979456692934036255e-01
2.060931548476219177e-02
4.029168188571929932e-02
6.097499746829271317e-03
1.687396503984928131e-02
-5.492941290140151978e-02
6.384643167257308960e-02
1.598574221134185791e-02
-1.004370823502540588e-01
-1.027203537523746490e-02
4.886772483587265015e-02
2.953304909169673920e-02
-3.108942136168479919e-02
1.955963522195816040e-01
1.046029627323150635e-01
1.954465359449386597e-02
3.510355204343795776e-02
-1.088519245386123657e-01
-1.500946283340454102e-01
1.499838680028915405e-01
-5.049886554479598999e-02
5.356886237859725952e-02
-1.133135333657264709e-01
1.773328892886638641e-02
2.642367035150527954e-02
-4.357012361288070679e-02
-1.146534550935029984e-02
-9.296301007270812988e-02
2.375143207609653473e-02
-4.630680009722709656e-02
1.363753378391265869e-01
7.351207733154296875e-02
-3.442742675542831421e-02
-9.424815885722637177e-03
1.269962172955274582e-02
-1.160629242658615112e-01
4.953092709183692932e-02
-3.612374886870384216e-02
3.156800568103790283e-02
-7.009077072143554688e-02
-1.139965170295909047e-04
-1.447536889463663101e-02
1.956867240369319916e-02
-5.386728420853614807e-02
-9.485360234975814819e-03
5.312978848814964294e-02
-4.449087753891944885e-02
-1.985487714409828186e-02
6.448016315698623657e-02
-3.891219943761825562e-02
2.895541675388813019e-02
-1.551509052515029907e-01
-1.343460977077484131e-01
-6.428635120391845703e-02
8.362684398889541626e-03
-4.574244841933250427e-03
5.322678759694099426e-02
-1.165933534502983093e-01
4.179272055625915527e-02
2.887463197112083435e-02
-3.296198323369026184e-02
8.746590465307235718e-03
-3.879184275865554810e-02
-6.785529851913452148e-02
1.944791823625564575e-01
1.676827967166900635e-01
-1.529713124036788940e-01
-6.622350215911865234e-02
8.840719237923622131e-03
2.068270742893218994e-01
3.517284616827964783e-02
-9.939553588628768921e-02
5.276139453053474426e-02
-1.440890133380889893e-01
9.041471034288406372e-02
1.144828200340270996e-01
1.984702646732330322e-01
-2.416897192597389221e-02
-4.989292472600936890e-02
-5.022270604968070984e-02
-1.580539508722722530e-03
3.068370744585990906e-02
-3.919668868184089661e-02
-7.200960069894790649e-02
-2.115871012210845947e-02
-1.027035191655158997e-01
8.561052381992340088e-03
-2.870609983801841736e-02
1.206154748797416687e-02
-1.143636107444763184e-01
3.366982936859130859e-02
-1.597457565367221832e-03
-1.300567854195833206e-02
2.351539395749568939e-02
-3.903057798743247986e-02
-6.539966166019439697e-02
1.213369984179735184e-02
1.053400859236717224e-01
4.778075218200683594e-02
-5.309749767184257507e-02
4.667195305228233337e-02
1.402420699596405029e-01
-4.252476990222930908e-02
1.995717547833919525e-02
4.030457884073257446e-02
7.780787348747253418e-02
-7.122598588466644287e-02
-5.560495704412460327e-02
8.081737160682678223e-02
-1.577776297926902771e-02
8.254370838403701782e-02
-6.815856695175170898e-02
-1.651107668876647949e-01
-6.718902289867401123e-02
-2.218397557735443115e-01
-1.943764160387217999e-03
4.852182045578956604e-02
-1.849321834743022919e-02
-9.474065899848937988e-02
2.991735003888607025e-03
-4.486491531133651733e-02
4.864903166890144348e-03
3.296479582786560059e-02
-9.275327622890472412e-02
6.148903816938400269e-02
8.004717528820037842e-03
2.855796925723552704e-02
-8.298303186893463135e-02
-2.219748869538307190e-02
8.045759983360767365e-03
8.462781459093093872e-02
6.543714553117752075e-02
-7.057841401547193527e-03
3.100798465311527252e-02
2.879285253584384918e-02
5.224471911787986755e-02
-1.170322299003601074e-02
1.233135350048542023e-02
-3.734426945447921753e-02
-3.041972965002059937e-02
-2.087909169495105743e-02
-7.656805217266082764e-02
-8.352484554052352905e-02
-9.676004201173782349e-02
1.091202627867460251e-02
-1.251642853021621704e-01
1.160433143377304077e-01
6.581059657037258148e-03
-2.670267783105373383e-02
-3.828861191868782043e-02
-6.342072039842605591e-02
-2.488951198756694794e-03
-8.194889128208160400e-02
6.869266927242279053e-02
7.459949702024459839e-02
-8.023911155760288239e-03
3.107221983373165131e-02
-3.955014422535896301e-02
-2.101928181946277618e-02
3.535783290863037109e-02
-3.734552487730979919e-02
-5.047615244984626770e-02
-4.213127493858337402e-02
2.934488840401172638e-02
5.733325704932212830e-02
1.149135380983352661e-01
-1.124580111354589462e-02
1.119387224316596985e-01
-3.821595758199691772e-02
6.501292437314987183e-02
7.109212875366210938e-02
7.865320891141891479e-02
-5.738973245024681091e-02
-8.032709360122680664e-02
-1.386427879333496094e-01
-6.809581816196441650e-02
-1.454103887081146240e-01
-1.073486357927322388e-01
-7.812122255563735962e-02
-1.279212087392807007e-01
9.865263476967811584e-03
-2.522889152169227600e-02
7.202484458684921265e-02
1.673322170972824097e-02
8.644396811723709106e-02
3.184170275926589966e-02
1.183482408523559570e-01
3.097715089097619057e-03
-7.198724197223782539e-04
3.963330388069152832e-02
-3.660235553979873657e-02
9.209359064698219299e-03
3.994905576109886169e-02
-1.870679855346679688e-01
-4.306511208415031433e-02
8.890060335397720337e-02
1.165235638618469238e-01
4.002884402871131897e-02
4.655919224023818970e-02
-1.407707333564758301e-01
1.801759749650955200e-01
2.290222607553005219e-02
-4.503370076417922974e-02
-3.246910125017166138e-02
-3.792301053181290627e-03
1.001389846205711365e-01
-6.695534288883209229e-02
-1.641758158802986145e-02
-8.707950264215469360e-02
1.242863908410072327e-01
-5.841099470853805542e-02
-9.072899073362350464e-02
-1.554320286959409714e-02
-9.262043982744216919e-02
-3.508582711219787598e-03
2.159384079277515411e-02
4.994080215692520142e-02
5.380523949861526489e-02
9.957783669233322144e-02
2.154886163771152496e-02
9.305676817893981934e-02
-1.106695830821990967e-01
-5.694013461470603943e-02
-6.242532655596733093e-02
8.691789954900741577e-02
8.052052557468414307e-02
7.400003820657730103e-02
1.179520934820175171e-01
2.932379022240638733e-02
-8.131866157054901123e-02
5.545148160308599472e-04
8.771138638257980347e-02
-1.272257864475250244e-01
-2.003294229507446289e-01
7.549563795328140259e-02
5.676913261413574219e-02
-7.347574830055236816e-02
-1.090826392173767090e-01
-1.080973353236913681e-02
6.459119915962219238e-02
3.766461461782455444e-02
1.259624511003494263e-01
1.643573343753814697e-01
6.262745708227157593e-02
9.502065181732177734e-02
-1.258067339658737183e-01
7.266039401292800903e-02
8.222205936908721924e-02
2.185048162937164307e-02
-5.393624305725097656e-02
1.354469684883952141e-03
6.877434253692626953e-02
1.463620550930500031e-02
-4.815569147467613220e-03
3.800424188375473022e-02
1.549758668988943100e-02
-1.750933751463890076e-02
1.374425273388624191e-02
-9.224944561719894409e-02
1.375978589057922363e-01
-4.933733120560646057e-02
3.072262369096279144e-02
-4.116741940379142761e-02
-2.878526970744132996e-02
-1.311278343200683594e-01
-7.841534912586212158e-02
9.188845008611679077e-02
4.006682708859443665e-02
2.061757491901516914e-03
1.915571652352809906e-02
-4.601123929023742676e-02
7.649548351764678955e-02
3.233786299824714661e-02
7.460320740938186646e-02
-1.215567067265510559e-01
-9.265994653105735779e-03
-7.553420960903167725e-02
-8.635250478982925415e-02
5.082571879029273987e-02
1.434070430696010590e-02
8.759047091007232666e-02
1.564688421785831451e-02
7.423239201307296753e-02
-1.350090838968753815e-02
6.481562741100788116e-03
-1.187899615615606308e-02
-6.449370086193084717e-02
-4.490924254059791565e-02
4.710521548986434937e-03
-8.920679986476898193e-02
-1.554721035063266754e-02
-2.313838005065917969e-01
-1.093272194266319275e-01
1.591879315674304962e-02
-5.403779819607734680e-02
-3.106833808124065399e-02
1.105786859989166260e-01
-7.812358438968658447e-02
-2.717204019427299500e-02
1.520285606384277344e-01
1.426021009683609009e-01
-7.892051339149475098e-02
3.245085477828979492e-02
8.085241168737411499e-02
-9.856115281581878662e-02
-9.971448779106140137e-02
3.997233230620622635e-03
-2.478331513702869415e-02
-1.219769939780235291e-01
-5.062172561883926392e-02
-1.370490640401840210e-01
-6.396725028753280640e-02
3.186607360839843750e-02
-9.412967599928379059e-03
-4.646274447441101074e-02
4.352825053501874208e-04
3.754930943250656128e-02
6.488166004419326782e-02
-7.220564037561416626e-02
1.946940086781978607e-02
8.939381688833236694e-02
-1.396494507789611816e-01
2.717425674200057983e-02
5.677565187215805054e-02
-1.376535445451736450e-01
-4.276090860366821289e-02
-9.334517270326614380e-02
1.158201918005943298e-01
3.655021637678146362e-02
-7.528302818536758423e-02
3.870547190308570862e-02
5.923656374216079712e-02
1.312054544687271118e-01
7.589261978864669800e-02
-1.536167860031127930e-01
-1.738545000553131104e-01
1.203518919646739960e-02
-6.669651716947555542e-02
-3.779270499944686890e-02
7.840497791767120361e-02
-7.939691841602325439e-02
-5.668197944760322571e-02
-3.311082720756530762e-02
3.126446902751922607e-02
-2.331382408738136292e-02
-1.536825578659772873e-02
-8.889632299542427063e-03
5.207970738410949707e-02
4.551419988274574280e-02
6.548693031072616577e-02
2.164595387876033783e-02
-3.688039258122444153e-02
7.913372665643692017e-02
9.981811046600341797e-02
1.221932768821716309e-01
7.279512286186218262e-02
9.657537937164306641e-02
1.538222283124923706e-01
-1.750491373240947723e-02
4.955733567476272583e-02
2.248919755220413208e-02
1.541769504547119141e-02
-1.580037325620651245e-01
-2.709813416004180908e-02
-5.575932562351226807e-02
1.552726924419403076e-01
-2.646841667592525482e-02
1.193238347768783569e-01
-1.129512861371040344e-01
-1.552822291851043701e-01
2.716028597205877304e-03
-1.362581364810466766e-02
-1.369146537035703659e-02
-2.026719748973846436e-01
-9.124929457902908325e-02
5.104546621441841125e-02
-5.697770044207572937e-03
4.614989832043647766e-02
-1.270441710948944092e-01
5.270391702651977539e-03
-1.073282361030578613e-01
8.539681881666183472e-02
9.752619266510009766e-02
8.121895790100097656e-02
-9.394268505275249481e-03
1.233095303177833557e-03
-1.317357830703258514e-02
-8.598560839891433716e-02
8.530124276876449585e-02
1.027969568967819214e-01
5.953553318977355957e-02
1.487708389759063721e-01
1.123569011688232422e-01
-2.365479990839958191e-02
6.013979017734527588e-02
4.595580324530601501e-02
-1.619914430193603039e-03
-2.601724863052368164e-02
-2.901701664086431265e-04
1.646908372640609741e-01
-6.189197674393653870e-02
2.041736692190170288e-01
9.605342149734497070e-02
8.477393537759780884e-02
1.445695608854293823e-01
-1.665266454219818115e-01
2.592316269874572754e-02
-3.291940689086914062e-02
-3.199054300785064697e-02
-1.715358942747116089e-01
4.949311912059783936e-02
4.633950814604759216e-02
9.302756935358047485e-02
-5.191142112016677856e-02
9.042134135961532593e-02
-9.284914284944534302e-02
4.752028267830610275e-03
1.684919558465480804e-02
-1.520954966545104980e-01
-1.697760671377182007e-01
5.209578946232795715e-02
-8.992361836135387421e-03
6.366693973541259766e-02
-9.931080043315887451e-02
-9.320744127035140991e-02
-8.651568740606307983e-02
1.035823896527290344e-01
1.183939166367053986e-02
5.160816758871078491e-02
3.964271023869514465e-02
-2.927583642303943634e-02
-4.428159072995185852e-02
-1.354131400585174561e-01
1.025061868131160736e-02
-4.338220134377479553e-02
-6.185285374522209167e-02
-5.068635940551757812e-02
-7.802481204271316528e-02
-2.101287059485912323e-02
-6.525514274835586548e-02
-5.861924216151237488e-02
-5.664688721299171448e-02
3.009976632893085480e-02
-1.130673289299011230e-02
3.690966218709945679e-02
-2.322595566511154175e-02
1.262285513803362846e-03
-3.623845428228378296e-02
-6.538376957178115845e-02
2.003304287791252136e-02
3.305216133594512939e-02
2.152005583047866821e-02
7.193949073553085327e-02
8.698205649852752686e-02
3.424087166786193848e-02
-2.596262656152248383e-02
1.288000643253326416e-01
-4.054564237594604492e-02
4.791419208049774170e-02
5.566876009106636047e-02
2.897567674517631531e-02
-1.734950393438339233e-02
-7.577361166477203369e-02
2.126249717548489571e-03
-3.977786004543304443e-02
-7.101352512836456299e-02
-7.874390110373497009e-03
7.143009454011917114e-02
8.796184509992599487e-02
-4.956833552569150925e-03
-5.490371212363243103e-02
4.230834916234016418e-02
-8.669105358421802521e-03
1.432397519238293171e-03
3.343399986624717712e-02
-1.774357818067073822e-02
-3.440616279840469360e-02
-9.399618208408355713e-02
-4.429754614830017090e-02
-1.885376498103141785e-02
-3.866520524024963379e-02
1.009309589862823486e-01
-5.288868770003318787e-02
-1.000944431871175766e-02
-2.273854240775108337e-02
8.309733867645263672e-02
-6.386375427246093750e-02
-5.976700037717819214e-02
-2.379359677433967590e-02
8.365781605243682861e-02
-1.484632398933172226e-02
1.667148806154727936e-02
-5.774307996034622192e-02
-7.806288450956344604e-02
-2.217975631356239319e-02
3.518551960587501526e-02
-6.080678850412368774e-02
8.864290267229080200e-02
4.715806618332862854e-02
-1.112388446927070618e-02
4.261963814496994019e-02
-3.600340336561203003e-02
6.210265215486288071e-03
-1.496464665979146957e-02
7.649681530892848969e-03
-3.241864591836929321e-02
-8.561929315328598022e-02
1.280195545405149460e-02
4.600567743182182312e-02
-4.605147987604141235e-02
-5.038992315530776978e-02
-4.133764281868934631e-02
-8.907634764909744263e-02
4.019181802868843079e-02
4.161285981535911560e-02
-2.206800691783428192e-02
6.920520216226577759e-02
1.040768623352050781e-01
4.238173365592956543e-02
-5.413727834820747375e-02
-1.660173200070858002e-02
-2.206627465784549713e-02
-9.561546146869659424e-03
-1.489540841430425644e-02
-5.436903610825538635e-02
1.773603819310665131e-02
-2.548537589609622955e-02
5.736410617828369141e-02
4.873641580343246460e-02
3.911698237061500549e-02
5.777359008789062500e-03
-9.695653803646564484e-03
4.272573441267013550e-02
-6.587871816009283066e-03
2.272989414632320404e-02
4.061010852456092834e-02
4.077541641891002655e-03
-5.340899899601936340e-02
5.857328325510025024e-02
-3.704848513007164001e-02
1.232079118490219116e-01
-5.553221330046653748e-02
4.132500663399696350e-02
-8.973576873540878296e-02
1.213579103350639343e-01
-3.511369973421096802e-02
-6.669344007968902588e-02
-3.403355553746223450e-02
-8.607000857591629028e-02
7.913614809513092041e-02
6.658611446619033813e-02
-1.128918025642633438e-02
5.009763687849044800e-02
-1.324619818478822708e-02
2.371695637702941895e-02
-5.646433681249618530e-02
-2.013823762536048889e-02
4.929794371128082275e-02
1.088617485947906971e-03
2.950722165405750275e-02
-2.369019947946071625e-02
-3.070048987865447998e-02
-5.245664622634649277e-03
3.239182010293006897e-02
2.245591022074222565e-02
-1.413839031010866165e-02
3.478810249362140894e-04
5.323376879096031189e-02
-9.550129994750022888e-03
8.374287188053131104e-02
-5.372049659490585327e-02
-1.893623545765876770e-02
-4.216536879539489746e-02
6.224398687481880188e-02
-6.015147268772125244e-02
5.393766984343528748e-02
-9.293503314256668091e-02
1.157657802104949951e-01
6.794577836990356445e-02
-5.609689652919769287e-02
9.307184815406799316e-02
-5.551612004637718201e-02
5.815992504358291626e-02
1.279752980917692184e-02
-5.693513154983520508e-02
-3.713918849825859070e-02
-4.223804920911788940e-02
-6.167324259877204895e-02
4.882990568876266479e-02
5.724152550101280212e-02
-2.922311052680015564e-02
-5.302644148468971252e-02
-2.399661578238010406e-03
1.023729238659143448e-02
5.617365241050720215e-02
5.886078253388404846e-02
-4.126117378473281860e-02
-4.375279322266578674e-02
-2.577908337116241455e-02
1.124628819525241852e-02
3.791299834847450256e-02
-1.593783870339393616e-02
3.172849118709564209e-02
8.806122466921806335e-03
-6.266953051090240479e-02
-3.794606402516365051e-02
3.578960895538330078e-02
1.623196341097354889e-02
-4.578126221895217896e-02
-6.639063823968172073e-03
-1.245110109448432922e-01
-5.116112530231475830e-03
8.859339170157909393e-03
5.044708773493766785e-02
-1.226804777979850769e-01
2.774575911462306976e-02
-3.914586082100868225e-02
-4.053204879164695740e-02
1.974166743457317352e-02
1.498241256922483444e-02
-1.523915585130453110e-02
5.846431478857994080e-02
-2.483522286638617516e-03
-2.396989427506923676e-02
-1.458941400051116943e-01
2.750675380229949951e-02
-2.212072722613811493e-02
-2.936534292530268431e-04
-8.770271390676498413e-02
-1.307094544172286987e-01
1.085593947209417820e-03
2.972842194139957428e-02
3.406532108783721924e-02
-9.164618700742721558e-02
2.976447110995650291e-03
3.951587900519371033e-02
-6.864339578896760941e-03
-7.847475260496139526e-02
2.636185102164745331e-02
5.245480686426162720e-02
4.414991661906242371e-02
-1.994533650577068329e-02
3.095109947025775909e-02
4.106828942894935608e-03
-2.680365694686770439e-03
1.073781587183475494e-02
-5.351806175895035267e-04
-7.230044901371002197e-02
3.283004835247993469e-02
-4.117855057120323181e-02
-2.161193825304508209e-02
-2.250499464571475983e-02
-1.146907638758420944e-02
-6.665689498186111450e-02
6.109338253736495972e-02
-2.406377904117107391e-02
-8.129267394542694092e-02
6.715138256549835205e-02
-6.232605502009391785e-02
-4.381796717643737793e-02
6.937488913536071777e-02
2.049561822786927223e-03
-3.219461441040039062e-02
-8.210026472806930542e-02
-1.425418537110090256e-02
-1.807035692036151886e-02
-3.255275636911392212e-02
-4.294522106647491455e-02
2.693838439881801605e-02
4.266011342406272888e-02
6.802042573690414429e-02
1.077395305037498474e-01
4.398106411099433899e-02
-4.961569979786872864e-02
4.708755016326904297e-02
-6.659962236881256104e-02
4.254321008920669556e-02
7.842966914176940918e-02
-4.442187957465648651e-03
1.955193839967250824e-02
2.273364737629890442e-02
2.083872444927692413e-02
-2.277927473187446594e-02
4.956573247909545898e-02
2.021355554461479187e-02
-1.345954928547143936e-02
-3.176320344209671021e-02
-5.803015455603599548e-02
-1.182445697486400604e-02
8.012320846319198608e-02
4.835859686136245728e-02
-7.498756796121597290e-02
2.800894202664494514e-03
8.175295591354370117e-02
5.028866231441497803e-02
-7.764096558094024658e-02
-5.304802954196929932e-02
1.005859524011611938e-01
2.667715772986412048e-02
-3.015136346220970154e-03
-1.044340133666992188e-01
1.379763931035995483e-01
-4.230323806405067444e-02
-3.838491439819335938e-02
-1.004975438117980957e-01
8.260684460401535034e-02
-1.377662569284439087e-01
-2.238463312387466431e-01
-1.787635684013366699e-01
1.208987087011337280e-02
-1.027606651186943054e-01
-3.653713688254356384e-02
-1.248324364423751831e-01
1.364464163780212402e-01
-3.894053027033805847e-02
4.730222001671791077e-02
4.993985593318939209e-02
7.293042540550231934e-02
6.682358682155609131e-02
-5.101252719759941101e-02
6.779925525188446045e-02
-4.491166770458221436e-02
-5.388607457280158997e-02
-4.093634337186813354e-02
1.920582205057144165e-01
7.056458707666024566e-05
1.188428979367017746e-02
-3.038251772522926331e-02
5.467953160405158997e-02
4.970455542206764221e-02
5.206352844834327698e-02
8.187943696975708008e-02
1.005729287862777710e-02
-2.167853713035583496e-02
-1.053682565689086914e-01
-5.096057802438735962e-02
-8.501737564802169800e-02
6.138429162092506886e-04
-1.267678476870059967e-02
6.866314262151718140e-02
2.758164703845977783e-02
-7.558745145797729492e-02
2.391743473708629608e-02
-1.363868452608585358e-02
2.327431552112102509e-02
-1.119660511612892151e-01
-7.501805201172828674e-03
5.130345746874809265e-02
-2.594164572656154633e-03
-2.219108631834387779e-03
2.648022025823593140e-02
1.942928694188594818e-02
8.068858832120895386e-02
-2.696327166631817818e-03
1.387316435575485229e-01
1.675264686346054077e-01
5.238394811749458313e-02
7.725321222096681595e-03
1.057018525898456573e-02
2.508385665714740753e-02
8.366516977548599243e-02
-1.045119613409042358e-01
3.179692476987838745e-02
6.591799668967723846e-03
1.085490137338638306e-01
-1.133850440382957458e-01
4.262389987707138062e-02
-1.716931350529193878e-02
-9.433054178953170776e-02
1.194137055426836014e-02
-8.577970415353775024e-02
5.852506682276725769e-02
-1.210873126983642578e-01
-2.926019579172134399e-02
-3.966796025633811951e-02
-6.849166750907897949e-02
-1.240029186010360718e-01
6.573531031608581543e-02
-5.802823603153228760e-02
6.562861800193786621e-02
-2.002494931221008301e-01
8.483968675136566162e-02
1.468158364295959473e-01
-4.823285341262817383e-02
-9.226553887128829956e-02
-8.596892654895782471e-02
3.534981235861778259e-02
1.843956671655178070e-02
2.113891579210758209e-02
2.965611405670642853e-02
3.558048978447914124e-02
7.787446677684783936e-02
6.265751289902254939e-05
-4.369787871837615967e-02
3.850763291120529175e-02
9.883639961481094360e-02
8.775030262768268585e-03
-9.846621192991733551e-03
1.562080532312393188e-01
-6.419324129819869995e-02
-3.603914380073547363e-02
1.193475946784019470e-01
4.983608424663543701e-02
-7.309941202402114868e-02
-8.196440339088439941e-02
-2.448700927197933197e-02
8.552327752113342285e-02
3.085215948522090912e-02
-2.056633681058883667e-02
-7.105480879545211792e-02
1.326354444026947021e-01
-4.234787821769714355e-02
3.954753279685974121e-02
3.819249570369720459e-02
1.135356053709983826e-01
4.257350414991378784e-02
-4.793955013155937195e-02
-2.233157120645046234e-02
1.588202826678752899e-02
-7.767023891210556030e-02
-2.771220207214355469e-01
1.988619565963745117e-02
3.694415464997291565e-02
-3.913821652531623840e-03
-1.206221431493759155e-01
-2.490567043423652649e-02
1.382862627506256104e-01
-3.073062514886260033e-03
-1.000095903873443604e-02
-9.139896929264068604e-02
2.016082704067230225e-01
-3.725121170282363892e-02
-5.882846564054489136e-02
-3.935378044843673706e-02
-2.131674066185951233e-02
-1.593364030122756958e-02
2.802489697933197021e-02
-1.133501753211021423e-01
5.286213010549545288e-02
5.595720559358596802e-02
-1.286897212266921997e-01
8.778904378414154053e-02
7.908601313829421997e-02
1.105386167764663696e-01
-8.801844716072082520e-02
-1.353057380765676498e-02
1.582782119512557983e-01
9.215591475367546082e-03
-1.375019103288650513e-01
-3.173805773258209229e-02
-1.658723130822181702e-02
7.323239743709564209e-02
4.074753075838088989e-02
-2.131323330104351044e-02
-4.742147773504257202e-02
-1.278205960988998413e-02
-5.446887575089931488e-03
1.918395236134529114e-02
-9.949408471584320068e-03
-1.251684594899415970e-02
-4.349737241864204407e-02
4.664692282676696777e-02
4.557400196790695190e-02
2.580847404897212982e-02
-8.277515880763530731e-03
1.061600223183631897e-01
1.336421165615320206e-02
1.848043501377105713e-02
8.586109429597854614e-02
2.183153294026851654e-02
-7.435490936040878296e-02
-3.270490840077400208e-02
9.297087788581848145e-03
1.368193030357360840e-01
2.302689850330352783e-02
6.893832981586456299e-02
7.374572753906250000e-02
5.622313544154167175e-02
1.680191792547702789e-02
1.796584227122366428e-03
-1.086965799331665039e-01
3.731324896216392517e-02
9.020102769136428833e-02
-9.069325029850006104e-02
7.141124922782182693e-03
-2.594386413693428040e-02
-1.410643756389617920e-01
-3.897725418210029602e-02
3.222335875034332275e-02
-6.773383170366287231e-02
2.622506115585565567e-03
-1.110364422202110291e-01
5.900286138057708740e-02
-8.192966133356094360e-02
-6.616277247667312622e-02
-1.134475842118263245e-01
1.183274462819099426e-01
1.439212821424007416e-03
1.287003047764301300e-02
1.007482409477233887e-01
7.614649832248687744e-02
6.449341028928756714e-02
1.067750304937362671e-01
1.023104786872863770e-01
-3.966939821839332581e-02
-1.266343444585800171e-01
1.465218216180801392e-01
-2.391785383224487305e-02
1.160878688097000122e-01
-7.099872082471847534e-02
6.995438039302825928e-02
1.016257703304290771e-02
-6.989087164402008057e-02
-1.570384576916694641e-02
-2.591219963505864143e-03
3.947872668504714966e-02
3.116370365023612976e-02
2.028443664312362671e-02
9.329283982515335083e-02
1.362215541303157806e-02
1.381001025438308716e-01
-1.166194975376129150e-01
1.193639934062957764e-01
1.276617031544446945e-02
-1.720075868070125580e-02
-7.293184101581573486e-02
-1.944989082403481007e-03
-6.460691802203655243e-03
-1.608020514249801636e-01
-5.948989465832710266e-02
-1.091972813010215759e-01
-1.365947537124156952e-03
4.248470067977905273e-03
1.039334237575531006e-01
5.531197041273117065e-02
2.215808816254138947e-02
1.893060095608234406e-02
-9.366365149617195129e-03
-1.576361246407032013e-02
-7.119902968406677246e-02
-3.513384237885475159e-02
9.158926457166671753e-02
8.288945257663726807e-02
5.408360436558723450e-02
6.115895882248878479e-02
1.911762543022632599e-02
-4.566210508346557617e-02
-6.370183080434799194e-02
-1.731288991868495941e-02
-1.685734465718269348e-02
-3.818036615848541260e-02
1.029492616653442383e-01
1.656971126794815063e-02
-2.865312248468399048e-02
-2.600229531526565552e-02
3.535277023911476135e-02
-1.893803663551807404e-02
8.440574258565902710e-02
-4.132856801152229309e-02
-3.155245259404182434e-02
-5.858950782567262650e-03
-6.074136123061180115e-02
6.957723200321197510e-02
9.892550855875015259e-02
7.011289894580841064e-02
-5.593965947628021240e-02
-6.274741888046264648e-02
-4.284491296857595444e-03
4.763752222061157227e-02
-1.862101107835769653e-01
3.368143364787101746e-02
-4.458892345428466797e-02
7.003239542245864868e-02
-2.538551688194274902e-01
-6.997810304164886475e-02
-2.134258672595024109e-02
1.215287949889898300e-02
3.718436881899833679e-02
5.662975087761878967e-02
9.018746763467788696e-02
5.939997732639312744e-02
-6.254135165363550186e-03
-1.673459261655807495e-02
4.283837974071502686e-03
2.943320386111736298e-02
7.302220165729522705e-02
3.056693263351917267e-02
5.916763097047805786e-03
3.146283701062202454e-02
8.625224581919610500e-04
7.666491717100143433e-02
7.233463227748870850e-03
6.980846822261810303e-02
-2.442817203700542450e-02
-1.736916415393352509e-02
7.140287011861801147e-02
1.680671051144599915e-02
1.132560241967439651e-02
-5.313747003674507141e-02
-1.231421902775764465e-01
4.810790717601776123e-02
1.997495070099830627e-02
-1.940798200666904449e-02
-9.826149791479110718e-03
6.924548652023077011e-04
1.453908830881118774e-01
3.452707827091217041e-02
-1.539926324039697647e-02
2.014640532433986664e-02
2.673421800136566162e-02
6.370755285024642944e-02
-4.090631753206253052e-02
-6.267560273408889771e-02
5.028774216771125793e-02
2.378235943615436554e-02
1.191819552332162857e-02
-3.523175418376922607e-02
1.040350347757339478e-01
-5.485503468662500381e-03
-4.589106515049934387e-02
1.103296782821416855e-02
-9.503041394054889679e-03
8.677355945110321045e-03
3.678189357742667198e-03
-5.093254894018173218e-02
-9.236638434231281281e-03
-2.379831857979297638e-02
2.243265509605407715e-02
4.465647041797637939e-02
-1.566825620830059052e-02
-5.419053882360458374e-02
4.375519976019859314e-02
-4.959646146744489670e-03
-8.198453485965728760e-02
-3.859235346317291260e-02
-6.471376400440931320e-03
-1.645769737660884857e-02
1.936334557831287384e-02
-7.678787689656019211e-03
-5.309677124023437500e-02
-1.196850277483463287e-02
6.220401823520660400e-02
5.950850993394851685e-02
4.216187819838523865e-02
-2.177889086306095123e-02
-2.412175387144088745e-02
-4.123868793249130249e-02
1.856020651757717133e-02
-6.677506864070892334e-02
2.910110354423522949e-02
-8.658058941364288330e-02
-3.960838541388511658e-02
3.636653535068035126e-03
-3.994665294885635376e-02
-6.920867413282394409e-02
-4.169418010860681534e-03
-5.994210951030254364e-03
-1.338502299040555954e-02
-8.287823759019374847e-03
-4.445789381861686707e-02
-2.206066623330116272e-02
-2.901280997321009636e-03
-8.483679592609405518e-02
2.323096990585327148e-02
-5.035961046814918518e-02
-6.281683593988418579e-02
-5.646746605634689331e-03
-3.787736594676971436e-02
8.903843164443969727e-02
-7.119342684745788574e-02
-2.241052873432636261e-02
-2.628415822982788086e-02
4.927245527505874634e-02
7.121106237173080444e-02
-5.796356871724128723e-02
-3.268419578671455383e-02
-4.957176861353218555e-04
-5.031292885541915894e-02
-1.653574965894222260e-02
-6.887677311897277832e-02
2.143834531307220459e-02
1.188906840980052948e-02
-4.102547094225883484e-02
-6.517676264047622681e-02
-8.970122039318084717e-02
-1.206620223820209503e-02
-1.108462512493133545e-01
-3.135631978511810303e-02
2.743362821638584137e-02
-1.167723461985588074e-01
4.069921001791954041e-02
1.331228855997323990e-02
-2.888986654579639435e-02
-1.153359636664390564e-01
5.646751821041107178e-02
5.314736440777778625e-02
1.309863924980163574e-01
5.202218890190124512e-02
-1.076599285006523132e-01
-8.062546700239181519e-02
5.526508390903472900e-02
-5.011120811104774475e-02
-2.112593734636902809e-03
-2.176701650023460388e-02
6.799005717039108276e-02
-1.495588012039661407e-02
-6.101250648498535156e-02
6.844161450862884521e-02
6.476511806249618530e-02
-1.284766709432005882e-03
-1.455079182051122189e-03
1.007502712309360504e-02
-2.125300467014312744e-02
2.688247337937355042e-02
-2.869873121380805969e-02
-4.427903518080711365e-02
4.915427416563034058e-02
5.558726936578750610e-02
3.310608863830566406e-02
-1.046998891979455948e-02
7.947090081870555878e-03
-6.389791518449783325e-02
-1.240800786763429642e-02
9.130705147981643677e-02
-7.913515903055667877e-03
-2.598968744277954102e-01
-8.873421698808670044e-02
-6.718736886978149414e-02
-4.844431206583976746e-02
-1.506461948156356812e-01
-1.040859147906303406e-01
-7.343306392431259155e-02
-5.707564577460289001e-02
-1.536594182252883911e-01
-5.117194354534149170e-02
6.776686757802963257e-02
-5.656283721327781677e-02
-7.353264093399047852e-02
8.469567447900772095e-02
3.175890818238258362e-02
9.179694950580596924e-02
-2.724355459213256836e-02
1.292273998260498047e-01
-1.125863101333379745e-02
2.676418796181678772e-02
-6.244103237986564636e-02
3.872662037611007690e-02
2.820955403149127960e-02
-8.070702664554119110e-03
-4.395581781864166260e-02
8.608645200729370117e-02
1.028088033199310303e-01
-5.534444004297256470e-02
-1.356061249971389771e-01
6.599819660186767578e-02
7.419551908969879150e-02
7.678018882870674133e-04
1.330611575394868851e-02
-5.551447719335556030e-02
-1.119505167007446289e-01
9.789346158504486084e-02
-9.032196551561355591e-02
-3.795342519879341125e-02
-9.336883574724197388e-02
8.472528308629989624e-02
-5.145807936787605286e-02
-5.700133368372917175e-02
1.093537434935569763e-01
-2.366567263379693031e-03
-3.593932464718818665e-02
8.279717713594436646e-02
9.750811010599136353e-02
4.881348088383674622e-02
-3.202505409717559814e-02
6.023129075765609741e-02
-2.387806586921215057e-02
-7.200093567371368408e-02
1.498312205076217651e-01
1.529140863567590714e-02
2.573436871170997620e-02
2.811094047501683235e-03
1.561984717845916748e-01
-2.437220513820648193e-02
-5.342556536197662354e-02
-9.916244447231292725e-02
2.129285410046577454e-02
9.079805761575698853e-02
1.573130488395690918e-01
5.215473473072052002e-03
1.510572135448455811e-01
4.904040251858532429e-04
6.188152730464935303e-02
1.017496287822723389e-01
1.424234211444854736e-01
-2.087721601128578186e-03
3.188931569457054138e-02
1.014906466007232666e-01
3.370767831802368164e-02
2.292310446500778198e-02
-1.212073862552642822e-01
-5.176279693841934204e-02
1.727428734302520752e-01
7.577835768461227417e-02
5.232920125126838684e-02
5.175201222300529480e-02
-6.406267732381820679e-02
-1.455939710140228271e-01
-3.120519034564495087e-02
-2.539765276014804840e-02
-1.426061689853668213e-01
-5.371124297380447388e-02
-5.235301330685615540e-02
-4.835895076394081116e-02
-2.860487252473831177e-02
6.359406560659408569e-02
-3.585585579276084900e-02
-2.467619255185127258e-02
-1.573516726493835449e-01
6.588621437549591064e-02
-4.909641575068235397e-03
5.135664343833923340e-02
-2.579547651112079620e-02
1.843209750950336456e-02
-1.005788892507553101e-01
-1.122848989325575531e-04
9.132859110832214355e-02
-1.077685728669166565e-01
-3.683409467339515686e-02
-8.060446940362453461e-03
7.274217158555984497e-02
-1.451846659183502197e-01
5.023926869034767151e-02
-2.384988404810428619e-02
8.644232898950576782e-02
1.135800965130329132e-02
8.108882606029510498e-02
1.175069361925125122e-01
1.466444320976734161e-02
-2.968112751841545105e-02
-1.579381152987480164e-02
-5.274306386127136648e-05
-3.550545126199722290e-02
6.176749616861343384e-02
1.477644313126802444e-02
6.136251613497734070e-02
-8.441857993602752686e-02
3.659736365079879761e-02
1.668372936546802521e-02
-2.735775150358676910e-02
-1.508118808269500732e-01
6.006338074803352356e-02
9.211644530296325684e-02
2.962822094559669495e-02
2.888647839426994324e-02
-1.234830915927886963e-02
3.208927810192108154e-02
1.438166596926748753e-03
3.152870014309883118e-02
7.086338847875595093e-02
5.234777182340621948e-02
-4.893530905246734619e-02
-2.626560814678668976e-02
-2.014185860753059387e-02
-1.189506240189075470e-02
-8.088149130344390869e-03
-2.777347527444362640e-02
8.598193526268005371e-04
3.314861282706260681e-02
1.062935441732406616e-01
9.243061393499374390e-02
2.002502232789993286e-02
8.256766945123672485e-02
1.947170943021774292e-01
-1.216780673712491989e-02
1.894782483577728271e-02
-6.102209910750389099e-03
5.974636878818273544e-03
-1.334401518106460571e-01
-3.678403049707412720e-02
8.616659790277481079e-03
1.634993031620979309e-02
-2.483554417267441750e-04
