-3.314051777124404907e-02
9.830237366259098053e-03
-3.429276496171951294e-02
-1.874570362269878387e-02
1.183409467339515686e-01
1.476725935935974121e-01
2.961259149014949799e-02
-6.436857581138610840e-02
2.786907134577631950e-03
5.149396508932113647e-02
-3.404415398836135864e-02
7.563402503728866577e-02
-3.025535680353641510e-02
1.476629916578531265e-02
-3.611999750137329102e-02
5.556367803364992142e-03
4.487015772610902786e-03
-5.411906912922859192e-02
2.285052277147769928e-02
-2.571008913218975067e-02
-3.130664303898811340e-02
-6.466455757617950439e-02
-5.042567476630210876e-02
-7.456565648317337036e-02
-5.223268270492553711e-02
2.069213427603244781e-02
1.979991793632507324e-02
-1.687003485858440399e-02
1.322034047916531563e-03
-9.922510012984275818e-03
-6.865567713975906372e-02
-8.655996620655059814e-02
-2.905450761318206787e-02
-4.278626665472984314e-02
-1.036968268454074860e-02
2.380855195224285126e-02
1.356681138277053833e-01
-6.992719322443008423e-02
1.078092232346534729e-01
-1.810466870665550232e-02
-5.714672431349754333e-02
7.615205645561218262e-02
3.025856427848339081e-02
-5.567727610468864441e-02
-1.585155166685581207e-02
1.384980678558349609e-01
9.128503501415252686e-02
5.674420669674873352e-02
-2.362331189215183258e-02
2.847693301737308502e-02
-1.493060123175382614e-02
-9.152269922196865082e-03
1.364485621452331543e-01
7.741916179656982422e-02
-6.545762717723846436e-02
3.099366556853055954e-03
-2.737346477806568146e-02
2.007292024791240692e-02
-4.495634697377681732e-03
9.653738141059875488e-02
1.421391069889068604e-01
8.807795494794845581e-02
1.250655762851238251e-02
4.529458656907081604e-02
3.155613690614700317e-02
2.143235877156257629e-03
1.068045124411582947e-01
1.860036398284137249e-03
7.180764526128768921e-02
-4.097891226410865784e-02
4.306161776185035706e-02
-3.487067669630050659e-02
-7.008659094572067261e-02
-1.184840686619281769e-02
9.222951531410217285e-02
-2.740713767707347870e-02
-2.330232039093971252e-02
5.800089240074157715e-02
-1.568559790030121803e-03
1.211206316947937012e-01
1.916972845792770386e-01
1.422535069286823273e-02
6.908174604177474976e-02
5.740040168166160583e-02
1.533167716115713120e-02
1.156074553728103638e-01
-2.814068831503391266e-02
-5.023550987243652344e-02
-4.555194452404975891e-02
-1.106193941086530685e-02
-1.243734508752822876e-01
4.278695583343505859e-02
-5.002678558230400085e-02
-1.934236288070678711e-02
-1.102813556790351868e-01
8.919402956962585449e-03
-5.357396788895130157e-03
-8.796875923871994019e-02
-9.473233669996261597e-02
8.446273393929004669e-03
7.849914580583572388e-02
-1.052538454532623291e-01
5.668509006500244141e-02
6.008910387754440308e-02
-9.450609982013702393e-02
6.550157070159912109e-02
-2.343904785811901093e-02
1.123621501028537750e-02
6.654737051576375961e-03
3.442516550421714783e-02
9.446827322244644165e-02
-3.771194070577621460e-02
-1.445500645786523819e-02
-6.423100829124450684e-02
3.230670839548110962e-02
3.577922657132148743e-02
-4.181031137704849243e-02
-8.007703348994255066e-03
1.559760719537734985e-01
2.022314518690109253e-01
