-1.702034324407577515e-01
-4.494912177324295044e-02
-4.264834895730018616e-02
1.105949878692626953e-01
-2.168376184999942780e-02
1.215436402708292007e-02
7.404645532369613647e-02
1.031730622053146362e-01
1.157283857464790344e-01
7.272028177976608276e-02
-1.782983727753162384e-02
-1.656331494450569153e-02
7.251322269439697266e-03
-3.794677928090095520e-02
-3.843315690755844116e-02
1.297343820333480835e-01
2.224896661937236786e-02
1.010750047862529755e-02
-4.041952639818191528e-02
2.220548689365386963e-03
3.489968553185462952e-02
2.750438451766967773e-02
-7.176972925662994385e-02
4.482720792293548584e-02
1.831459701061248779e-01
2.440204285085201263e-02
1.445463448762893677e-01
1.046529971063137054e-02
-7.371856272220611572e-02
2.681738138198852539e-01
-1.151261385530233383e-02
-7.192918658256530762e-02
-2.840745076537132263e-02
-6.145257502794265747e-02
2.652552127838134766e-01
-4.468312114477157593e-02
-9.083636850118637085e-02
9.465738385915756226e-02
-5.538427829742431641e-02
4.961526021361351013e-02
5.279202386736869812e-02
-1.004722341895103455e-01
1.619976386427879333e-02
1.240278258919715881e-01
-6.261470913887023926e-02
-8.692880719900131226e-02
2.623259834945201874e-02
-2.469316823408007622e-03
3.967148810625076294e-02
-6.260281056165695190e-02
1.112795099616050720e-01
-7.628555409610271454e-03
3.101749718189239502e-01
9.220171719789505005e-02
-2.295788377523422241e-02
-6.251102313399314880e-03
-7.527142018079757690e-02
1.790798902511596680e-01
1.058608815073966980e-01
-3.851447999477386475e-02
-5.020449310541152954e-02
4.978123120963573456e-03
-7.775087840855121613e-03
-3.263162076473236084e-02
-4.851680621504783630e-02
-1.038466989994049072e-01
-5.269913002848625183e-02
2.083858009427785873e-03
-2.693409286439418793e-02
1.358582917600870132e-02
1.969076246023178101e-01
7.551829516887664795e-02
5.460992455482482910e-02
1.482263058423995972e-01
1.165209859609603882e-01
3.534917160868644714e-02
1.926865577697753906e-01
-4.850966855883598328e-02
-5.393857508897781372e-02
-1.798836886882781982e-02
8.069439977407455444e-02
9.562019258737564087e-02
2.490313164889812469e-02
1.304855644702911377e-01
