7.121787872165441513e-03
-2.439048141241073608e-01
3.972262889146804810e-02
6.025311723351478577e-02
-1.131292730569839478e-01
-5.037119984626770020e-02
-7.923154532909393311e-02
-2.452786713838577271e-01
-5.384819582104682922e-02
-1.560998857021331787e-01
-3.634128719568252563e-02
-3.415506333112716675e-02
3.015684150159358978e-02
1.347217112779617310e-01
1.592842489480972290e-02
2.146318182349205017e-02
2.018429338932037354e-01
1.654004454612731934e-01
1.201682910323143005e-02
1.458338052034378052e-01
7.102373987436294556e-02
-1.804015226662158966e-02
-7.185844331979751587e-02
-9.064752608537673950e-02
-2.771343849599361420e-02
9.767457097768783569e-02
-6.287029385566711426e-02
-9.639070183038711548e-02
2.446857541799545288e-01
5.761930719017982483e-03
9.677348285913467407e-02
1.483371853828430176e-01
-1.345005780458450317e-01
-2.619021572172641754e-02
-4.462347179651260376e-02
-7.236248999834060669e-02
-9.501935541629791260e-02
1.130890380591154099e-02
-1.217653788626194000e-02
2.365361154079437256e-02
-6.279003620147705078e-02
2.236355245113372803e-01
3.924528881907463074e-02
2.231023646891117096e-02
9.588700532913208008e-02
-7.387159019708633423e-02
1.450713574886322021e-01
6.342367082834243774e-02
1.769349537789821625e-02
1.743859611451625824e-02
5.203920230269432068e-02
5.858605727553367615e-02
9.331111796200275421e-03
-1.240379288792610168e-01
6.034461408853530884e-02
4.626868292689323425e-02
-5.078681185841560364e-02
7.863725721836090088e-02
1.175612304359674454e-02
-3.901006653904914856e-02
6.941706687211990356e-02
-9.097089618444442749e-02
1.680904626846313477e-01
-2.806258574128150940e-02
1.684332638978958130e-01
-5.548397824168205261e-02
-1.239238902926445007e-01
4.785031825304031372e-02
-8.872582577168941498e-03
-9.408117085695266724e-02
1.331942081451416016e-01
2.925811707973480225e-02
1.482070237398147583e-01
1.233032941818237305e-01
-4.249111562967300415e-02
1.988325268030166626e-02
-9.135298430919647217e-02
2.686565741896629333e-03
3.310538455843925476e-02
-1.049743369221687317e-01
-1.543935984373092651e-01
-1.240653246641159058e-01
-6.730362772941589355e-02
1.365199536085128784e-01
2.296116650104522705e-01
-5.447713285684585571e-02
-2.150942757725715637e-02
1.426602452993392944e-01
-1.641964912414550781e-02
6.653454154729843140e-02
-1.718145906925201416e-01
4.643825814127922058e-02
7.836668752133846283e-03
-9.623612463474273682e-02
-1.720702461898326874e-02
-6.701532751321792603e-02
3.159006312489509583e-02
-7.971070706844329834e-02
1.828917115926742554e-01
4.153087362647056580e-02
-2.955063804984092712e-02
1.529235988855361938e-01
4.123456776142120361e-02
1.477607991546392441e-02
1.268651336431503296e-01
7.525656372308731079e-02
-9.454556740820407867e-03
1.848417073488235474e-01
-4.998316988348960876e-02
-3.746963292360305786e-02
-9.247054904699325562e-02
7.335878908634185791e-03
8.813937008380889893e-02
-1.288900617510080338e-02
-7.546288520097732544e-02
-1.436644494533538818e-01
-4.142522811889648438e-02
4.312881827354431152e-02
-4.404227808117866516e-02
-8.073529228568077087e-03
7.574102282524108887e-02
6.426123529672622681e-02
1.404845863580703735e-01
-3.128205426037311554e-03
9.741050004959106445e-02
-3.673245757818222046e-02
-1.634520478546619415e-02
-7.858169823884963989e-02
-3.776149824261665344e-02
-2.785118483006954193e-02
1.493868827819824219e-01
8.251413702964782715e-03
-2.876807563006877899e-02
-1.456630527973175049e-01
1.035201326012611389e-01
-7.157586514949798584e-02
5.518361181020736694e-02
-8.503455668687820435e-02
1.270549148321151733e-01
-7.387362420558929443e-02
2.281683031469583511e-03
-1.458565611392259598e-02
-9.141024202108383179e-02
-7.522343099117279053e-02
5.273346230387687683e-02
8.848755061626434326e-02
1.887007243931293488e-02
7.857692986726760864e-02
-5.858224257826805115e-02
-8.605618029832839966e-02
8.045195043087005615e-02
1.264842003583908081e-01
-7.379274815320968628e-02
-4.606105014681816101e-02
-7.535383105278015137e-02
-4.723722860217094421e-02
6.383198499679565430e-02
-1.758227050304412842e-01
-1.851732470095157623e-02
2.008741535246372223e-02
6.603094935417175293e-02
-6.946954876184463501e-02
2.182047319365665317e-04
6.451023370027542114e-02
-6.030414719134569168e-03
-1.766766160726547241e-01
-4.110845178365707397e-02
-4.449624568223953247e-02
-5.200617015361785889e-02
-1.858348250389099121e-01
-8.105909824371337891e-02
-1.471031550318002701e-02
-1.932072825729846954e-02
-1.178267151117324829e-01
1.053571049124002457e-02
6.857681274414062500e-02
4.868744313716888428e-02
6.202898919582366943e-02
5.914713442325592041e-02
-1.394555866718292236e-01
-2.754659019410610199e-02
-3.476890921592712402e-02
1.203147098422050476e-01
8.315885812044143677e-02
1.771279051899909973e-02
-9.744576364755630493e-02
-2.149716578423976898e-02
-1.290581077337265015e-01
6.404057145118713379e-02
-9.038712829351425171e-02
2.829042449593544006e-02
8.731138706207275391e-02
-1.162400748580694199e-02
-3.952053375542163849e-03
-8.052263408899307251e-02
-1.203047856688499451e-01
7.680270820856094360e-02
6.436844170093536377e-02
-6.724286079406738281e-02
-3.164726868271827698e-02
-3.186246752738952637e-02
6.583389639854431152e-02
3.682187944650650024e-02
-6.748349964618682861e-02
-7.845647633075714111e-02
2.494244091212749481e-02
-6.184467929415404797e-04
8.883904665708541870e-02
-8.969636261463165283e-02
1.228988990187644958e-01
2.411179803311824799e-02
7.906603813171386719e-02
4.524646792560815811e-03
2.050205320119857788e-02
1.344020217657089233e-01
-3.117126598954200745e-02
-6.181319430470466614e-02
-9.103471785783767700e-02
8.522513322532176971e-03
7.316376268863677979e-02
6.231814250349998474e-02
6.427055597305297852e-02
4.045479372143745422e-02
-2.545316936448216438e-03
9.310981840826570988e-04
6.672959774732589722e-03
-1.551461070775985718e-01
5.732341110706329346e-02
-6.201472505927085876e-02
1.100034043192863464e-01
1.716996729373931885e-02
-2.672820538282394409e-02
-1.125520393252372742e-01
2.625598013401031494e-02
7.202197611331939697e-02
3.761085495352745056e-02
6.643717736005783081e-02
9.257299453020095825e-02
8.491410315036773682e-02
4.660111665725708008e-02
1.481661498546600342e-01
7.633559405803680420e-02
-1.336069405078887939e-01
5.610252171754837036e-02
2.103453688323497772e-02
-2.251368574798107147e-02
-1.767047448083758354e-03
3.173537785187363625e-03
-1.390473097562789917e-01
2.199214696884155273e-01
-8.829610794782638550e-02
-2.857223153114318848e-01
-1.806656271219253540e-02
-4.160145670175552368e-02
4.063543677330017090e-02
-7.653956860303878784e-02
-5.807592719793319702e-02
-9.651140868663787842e-02
9.833829104900360107e-02
5.860600993037223816e-02
4.534978419542312622e-02
-1.134161725640296936e-01
-2.472341358661651611e-01
1.069991439580917358e-01
2.433323534205555916e-03
4.561692848801612854e-02
-6.765507161617279053e-03
5.274609848856925964e-02
-3.960667923092842102e-02
9.049797803163528442e-02
-4.812449216842651367e-02
-1.884762644767761230e-01
-5.375040229409933090e-03
3.886156529188156128e-02
-4.192837513983249664e-03
-1.900102570652961731e-02
-1.839235611259937286e-02
-1.273255944252014160e-01
1.788164228200912476e-01
-4.150540754199028015e-02
-1.693802699446678162e-02
2.176810353994369507e-01
8.100382983684539795e-02
-8.579994738101959229e-02
5.463567003607749939e-02
-1.256069689989089966e-01
-2.917136624455451965e-02
-1.468750275671482086e-02
-1.227193772792816162e-01
1.139617804437875748e-02
1.508803572505712509e-02
-5.143758282065391541e-02
-5.478798411786556244e-03
-1.432716846466064453e-02
3.408205881714820862e-02
1.223630178719758987e-02
2.988745085895061493e-02
3.193298354744911194e-02
1.540352702140808105e-01
9.136754274368286133e-02
-3.694332018494606018e-02
1.583802253007888794e-01
-1.748563200235366821e-01
1.022921875119209290e-01
-1.407929211854934692e-01
-1.613923609256744385e-01
5.965042486786842346e-02
-8.820960670709609985e-02
8.535424619913101196e-02
-3.118163440376520157e-03
-2.861683443188667297e-02
5.397145077586174011e-02
1.149412170052528381e-01
7.325133681297302246e-02
1.442987769842147827e-01
-8.155762404203414917e-02
-9.379559755325317383e-02
-5.617599934339523315e-03
-8.172612637281417847e-02
7.180868089199066162e-02
1.799801737070083618e-01
4.206845909357070923e-02
2.409475296735763550e-01
-1.446436811238527298e-02
2.496418915688991547e-02
-7.616581767797470093e-02
-3.887562314048409462e-03
-1.740725487470626831e-01
6.289338320493698120e-02
1.170749068260192871e-01
6.546975672245025635e-02
3.464202582836151123e-02
-9.265512228012084961e-02
2.240123301744461060e-01
8.436217904090881348e-02
-1.374140288680791855e-02
1.111611723899841309e-02
-7.002591341733932495e-02
2.326180972158908844e-02
-3.724747523665428162e-02
1.464415937662124634e-01
-4.386705160140991211e-02
-3.047764534130692482e-03
-6.965461373329162598e-02
2.378516457974910736e-02
-1.867728680372238159e-01
6.504807621240615845e-02
4.775212705135345459e-02
7.655546534806489944e-03
-4.590691998600959778e-02
-4.278170876204967499e-03
2.115339413285255432e-02
-3.066148236393928528e-02
1.000569909811019897e-01
-1.404527202248573303e-02
1.001867800951004028e-01
8.977355062961578369e-02
-3.370845690369606018e-02
7.760165631771087646e-02
-1.060973331332206726e-01
-7.684039324522018433e-02
5.071939155459403992e-02
-8.941880613565444946e-02
-9.276679903268814087e-02
-1.218729689717292786e-01
-4.441399499773979187e-02
2.460971940308809280e-03
-1.171796992421150208e-01
1.090119928121566772e-01
8.594638109207153320e-02
4.228863492608070374e-02
-1.354469954967498779e-01
1.014702674001455307e-02
-8.113056421279907227e-02
9.618900716304779053e-02
2.430178411304950714e-02
-9.220481663942337036e-02
-9.435714781284332275e-02
6.710735708475112915e-02
-1.672954112291336060e-02
-8.366185426712036133e-02
-3.154809400439262390e-02
-1.037190705537796021e-01
-6.255627423524856567e-02
3.701630234718322754e-02
9.034435451030731201e-02
4.539941623806953430e-02
-5.370724201202392578e-02
-4.906415566802024841e-02
1.061529591679573059e-01
9.597241133451461792e-02
-3.742748498916625977e-02
-8.792682550847530365e-03
5.991448089480400085e-02
-4.047855734825134277e-02
7.985212653875350952e-02
3.597475821152329445e-03
5.706166476011276245e-02
1.138808429241180420e-01
-5.931753665208816528e-02
5.509437993168830872e-02
-9.838202595710754395e-02
-7.559362798929214478e-02
1.233194842934608459e-01
8.422574400901794434e-02
-4.156334325671195984e-02
-6.673725694417953491e-02
-1.362301707267761230e-01
3.006384894251823425e-02
9.635673463344573975e-02
-8.047959208488464355e-02
-1.250437796115875244e-01
9.334735572338104248e-02
-5.645975936204195023e-03
-3.238752717152237892e-03
-9.973061084747314453e-02
8.229216933250427246e-02
-4.771018400788307190e-02
5.160372704267501831e-02
-2.190191112458705902e-02
-4.626940935850143433e-02
1.398612838238477707e-02
8.669451810419559479e-03
-2.931655384600162506e-02
5.026073753833770752e-02
-7.511267904192209244e-03
2.251750603318214417e-02
-2.649554796516895294e-02
1.519438922405242920e-01
-6.270752847194671631e-02
1.053875908255577087e-01
9.291057474911212921e-03
-1.203759759664535522e-01
-5.784943699836730957e-02
1.113541051745414734e-01
4.645625129342079163e-02
-6.852901075035333633e-03
-4.713375121355056763e-02
-1.749873347580432892e-02
1.379500180482864380e-01
5.723894387483596802e-02
7.124630361795425415e-02
1.103663519024848938e-01
-2.753461897373199463e-02
9.319844096899032593e-02
9.867187589406967163e-02
-4.351336881518363953e-02
-9.610491991043090820e-02
-3.541273181326687336e-04
1.045927479863166809e-01
3.058868274092674255e-02
7.123143225908279419e-02
-8.377782069146633148e-03
2.153211534023284912e-01
4.184468090534210205e-02
9.316785633563995361e-02
3.247252106666564941e-02
2.015126124024391174e-02
9.650959819555282593e-02
-6.348003447055816650e-02
2.085275799036026001e-01
-5.319971591234207153e-02
-1.952237263321876526e-02
1.102840062230825424e-02
5.202214419841766357e-02
-8.704347908496856689e-02
1.037013158202171326e-02
-7.961304485797882080e-02
1.047667264938354492e-01
4.647350311279296875e-02
-5.785591527819633484e-02
-5.218500271439552307e-02
7.867959141731262207e-02
-5.508276447653770447e-02
-9.410994499921798706e-02
2.852205000817775726e-02
5.689928657375276089e-04
-2.967458777129650116e-02
-1.232008934020996094e-01
4.502220824360847473e-02
8.437430113554000854e-02
4.819423332810401917e-02
6.285277754068374634e-02
9.879507869482040405e-02
9.627807885408401489e-02
-8.588305860757827759e-02
-7.309142500162124634e-02
1.287183817476034164e-02
1.511858776211738586e-02
2.254945933818817139e-01
3.027467988431453705e-03
1.400545388460159302e-01
1.312089115381240845e-01
4.720450565218925476e-02
6.708116084337234497e-02
1.166798472404479980e-01
8.938442915678024292e-02
7.195692975074052811e-03
1.724639385938644409e-01
-3.781168162822723389e-02
7.185006886720657349e-02
1.168757230043411255e-01
-2.703503705561161041e-02
1.468945890665054321e-01
-1.502274423837661743e-01
-3.277557715773582458e-02
1.962236128747463226e-02
8.167830854654312134e-02
-1.340308785438537598e-01
1.213648095726966858e-01
1.176268011331558228e-01
4.806649312376976013e-02
-5.012985784560441971e-03
-1.914966292679309845e-02
-1.046837791800498962e-01
-7.011554390192031860e-02
6.037648394703865051e-02
1.130343601107597351e-01
9.727872163057327271e-02
1.101200729608535767e-01
-1.390072866342961788e-03
-6.331501901149749756e-02
-8.748700469732284546e-02
5.294460337609052658e-03
-2.404492907226085663e-02
2.724120859056711197e-03
-6.471902877092361450e-02
-9.529695659875869751e-02
1.505670975893735886e-02
2.236208617687225342e-01
-1.631182432174682617e-01
6.167518347501754761e-02
-6.006383523344993591e-02
4.544783011078834534e-02
-4.927303642034530640e-02
6.282284855842590332e-02
-2.737273648381233215e-02
-1.487084031105041504e-01
-1.096098050475120544e-01
4.670348949730396271e-03
8.529144525527954102e-02
8.802378922700881958e-02
1.260562799870967865e-02
-1.114445403218269348e-01
-3.920383378863334656e-02
-2.195787616074085236e-03
-9.428324550390243530e-02
-1.375629901885986328e-01
5.115952715277671814e-02
-2.469307743012905121e-02
-3.633063286542892456e-02
5.738582089543342590e-02
-3.613635525107383728e-02
1.841173470020294189e-01
-2.127474993467330933e-01
1.099485065788030624e-02
-6.777762621641159058e-02
3.938833251595497131e-03
3.352759405970573425e-02
1.338207125663757324e-01
4.665684700012207031e-02
3.426337987184524536e-02
-3.970543295145034790e-02
-7.455801824107766151e-04
-1.328295171260833740e-01
-7.400811463594436646e-02
-1.044346988201141357e-01
-1.925897747278213501e-01
1.661712862551212311e-02
5.321525782346725464e-02
6.991138309240341187e-02
-4.844098165631294250e-02
4.482427611947059631e-03
-1.699940115213394165e-02
1.317016184329986572e-01
-7.906945049762725830e-02
-8.399383164942264557e-03
8.129549026489257812e-02
-1.374568790197372437e-01
-4.971548542380332947e-02
7.816622406244277954e-02
-1.622581034898757935e-01
-3.195128217339515686e-02
2.136662453413009644e-01
4.846033826470375061e-02
8.077558130025863647e-02
-9.689074009656906128e-02
-3.561431169509887695e-02
1.657295823097229004e-01
8.629962056875228882e-02
4.323323071002960205e-02
1.028398498892784119e-01
-4.877837374806404114e-02
2.624819986522197723e-02
9.192149341106414795e-02
-1.473125368356704712e-01
3.082689829170703888e-02
-1.003655418753623962e-01
1.344640366733074188e-02
1.729929745197296143e-01
-4.461748525500297546e-02
1.782327741384506226e-01
-7.496815174818038940e-02
-1.178828440606594086e-02
6.690301746129989624e-02
-3.868127614259719849e-02
-1.056765113025903702e-02
9.651897475123405457e-03
-7.336276769638061523e-02
5.910269170999526978e-02
8.126289397478103638e-02
-5.927535146474838257e-02
-1.990659162402153015e-02
-6.533844023942947388e-02
1.194809526205062866e-01
-4.589177295565605164e-02
-1.092613190412521362e-01
-1.636251062154769897e-01
1.221474558115005493e-01
-1.002760827541351318e-01
1.045801937580108643e-01
8.859258890151977539e-02
3.449313342571258545e-02
1.092197597026824951e-01
1.513367332518100739e-02
-9.910028427839279175e-02
8.258870989084243774e-02
1.471133977174758911e-01
-1.455682702362537384e-02
2.382319886237382889e-03
-1.646036282181739807e-02
-9.417569637298583984e-02
7.527680695056915283e-02
-3.411280363798141479e-02
9.050109982490539551e-02
4.175676032900810242e-02
8.690741658210754395e-02
-3.043815493583679199e-02
4.656133055686950684e-02
9.859195910394191742e-03
6.657174229621887207e-02
-4.599861055612564087e-02
3.032347559928894043e-02
9.303759038448333740e-02
1.044012457132339478e-01
-1.367913484573364258e-01
-6.026874855160713196e-02
-8.637236058712005615e-02
8.973521739244461060e-02
-1.224672198295593262e-01
9.684493392705917358e-02
1.953433267772197723e-02
1.075964272022247314e-01
1.160286143422126770e-01
7.138121873140335083e-02
2.541371434926986694e-02
8.170354180037975311e-03
-1.914526075124740601e-01
6.345003843307495117e-02
-8.521513640880584717e-02
4.878817498683929443e-02
1.353456359356641769e-02
6.339777261018753052e-02
-6.493585556745529175e-02
-6.493306905031204224e-02
3.370719775557518005e-02
-3.400801122188568115e-02
-8.101633191108703613e-02
-7.526557147502899170e-02
-8.105558156967163086e-02
-6.116628646850585938e-02
-2.877379069104790688e-03
-1.918849162757396698e-02
-4.867458716034889221e-02
-1.039822772145271301e-01
2.131744846701622009e-02
1.034872680902481079e-01
-8.333396166563034058e-02
5.444615613669157028e-03
1.281016170978546143e-01
2.818466164171695709e-02
1.660306751728057861e-01
-5.445469543337821960e-02
7.562890648841857910e-02
1.044414937496185303e-01
7.872531563043594360e-02
9.750437736511230469e-02
-1.682440489530563354e-01
2.296241000294685364e-02
-9.983777254819869995e-02
-7.028593868017196655e-02
1.843592226505279541e-01
3.727365285158157349e-02
-9.450756944715976715e-03
8.423211425542831421e-02
-3.320302814245223999e-02
-5.424815043807029724e-02
4.793493822216987610e-02
6.887095421552658081e-02
3.365217149257659912e-02
1.351585835218429565e-01
9.417207539081573486e-02
-1.237021088600158691e-01
1.511705201119184494e-02
-5.319147929549217224e-02
-1.000368148088455200e-01
-5.111085996031761169e-02
1.023612823337316513e-02
4.724603518843650818e-02
-3.208753839135169983e-02
-1.200414523482322693e-01
-3.704119101166725159e-02
8.237434923648834229e-02
-1.006685756146907806e-02
6.095609441399574280e-02
-3.084796853363513947e-02
-1.445105671882629395e-02
-5.883609130978584290e-02
1.063642278313636780e-01
-1.695689409971237183e-01
1.373416185379028320e-01
-1.372676789760589600e-01
-5.217448249459266663e-02
1.760104447603225708e-01
2.744880318641662598e-02
-4.830845445394515991e-02
1.006803661584854126e-02
-2.319688536226749420e-02
-5.171532556414604187e-02
2.018714398145675659e-01
-1.608537510037422180e-03
2.427583485841751099e-01
-2.698197495192289352e-03
1.656013727188110352e-01
3.879687190055847168e-02
6.700489670038223267e-03
2.324072718620300293e-01
1.713000088930130005e-01
9.478321671485900879e-02
-4.980430752038955688e-02
-1.532264500856399536e-01
1.412608623504638672e-01
1.205282211303710938e-01
-1.215280145406723022e-01
2.316120117902755737e-01
1.585853844881057739e-01
-7.118152827024459839e-02
-2.397926524281501770e-02
-5.927332118153572083e-02
-1.315072327852249146e-01
-1.917339265346527100e-01
1.140553131699562073e-01
-8.926456421613693237e-02
7.018098980188369751e-02
-7.200332731008529663e-02
6.346384435892105103e-02
2.807300984859466553e-01
1.576819829642772675e-02
1.520331948995590210e-01
-2.606693841516971588e-02
1.503598988056182861e-01
6.359264999628067017e-02
1.146240625530481339e-02
2.589846961200237274e-02
9.972629696130752563e-02
1.243492588400840759e-01
1.765908300876617432e-01
-1.033785939216613770e-01
1.201489865779876709e-01
4.990479722619056702e-02
1.204333528876304626e-01
6.605955958366394043e-02
-8.970585465431213379e-02
-8.129083365201950073e-02
-2.166441679000854492e-01
-5.967912450432777405e-02
-2.498150803148746490e-02
8.937215805053710938e-02
-2.549759671092033386e-02
-3.344465047121047974e-02
-9.907561354339122772e-03
-5.932867527008056641e-02
1.159218698740005493e-01
-1.497561633586883545e-01
1.988346502184867859e-02
-1.228858083486557007e-01
-1.219661608338356018e-01
6.644754111766815186e-02
-9.163851290941238403e-02
-7.435585558414459229e-02
-5.054461210966110229e-02
3.410317003726959229e-02
1.038456708192825317e-01
8.378042280673980713e-02
8.594520390033721924e-02
1.036750897765159607e-01
-1.387199312448501587e-01
-4.617857560515403748e-02
2.889611758291721344e-02
-3.739798441529273987e-03
1.018269807100296021e-01
3.648229688405990601e-02
1.708882600069046021e-01
-1.312993615865707397e-01
-3.048272244632244110e-02
-1.126394271850585938e-01
1.561541296541690826e-02
-1.221454981714487076e-02
2.167373895645141602e-02
6.797954440116882324e-02
-2.074363678693771362e-01
4.924628301523625851e-04
6.849918514490127563e-02
7.869087159633636475e-02
-1.146696805953979492e-01
-1.721316389739513397e-02
2.787959948182106018e-02
-4.846256598830223083e-02
-1.384354829788208008e-01
7.839160412549972534e-02
7.155410945415496826e-02
-7.454442791640758514e-03
1.386714866384863853e-03
-3.407258540391921997e-02
-2.023694068193435669e-01
2.041051536798477173e-02
-7.317403703927993774e-02
1.900994032621383667e-02
-2.722871676087379456e-02
-1.760645210742950439e-01
-8.621373027563095093e-02
8.978614956140518188e-02
-1.178945899009704590e-01
1.016665548086166382e-01
1.835909783840179443e-01
-3.237167000770568848e-02
5.246987938880920410e-02
-8.399634063243865967e-02
-6.741615384817123413e-02
-4.806872084736824036e-02
1.756618320941925049e-01
-9.874473325908184052e-03
9.571742266416549683e-02
4.422963410615921021e-02
1.062363758683204651e-01
-1.030616313219070435e-01
8.968178182840347290e-02
-4.938361234962940216e-03
9.498545527458190918e-02
2.484729513525962830e-02
1.040601804852485657e-01
-5.517022311687469482e-02
3.082014061510562897e-02
6.125419586896896362e-02
3.417101502418518066e-02
4.600417613983154297e-02
-8.767083287239074707e-02
7.861298508942127228e-03
-1.845953613519668579e-01
-7.854192703962326050e-02
-5.742326751351356506e-02
-1.754150167107582092e-02
-5.950058624148368835e-02
6.986543536186218262e-02
-3.638042137026786804e-02
-3.270831704139709473e-02
2.267450541257858276e-01
4.507995676249265671e-03
2.035867273807525635e-01
-3.999316319823265076e-02
2.273627817630767822e-01
-3.860865533351898193e-02
-1.681410670280456543e-01
1.900904923677444458e-01
-8.228933066129684448e-02
1.050942987203598022e-01
2.938317954540252686e-01
1.594614833593368530e-01
1.254214495420455933e-01
1.687751561403274536e-01
8.587289601564407349e-02
-1.231348663568496704e-01
-8.105885237455368042e-02
-8.701048046350479126e-02
-1.415585875511169434e-01
1.405716538429260254e-01
-2.181533025577664375e-03
-1.212109178304672241e-01
-3.873804211616516113e-02
-3.553802147507667542e-02
-6.022123992443084717e-02
-4.082161560654640198e-02
-1.772859692573547363e-02
-1.164880692958831787e-01
-5.484084784984588623e-02
-9.963990747928619385e-02
4.589210078120231628e-02
-1.049273386597633362e-01
1.556859612464904785e-01
-4.888330772519111633e-02
-5.934903025627136230e-02
-9.178926050662994385e-02
4.711845889687538147e-02
-6.517259776592254639e-02
-1.206616833806037903e-01
-8.964808657765388489e-03
7.760643959045410156e-02
-7.377251982688903809e-02
3.969216346740722656e-02
-8.020909130573272705e-02
5.448057502508163452e-02
-1.175381336361169815e-02
-2.141123861074447632e-01
3.930266480892896652e-03
-2.126133814454078674e-02
3.807288780808448792e-02
4.804244637489318848e-02
7.744024693965911865e-02
-5.285900831222534180e-02
-7.657561451196670532e-02
4.871217906475067139e-02
2.482265233993530273e-02
-2.197531796991825104e-02
1.280813664197921753e-01
-1.931169778108596802e-01
5.717203021049499512e-02
1.820506453514099121e-01
-1.161394566297531128e-01
-1.278897630982100964e-03
8.522279560565948486e-02
7.691156119108200073e-02
-2.766249328851699829e-02
-8.073978126049041748e-02
3.036001138389110565e-02
8.457508683204650879e-02
1.627294570207595825e-01
-1.590087115764617920e-01
-6.548876315355300903e-02
-7.014673203229904175e-02
-3.451107069849967957e-02
3.473964333534240723e-02
-2.039528787136077881e-01
3.382533416152000427e-02
2.152597159147262573e-01
7.928900420665740967e-02
3.320310264825820923e-02
7.296068221330642700e-02
1.693688519299030304e-02
5.539727210998535156e-02
6.360487639904022217e-02
-1.845076382160186768e-01
-1.504137762822210789e-03
-9.652847051620483398e-02
-4.116702079772949219e-02
2.962982952594757080e-01
-1.597855836153030396e-01
7.640600949525833130e-02
-4.343580082058906555e-02
-2.601517364382743835e-02
1.410252004861831665e-01
-3.820800781250000000e-02
-1.537987142801284790e-01
-3.669210523366928101e-02
1.229492053389549255e-01
-8.510018140077590942e-02
6.323951482772827148e-02
5.176566913723945618e-02
-1.376358121633529663e-01
-2.954402379691600800e-02
-1.289621181786060333e-02
-7.940120995044708252e-02
-2.724975347518920898e-02
3.889044374227523804e-02
-8.616912364959716797e-02
9.633878618478775024e-02
1.442126780748367310e-01
1.614401675760746002e-02
2.140320092439651489e-02
-2.124299854040145874e-02
9.003029204905033112e-03
-4.152050986886024475e-02
-4.467178508639335632e-02
-2.049681358039379120e-02
-7.052206248044967651e-02
1.525138318538665771e-01
6.045255437493324280e-02
-4.666537791490554810e-02
-1.164813488721847534e-01
1.089115291833877563e-01
3.074792213737964630e-02
6.443303823471069336e-02
5.598091334104537964e-02
-8.498656004667282104e-02
2.985976450145244598e-02
7.461875677108764648e-03
1.054702773690223694e-01
4.389970377087593079e-02
1.144617446698248386e-03
1.306777745485305786e-01
-3.702603653073310852e-02
-2.120390832424163818e-01
2.135438146069645882e-03
3.719686297699809074e-03
-1.252815220504999161e-02
9.669569134712219238e-02
-4.039744287729263306e-02
6.149688363075256348e-02
1.154119968414306641e-01
-1.760451495647430420e-01
9.624046832323074341e-02
-2.326825633645057678e-02
2.788081020116806030e-02
-8.917679637670516968e-02
7.705671340227127075e-02
1.299356203526258469e-02
-3.779541701078414917e-02
3.404844552278518677e-02
5.671519413590431213e-02
-2.620707638561725616e-02
-5.802131071686744690e-02
1.541799455881118774e-01
7.208037655800580978e-03
-1.033450365066528320e-01
5.046363919973373413e-02
2.318546548485755920e-02
-1.431623995304107666e-01
-5.380234681069850922e-03
2.354892045259475708e-01
1.605590432882308960e-02
-9.747540950775146484e-02
1.334859132766723633e-01
4.509517922997474670e-02
1.147240102291107178e-01
8.060427755117416382e-02
8.910366892814636230e-02
3.732056124135851860e-03
-6.293295323848724365e-02
7.258928567171096802e-02
3.888804838061332703e-02
-1.617019325494766235e-01
2.134494669735431671e-02
1.042360905557870865e-02
-4.900691658258438110e-02
3.744937479496002197e-02
-3.303761780261993408e-02
7.330671697854995728e-02
3.844000026583671570e-02
1.553404927253723145e-01
-2.174615859985351562e-03
2.872966229915618896e-02
-1.336272656917572021e-01
1.431748569011688232e-01
-1.344325691461563110e-01
9.137597680091857910e-02
2.800286561250686646e-02
-3.816231340169906616e-02
-4.348830506205558777e-02
2.581406012177467346e-02
1.518716514110565186e-01
-2.074780873954296112e-02
9.032010287046432495e-02
9.710055589675903320e-02
1.390621662139892578e-01
6.410319358110427856e-02
7.094243168830871582e-02
-5.458233132958412170e-02
3.319979459047317505e-02
1.379745453596115112e-01
-3.234110400080680847e-02
-1.075123250484466553e-01
-1.930079795420169830e-02
-1.204755082726478577e-01
-3.006643243134021759e-02
6.639675050973892212e-02
-1.217165142297744751e-01
2.701700106263160706e-02
-6.631547957658767700e-02
3.055652044713497162e-02
1.249773949384689331e-01
-3.758217673748731613e-03
-2.268689498305320740e-02
6.188074126839637756e-02
1.417002677917480469e-01
9.362346678972244263e-02
7.772022392600774765e-03
-2.269527502357959747e-02
3.089086897671222687e-02
4.731331765651702881e-02
-9.506613761186599731e-02
8.884838782250881195e-03
9.530287235975265503e-02
-1.610920727252960205e-01
-1.573800481855869293e-02
1.959210634231567383e-02
3.948063775897026062e-02
-8.591740624979138374e-04
-1.960717737674713135e-01
3.385813906788825989e-02
-3.712122142314910889e-02
-1.879282295703887939e-01
-1.355484426021575928e-01
-2.178676724433898926e-01
1.415922641754150391e-01
4.650318995118141174e-02
1.842506378889083862e-01
-6.879707425832748413e-02
2.197054177522659302e-01
1.754456572234630585e-02
8.017114549875259399e-02
1.805828697979450226e-02
-2.732272446155548096e-02
2.743653580546379089e-02
-8.097742497920989990e-02
-7.985229790210723877e-02
2.694928646087646484e-01
7.422494143247604370e-02
1.107770875096321106e-01
1.509656310081481934e-01
-8.003944903612136841e-02
7.431232184171676636e-02
3.947769850492477417e-02
-2.376856505870819092e-01
8.934165537357330322e-02
1.430831700563430786e-01
-8.583505637943744659e-03
1.879774034023284912e-01
1.110847890377044678e-01
7.789854705333709717e-02
1.958423554897308350e-01
-1.875806003808975220e-01
1.882327944040298462e-01
-1.134445369243621826e-01
1.669186055660247803e-01
-1.749490648508071899e-01
-3.353577107191085815e-02
-1.697399839758872986e-02
1.229775026440620422e-01
-1.179614290595054626e-01
3.813621401786804199e-02
-9.856610745191574097e-02
-2.041353732347488403e-01
2.884699590504169464e-02
6.884725391864776611e-02
-1.156969293951988220e-01
-1.147244200110435486e-01
7.368563115596771240e-02
1.664707511663436890e-01
-2.322310954332351685e-01
2.407405823469161987e-01
1.565856188535690308e-01
7.431759685277938843e-02
-7.764866203069686890e-02
-1.591478437185287476e-01
-1.116018369793891907e-01
7.328712195158004761e-02
1.039328947663307190e-01
8.381965756416320801e-02
1.579410582780838013e-01
1.797401160001754761e-01
-8.859420567750930786e-02
1.156887114048004150e-01
-2.729672566056251526e-02
6.501045078039169312e-02
-2.538151443004608154e-01
-9.869013726711273193e-02
1.834037527441978455e-02
-2.338350284844636917e-03
2.990198694169521332e-02
-7.866330444812774658e-02
-4.518431797623634338e-02
1.742625422775745392e-02
-2.005129307508468628e-01
6.755530834197998047e-02
-2.539750933647155762e-02
1.047648862004280090e-01
1.992994546890258789e-01
1.442648284137248993e-02
-1.014270335435867310e-01
-8.582837134599685669e-02
4.804204776883125305e-02
-4.723962768912315369e-02
-2.279017120599746704e-02
1.682791411876678467e-01
-1.887853592634201050e-01
5.867836996912956238e-02
1.231688708066940308e-01
5.908763408660888672e-02
-3.019488230347633362e-02
-1.535136699676513672e-01
-8.040628745220601559e-04
-1.648928672075271606e-01
2.961559221148490906e-02
-1.034929230809211731e-01
1.633374579250812531e-02
1.973633766174316406e-01
1.285860091447830200e-01
6.858674436807632446e-02
-6.985608488321304321e-03
5.741678923368453979e-02
-1.208414807915687561e-01
-1.579624712467193604e-01
-2.367840260267257690e-01
1.376954466104507446e-01
-6.567454338073730469e-02
-1.147640347480773926e-01
-8.348716795444488525e-02
-6.569357961416244507e-02
1.724242419004440308e-02
1.419980823993682861e-01
1.570229083299636841e-01
-2.180126160383224487e-01
-6.484118103981018066e-02
2.164007350802421570e-02
-2.348603866994380951e-02
1.405664980411529541e-01
1.224468201398849487e-01
1.025913804769515991e-01
3.541565313935279846e-02
-9.030108153820037842e-02
-8.690992742776870728e-02
3.265771269798278809e-01
1.189168617129325867e-01
1.087930612266063690e-02
-2.532870881259441376e-02
-9.071017801761627197e-02
-4.960265755653381348e-02
1.389954686164855957e-01
-3.818806260824203491e-02
-1.529187560081481934e-01
4.353452101349830627e-02
-5.580605007708072662e-03
-1.020634546875953674e-01
6.293786317110061646e-02
-1.893329024314880371e-01
1.803345531225204468e-01
-2.345928996801376343e-01
-9.001840651035308838e-02
-1.642779409885406494e-01
-1.736322417855262756e-02
-1.893603652715682983e-01
1.857980787754058838e-01
7.348510622978210449e-02
-1.496210973709821701e-02
1.524272710084915161e-01
5.354753881692886353e-02
-1.808724105358123779e-01
3.595329821109771729e-02
1.764051616191864014e-01
1.692000031471252441e-01
3.717702999711036682e-02
-9.760621935129165649e-02
8.516560494899749756e-02
1.099446192383766174e-01
-1.527707427740097046e-01
2.243854552507400513e-01
8.031640201807022095e-02
-1.490746741183102131e-03
-4.783374816179275513e-02
2.454409748315811157e-02
-2.153808325529098511e-01
1.790979653596878052e-01
-2.571630179882049561e-01
1.529478877782821655e-01
-2.381384670734405518e-01
-1.387613564729690552e-01
-6.255888193845748901e-02
-1.862844526767730713e-01
-2.061905413866043091e-01
-1.163580492138862610e-01
1.599140465259552002e-01
-2.364089936017990112e-01
7.485881447792053223e-02
4.398840293288230896e-02
5.938992649316787720e-02
1.060646995902061462e-01
3.145730122923851013e-02
2.121737301349639893e-01
4.684821143746376038e-02
-9.844405949115753174e-02
1.069552525877952576e-01
-9.542746096849441528e-02
-7.365729659795761108e-02
1.193464845418930054e-01
2.613385021686553955e-02
6.344182044267654419e-02
-2.340358793735504150e-01
-1.245483234524726868e-01
3.255817666649818420e-02
2.085294015705585480e-02
-2.323993891477584839e-01
1.575435511767864227e-02
6.251704692840576172e-02
-8.969914913177490234e-02
-6.262580305337905884e-02
2.185035794973373413e-01
4.297743737697601318e-02
-5.134645476937294006e-02
-6.437368690967559814e-02
2.059030532836914062e-01
2.055815756320953369e-01
8.471340686082839966e-02
1.019684746861457825e-01
1.630680561065673828e-01
-3.042215481400489807e-02
-9.087502025067806244e-03
-4.083058796823024750e-03
-7.553857751190662384e-03
1.952784955501556396e-01
-1.725639594951644540e-04
3.900881856679916382e-02
1.965606212615966797e-02
4.509580880403518677e-02
-1.096239537000656128e-01
-5.015393346548080444e-02
2.437488883733749390e-01
1.636052317917346954e-02
-1.167256906628608704e-01
-2.113993279635906219e-02
2.221003361046314240e-02
-1.130754575133323669e-01
-8.162937313318252563e-02
-8.430604636669158936e-02
-1.005227640271186829e-01
9.361999481916427612e-02
-3.401430090889334679e-03
-6.858821213245391846e-02
-5.925957113504409790e-02
-4.834783449769020081e-02
5.167233943939208984e-02
-5.359860509634017944e-02
6.026361510157585144e-02
-4.851424694061279297e-02
-7.293716818094253540e-02
-3.893774235621094704e-03
1.055857986211776733e-01
1.304844915866851807e-01
-9.094270318746566772e-02
9.806865453720092773e-02
-7.773113995790481567e-02
-7.583829015493392944e-02
9.220524877309799194e-02
2.861937321722507477e-02
-1.261007189750671387e-01
-1.500212103128433228e-01
-2.660193294286727905e-02
8.256876468658447266e-02
6.381643563508987427e-02
9.549419581890106201e-02
-1.289221942424774170e-01
-6.563705205917358398e-02
1.949979960918426514e-01
3.359846025705337524e-02
-1.001370698213577271e-01
9.701096452772617340e-03
-1.369885802268981934e-01
-4.975246265530586243e-02
3.407190740108489990e-02
-4.798732325434684753e-02
1.679118275642395020e-01
-1.437003538012504578e-02
-6.965801864862442017e-02
1.092589646577835083e-02
1.753187924623489380e-02
-3.385249897837638855e-02
1.696435548365116119e-02
-9.800321608781814575e-02
-4.373624548316001892e-02
-5.543141439557075500e-02
1.068363711237907410e-02
2.013809978961944580e-02
1.857981667853891850e-03
-1.215398833155632019e-01
-2.027090340852737427e-01
-1.389862447977066040e-01
2.885645031929016113e-01
1.262820959091186523e-01
-2.556388638913631439e-02
6.598562002182006836e-02
1.552231609821319580e-01
-1.273828595876693726e-01
-1.120612770318984985e-01
-1.174970939755439758e-01
3.871149150654673576e-03
-9.952056407928466797e-02
6.174034625291824341e-02
5.815389379858970642e-02
4.663333669304847717e-02
3.868014737963676453e-02
-1.030026972293853760e-01
-1.111608073115348816e-01
-1.088473498821258545e-01
1.600038819015026093e-02
7.030577957630157471e-02
1.818010210990905762e-01
1.140561029314994812e-01
-3.201664611697196960e-02
2.489372342824935913e-02
-1.329999268054962158e-01
-3.649980574846267700e-02
-5.844033136963844299e-02
2.910957299172878265e-02
-1.124637480825185776e-02
1.325217038393020630e-01
1.542463898658752441e-01
-2.807655371725559235e-02
-2.167928032577037811e-02
5.571589246392250061e-02
-8.317445218563079834e-02
3.158719837665557861e-02
3.440443798899650574e-02
-6.339928507804870605e-02
6.717205047607421875e-02
-9.011436998844146729e-02
9.307940304279327393e-02
-4.504797607660293579e-02
1.333673857152462006e-02
6.477648764848709106e-02
5.604919791221618652e-02
6.980959326028823853e-02
6.786128133535385132e-02
1.169154569506645203e-01
-9.312842041254043579e-02
3.040768206119537354e-02
-9.046246111392974854e-02
1.676566153764724731e-01
5.937926843762397766e-02
2.234030887484550476e-02
1.005671620368957520e-01
9.726804494857788086e-02
-9.205870330333709717e-02
-9.589984267950057983e-02
-9.776838868856430054e-02
-2.547253854572772980e-02
-3.727972134947776794e-02
1.329534947872161865e-01
-6.382273137569427490e-02
4.766177386045455933e-02
-1.263699382543563843e-01
-3.415112942457199097e-02
-4.777308180928230286e-02
1.445459276437759399e-01
-3.746601194143295288e-02
-7.603169232606887817e-02
3.240570425987243652e-02
-1.650027185678482056e-02
5.413942504674196243e-03
-1.493141287937760353e-03
-2.161800265312194824e-01
-7.864706963300704956e-02
-2.008282206952571869e-02
-1.123859267681837082e-02
-1.613354086875915527e-01
-1.814318075776100159e-02
1.810623407363891602e-01
4.772699251770973206e-02
2.644906379282474518e-02
-3.725008293986320496e-02
1.009689867496490479e-01
-1.482770144939422607e-01
1.657201498746871948e-01
-2.422890439629554749e-02
8.041544258594512939e-02
-1.171464025974273682e-01
-7.568516582250595093e-02
2.056551128625869751e-01
-2.732098661363124847e-02
2.611701749265193939e-02
-2.212334424257278442e-02
-1.012965384870767593e-02
-1.137687489390373230e-01
1.237656697630882263e-01
2.390307337045669556e-01
5.580132454633712769e-02
6.559526920318603516e-02
-5.290066450834274292e-02
1.305005550384521484e-01
-2.678580209612846375e-02
1.500572562217712402e-01
1.620437391102313995e-02
-8.193167299032211304e-02
-7.804828137159347534e-02
8.257041871547698975e-02
-4.572154954075813293e-03
3.904343023896217346e-02
-1.471377164125442505e-01
9.465129673480987549e-02
1.123527623713016510e-02
-4.903322830796241760e-02
1.861686706542968750e-01
2.978005409240722656e-01
8.591623604297637939e-02
1.163696590811014175e-02
1.412934213876724243e-01
-2.003346234560012817e-01
1.228785607963800430e-02
-1.162503212690353394e-01
2.633281284943223000e-03
1.296999752521514893e-01
9.316759556531906128e-02
-3.146198391914367676e-02
-2.902735471725463867e-01
-2.224284037947654724e-02
-1.062154211103916168e-02
-1.721278876066207886e-01
1.226003989577293396e-01
2.158771604299545288e-01
6.889555603265762329e-02
1.409364789724349976e-01
-2.799234092235565186e-01
1.885414123535156250e-01
-2.734095044434070587e-02
-4.225327447056770325e-02
7.221193611621856689e-02
3.601073622703552246e-01
1.374994367361068726e-01
2.676533460617065430e-01
-5.363227427005767822e-02
-9.515295177698135376e-02
1.256983131170272827e-01
-2.709125541150569916e-02
5.891876667737960815e-02
-1.194898635149002075e-01
2.104078382253646851e-01
1.955839991569519043e-01
-2.423913590610027313e-02
-2.572147920727729797e-02
-5.981166660785675049e-02
-1.824092119932174683e-01
1.480090804398059845e-02
1.401458773761987686e-02
-5.714698880910873413e-02
-4.698270186781883240e-02
1.249263435602188110e-01
6.189125776290893555e-02
-2.856018394231796265e-02
1.110377162694931030e-01
1.975587336346507072e-03
3.498660400509834290e-02
5.570923909544944763e-02
2.450579404830932617e-01
3.901514783501625061e-02
1.008442938327789307e-01
-9.985661599785089493e-04
-7.370410859584808350e-02
8.320168405771255493e-02
7.163362950086593628e-02
9.737620502710342407e-02
-1.135101839900016785e-01
-3.807296231389045715e-02
6.707727909088134766e-03
-2.013988643884658813e-01
-5.443830415606498718e-02
-6.023665424436330795e-03
-1.205605790019035339e-01
4.639149829745292664e-02
-2.719514258205890656e-02
-1.763233728706836700e-02
-1.673743277788162231e-01
5.488214641809463501e-02
2.825710922479629517e-02
-2.185700833797454834e-02
1.625443622469902039e-02
-2.760002389550209045e-02
6.172845885157585144e-02
9.413576871156692505e-02
3.870356827974319458e-02
-3.027074970304965973e-02
-1.149934977293014526e-01
-1.016852073371410370e-02
2.478518150746822357e-02
-7.843503355979919434e-02
-1.754076331853866577e-01
-1.178493499755859375e-01
3.040493279695510864e-02
-6.656739115715026855e-02
1.444649696350097656e-01
-4.828874021768569946e-02
-1.251714080572128296e-01
1.584389992058277130e-02
-5.771477147936820984e-02
2.701292373239994049e-02
-6.087351217865943909e-02
-4.262512177228927612e-02
1.403657197952270508e-01
-5.575095489621162415e-02
3.222262486815452576e-02
-3.046697564423084259e-02
-4.554041195660829544e-03
1.076604276895523071e-01
1.490848958492279053e-01
-4.924328625202178955e-02
-5.973236635327339172e-02
4.390018060803413391e-02
-8.395005017518997192e-02
-5.020397156476974487e-02
-1.374419126659631729e-02
-5.101454630494117737e-02
1.681585796177387238e-02
6.451001763343811035e-02
-7.368814200162887573e-02
-1.050620302557945251e-01
-4.886212572455406189e-02
6.270730495452880859e-02
-1.686079986393451691e-02
-5.585603415966033936e-02
-1.881690695881843567e-02
-1.044682487845420837e-01
4.539101570844650269e-02
6.785254925489425659e-02
-1.556532233953475952e-01
5.239791795611381531e-02
3.529386129230260849e-03
6.396456807851791382e-02
-5.140569992363452911e-03
-5.393568053841590881e-02
-8.897067606449127197e-02
7.386406417936086655e-03
5.114348605275154114e-02
-8.217136561870574951e-02
1.217410084791481495e-03
-4.591151140630245209e-03
-1.112713478505611420e-02
3.474082425236701965e-02
-5.509374197572469711e-03
1.159432306885719299e-01
-9.435416199266910553e-03
1.551785022020339966e-01
3.381558135151863098e-02
1.253028064966201782e-01
-8.018731325864791870e-02
1.887864200398325920e-03
8.209812641143798828e-02
1.264182925224304199e-01
-5.706121399998664856e-02
1.287732720375061035e-01
-4.202612489461898804e-02
-5.026597157120704651e-02
4.750702530145645142e-02
4.589538276195526123e-02
-9.090752340853214264e-03
1.913877576589584351e-01
-5.418892577290534973e-02
-1.098103821277618408e-01
1.152968183159828186e-01
1.052967458963394165e-02
-5.639958009123802185e-02
-2.029462903738021851e-01
7.663387060165405273e-02
3.108679689466953278e-02
5.218309536576271057e-02
1.385276168584823608e-01
2.887549251317977905e-02
-3.668619692325592041e-02
-1.404263079166412354e-01
1.060515642166137695e-01
4.759413003921508789e-02
1.196446791291236877e-01
8.448322862386703491e-02
-3.714961558580398560e-02
-4.254411440342664719e-03
-5.694872885942459106e-02
-2.952472865581512451e-02
-7.202155143022537231e-02
-9.217356145381927490e-02
4.872608929872512817e-02
-1.999754458665847778e-02
-7.817708700895309448e-02
3.084173053503036499e-02
8.198944479227066040e-02
-3.096686676144599915e-02
9.660367667675018311e-02
-5.263858288526535034e-02
3.737524896860122681e-02
-1.416418980807065964e-02
-8.574485778808593750e-02
1.076641120016574860e-02
3.437366709113121033e-02
2.013820968568325043e-02
1.279909908771514893e-01
1.153451278805732727e-01
-4.676505178213119507e-02
-1.493148803710937500e-01
1.133534982800483704e-01
-5.648234859108924866e-02
5.679159425199031830e-03
7.196910679340362549e-03
-3.909017145633697510e-02
9.308407083153724670e-03
5.737691000103950500e-02
6.726030260324478149e-02
6.794524192810058594e-02
1.415710598230361938e-01
-3.985849767923355103e-02
7.685997337102890015e-02
7.892331108450889587e-03
1.127524450421333313e-01
1.093529537320137024e-01
-3.064236976206302643e-02
-3.970324248075485229e-02
2.436990104615688324e-02
1.327548176050186157e-01
1.957857422530651093e-02
-9.111310355365276337e-04
3.344586119055747986e-02
1.526971533894538879e-02
-7.027864456176757812e-02
4.657711461186408997e-02
-1.268255244940519333e-02
1.929125785827636719e-01
-1.733875251375138760e-04
-1.198902353644371033e-01
8.795083314180374146e-02
9.349363297224044800e-02
-1.073938533663749695e-01
-3.066469728946685791e-02
1.555548459291458130e-01
-7.228890061378479004e-02
-3.803147375583648682e-02
-1.159989368170499802e-02
1.441249400377273560e-01
-1.676790043711662292e-02
1.582301408052444458e-01
6.174019724130630493e-02
-6.651075184345245361e-02
-8.688472211360931396e-02
-6.774434447288513184e-02
8.678475767374038696e-02
-1.034377366304397583e-01
4.852651059627532959e-02
2.106058411300182343e-03
-1.292275190353393555e-01
1.413357108831405640e-01
-1.764892041683197021e-01
-3.210594505071640015e-02
-1.493423581123352051e-01
2.679716609418392181e-02
-5.639996007084846497e-02
3.027668222784996033e-02
-5.173327401280403137e-02
-9.556601941585540771e-02
1.444384157657623291e-01
3.159018233418464661e-02
4.190454725176095963e-03
-6.996870040893554688e-02
-2.063408866524696350e-02
2.614374086260795593e-02
-2.594345249235630035e-02
3.191648051142692566e-02
-7.219540327787399292e-02
9.482292807660996914e-04
9.429372847080230713e-02
-9.064913541078567505e-02
7.582138758152723312e-03
4.918183758854866028e-02
-8.168353885412216187e-02
-6.752102077007293701e-02
-1.261011511087417603e-01
6.664978712797164917e-02
-9.930127114057540894e-02
-8.205435425043106079e-02
-1.389259397983551025e-01
8.303410559892654419e-02
-1.772601306438446045e-01
1.548387259244918823e-01
-2.339649945497512817e-02
8.248775452375411987e-02
3.530889376997947693e-02
4.399915412068367004e-02
-4.827287793159484863e-02
-1.024508476257324219e-01
7.296575605869293213e-02
-2.725242450833320618e-02
-1.000217869877815247e-01
-3.098342753946781158e-02
-7.471287995576858521e-02
7.321253418922424316e-02
4.595834389328956604e-02
1.562951831147074699e-03
-1.947981491684913635e-02
1.173230931162834167e-01
-1.074399650096893311e-01
-8.204714208841323853e-02
2.331501338630914688e-03
1.890180706977844238e-01
-7.279818505048751831e-02
-1.600150763988494873e-01
1.768260896205902100e-01
-4.114520270377397537e-03
9.833442419767379761e-02
-1.263970229774713516e-02
-7.400231063365936279e-02
-5.794692039489746094e-02
1.083789691329002380e-01
-3.093286044895648956e-02
6.389420479536056519e-02
1.105610877275466919e-01
8.454605937004089355e-02
-1.189848780632019043e-01
1.322371661663055420e-01
1.364006847143173218e-01
8.757914602756500244e-02
-1.813532784581184387e-02
9.412357956171035767e-02
1.360160112380981445e-01
-5.163157731294631958e-02
-1.962011903524398804e-01
-9.213432669639587402e-02
1.457196008414030075e-02
7.303325086832046509e-02
4.129859432578086853e-02
-3.126911073923110962e-02
7.278929115273058414e-04
-2.864844910800457001e-02
1.793515533208847046e-01
6.313288118690252304e-03
2.182735651731491089e-01
1.044169291853904724e-01
1.018335744738578796e-01
1.329370541498064995e-03
9.307142347097396851e-02
3.145386651158332825e-02
-1.895488351583480835e-01
2.805430628359317780e-02
1.344171017408370972e-01
1.927595585584640503e-01
1.628280878067016602e-01
5.031487718224525452e-02
3.404565155506134033e-02
-2.096026949584484100e-02
7.188514620065689087e-02
-9.622902423143386841e-02
-9.203118085861206055e-02
1.612384766340255737e-01
-4.485786706209182739e-02
-1.012444794178009033e-01
4.685533419251441956e-02
1.208420023322105408e-01
1.876089870929718018e-01
-4.829455539584159851e-02
-7.593095302581787109e-02
-9.302088990807533264e-03
9.929210646077990532e-04
-9.791243821382522583e-03
-4.853282123804092407e-02
-2.646119147539138794e-02
-4.280259087681770325e-02
1.131220236420631409e-01
-1.560009121894836426e-01
6.866542249917984009e-02
-1.087286993861198425e-01
3.887740522623062134e-02
8.277780376374721527e-03
-8.267532102763652802e-03
-6.841658800840377808e-02
8.289936929941177368e-03
-1.060536578297615051e-01
1.275011748075485229e-01
-7.272440195083618164e-02
9.222596883773803711e-02
1.984531879425048828e-01
1.958651840686798096e-02
1.412875503301620483e-01
-5.247047170996665955e-02
1.910264194011688232e-01
-1.253276914358139038e-01
-4.757742211222648621e-02
-1.868907213211059570e-01
3.457530587911605835e-02
1.336843967437744141e-01
5.705293267965316772e-02
-1.578743755817413330e-01
6.130118295550346375e-02
1.505376994609832764e-01
4.457096382975578308e-02
3.984787315130233765e-02
7.928301580250263214e-03
-1.334551274776458740e-01
1.527876406908035278e-01
-7.006499916315078735e-02
1.976263970136642456e-01
7.528396695852279663e-02
1.763666421175003052e-01
9.485289454460144043e-02
1.296440362930297852e-01
3.757222369313240051e-02
4.995234683156013489e-02
-4.146839678287506104e-02
-1.077497601509094238e-01
2.701018191874027252e-02
-1.025374680757522583e-01
7.347448170185089111e-02
-4.495725501328706741e-03
3.034474328160285950e-02
2.508031129837036133e-01
8.862337470054626465e-02
-2.569783478975296021e-02
-5.104184895753860474e-02
-1.517702043056488037e-01
5.996028706431388855e-02
-7.242424041032791138e-02
1.687835715711116791e-02
2.057085633277893066e-01
-8.782942779362201691e-03
-1.906593143939971924e-01
-1.595859825611114502e-01
-4.046062007546424866e-02
-7.022918760776519775e-02
-1.171253472566604614e-01
-5.550404638051986694e-02
-8.211321383714675903e-02
1.441966444253921509e-01
-8.051637560129165649e-02
2.132484167814254761e-01
1.418103873729705811e-01
-6.683792918920516968e-02
-2.202909290790557861e-01
-2.919712103903293610e-02
1.459746658802032471e-01
-2.030088007450103760e-01
-1.886867284774780273e-01
-1.071646227501332760e-03
-1.464381963014602661e-01
1.021576672792434692e-01
-1.345391105860471725e-02
2.162095531821250916e-02
-3.828771039843559265e-02
2.956461906433105469e-02
-4.473440349102020264e-02
-5.147262290120124817e-02
7.160212099552154541e-02
2.296220324933528900e-02
-1.148894652724266052e-01
-1.813319511711597443e-02
1.139679551124572754e-01
1.280713826417922974e-01
-3.761915862560272217e-02
1.021693050861358643e-01
4.582460597157478333e-02
2.157696522772312164e-02
3.508079424500465393e-02
-3.880001232028007507e-02
-9.371933527290821075e-03
9.133315831422805786e-02
9.267962537705898285e-03
7.671296596527099609e-02
1.023662462830543518e-01
3.957325220108032227e-02
-3.255322203040122986e-02
-3.197996877133846283e-03
1.486030071973800659e-01
-5.467376112937927246e-02
1.841562800109386444e-02
-5.070054437965154648e-03
-1.007849797606468201e-01
7.678475975990295410e-02
7.983595877885818481e-02
7.883114367723464966e-02
-1.904004998505115509e-02
-1.955694258213043213e-01
-6.075307726860046387e-02
3.573557594791054726e-03
-2.090165019035339355e-01
8.281989395618438721e-02
-2.230654284358024597e-02
-7.704210281372070312e-02
-6.027147918939590454e-02
8.312320709228515625e-02
2.127018570899963379e-02
1.849186271429061890e-01
-2.467314712703227997e-02
1.695016473531723022e-01
-4.709004983305931091e-02
6.250502914190292358e-02
-1.520574539899826050e-01
-1.302441768348217010e-02
-4.663398116827011108e-02
7.866915315389633179e-02
8.422085642814636230e-02
1.246353262104094028e-03
2.903540618717670441e-02
7.347347680479288101e-03
-1.236014664173126221e-01
-4.258366301655769348e-02
1.893453672528266907e-02
5.714967846870422363e-02
-7.836772501468658447e-02
-5.019407719373703003e-02
-1.910044252872467041e-02
2.984975650906562805e-02
3.131043910980224609e-02
1.746433787047863007e-02
-1.331563293933868408e-02
-4.900706186890602112e-02
-1.001309752464294434e-01
3.407496213912963867e-02
9.941744804382324219e-02
-4.251762293279170990e-03
5.403045937418937683e-02
-9.909391403198242188e-02
2.765322569757699966e-03
2.269887737929821014e-02
-7.534177508205175400e-03
1.812556087970733643e-01
-5.227126553654670715e-02
-5.355271324515342712e-02
-2.711147442460060120e-02
-4.306277632713317871e-02
-9.751600772142410278e-02
5.621898919343948364e-02
-1.182257104665040970e-02
-1.266503483057022095e-01
-1.124622076749801636e-01
7.900463789701461792e-02
-4.732426628470420837e-02
-1.333147380501031876e-02
8.662106096744537354e-02
6.910189241170883179e-02
-7.713100314140319824e-02
-1.746993325650691986e-02
1.472339034080505371e-02
-1.888702251017093658e-02
7.542047649621963501e-02
-6.422937661409378052e-02
-1.637511998414993286e-01
-1.140217389911413193e-02
2.160058729350566864e-02
3.987778350710868835e-02
-1.909088715910911560e-02
5.450279917567968369e-03
-1.666633971035480499e-02
7.858763635158538818e-02
-1.125901415944099426e-01
-6.477892398834228516e-02
5.133799090981483459e-02
7.326866686344146729e-02
-1.119157224893569946e-01
-8.487936109304428101e-02
-5.577067658305168152e-02
-1.981421187520027161e-02
1.403079717420041561e-03
-9.525736421346664429e-02
9.135759621858596802e-02
1.249333843588829041e-01
5.143928527832031250e-02
-1.052707880735397339e-01
-7.921356707811355591e-02
1.167891994118690491e-01
-1.497445553541183472e-01
3.092485666275024414e-02
1.692897081375122070e-01
-7.890425622463226318e-02
-9.903934597969055176e-02
-9.259127080440521240e-02
-3.203850984573364258e-02
3.256719559431076050e-02
-1.841447353363037109e-01
7.581531256437301636e-02
7.260498404502868652e-02
-8.293683826923370361e-02
-1.451493203639984131e-01
4.942853003740310669e-03
8.378101140260696411e-02
-1.486067380756139755e-02
-1.577121913433074951e-01
5.714751780033111572e-02
1.923561282455921173e-02
5.970499664545059204e-02
-9.623280912637710571e-02
-1.201055794954299927e-01
-1.487200558185577393e-01
-1.128443926572799683e-01
6.478509306907653809e-02
-1.538221389055252075e-01
-3.945596516132354736e-02
2.211215049028396606e-01
2.560849674046039581e-02
-1.094337254762649536e-01
1.938789710402488708e-02
1.018463149666786194e-01
1.233996003866195679e-01
4.717653617262840271e-02
1.582265831530094147e-02
-5.920372530817985535e-02
1.529575288295745850e-01
3.724046796560287476e-02
4.950731620192527771e-02
4.014619067311286926e-02
-3.136704489588737488e-02
3.998881578445434570e-02
-5.162284895777702332e-02
-9.186601638793945312e-02
-1.118836402893066406e-01
1.070831716060638428e-02
2.397448197007179260e-02
2.046842500567436218e-02
2.447022125124931335e-02
-1.668249070644378662e-02
-8.221875876188278198e-02
-6.342694163322448730e-02
-1.952379047870635986e-01
-2.413623407483100891e-02
-1.208020076155662537e-01
-1.918715536594390869e-01
-7.849848270416259766e-02
-1.184777319431304932e-01
-8.477149158716201782e-02
-6.066415458917617798e-02
-2.559929713606834412e-02
-1.750143170356750488e-01
-6.376273185014724731e-02
7.532508671283721924e-02
-5.867523327469825745e-02
9.770691394805908203e-02
-2.152895182371139526e-02
1.188533008098602295e-02
1.299137175083160400e-01
1.424182802438735962e-01
3.429710865020751953e-02
3.396181017160415649e-02
-5.684285610914230347e-02
-7.107848674058914185e-02
1.142843067646026611e-01
-1.082923188805580139e-01
9.524486958980560303e-03
-6.251437216997146606e-02
1.186587940901517868e-02
-5.585018917918205261e-02
-4.661545157432556152e-02
-6.970698386430740356e-02
-5.047290399670600891e-02
1.146351993083953857e-01
7.911272346973419189e-03
-1.241284608840942383e-01
-1.093195676803588867e-01
-7.640540134161710739e-03
-4.947812855243682861e-02
-2.889387495815753937e-02
1.301818937063217163e-01
6.184415426105260849e-03
2.348200529813766479e-01
1.184360682964324951e-01
-5.065900832414627075e-02
5.260507389903068542e-02
9.905135631561279297e-02
-4.017966985702514648e-02
5.657612904906272888e-02
7.227387279272079468e-02
1.113981828093528748e-01
1.771209947764873505e-02
-8.501637727022171021e-02
7.651850581169128418e-02
-1.610318198800086975e-02
-1.163206528872251511e-02
-3.643005341291427612e-02
-3.712603822350502014e-02
1.177872195839881897e-01
3.747540712356567383e-02
6.477235257625579834e-02
2.022697776556015015e-01
-5.453817546367645264e-02
-2.248903736472129822e-02
1.057085320353507996e-01
-7.871635258197784424e-02
6.290956586599349976e-02
-4.387046396732330322e-02
-5.616068467497825623e-02
-9.066465310752391815e-03
2.044457197189331055e-02
1.567699015140533447e-02
-9.793470380827784538e-04
-9.630794078111648560e-02
4.062218219041824341e-02
3.613449260592460632e-02
-6.365790218114852905e-02
-8.465784043073654175e-02
-3.071700036525726318e-02
-7.381809502840042114e-02
7.234913855791091919e-02
2.271042950451374054e-02
-5.357631295919418335e-02
8.179166167974472046e-02
4.419082030653953552e-02
-2.316870354115962982e-02
1.416503638029098511e-02
-2.793713100254535675e-02
1.035889536142349243e-01
-8.793959394097328186e-03
7.175316661596298218e-02
6.258982419967651367e-02
-1.535791234346106648e-04
2.384201996028423309e-02
1.222459040582180023e-02
1.079328581690788269e-01
-1.022453978657722473e-02
-5.805446207523345947e-02
-2.231943793594837189e-02
1.025518551468849182e-01
-4.778103530406951904e-02
-5.668240785598754883e-02
4.639550298452377319e-02
4.117062687873840332e-02
1.530498918145895004e-02
2.334667742252349854e-02
5.050740018486976624e-02
-5.614803731441497803e-02
8.112862706184387207e-02
-2.980007044970989227e-02
6.618064641952514648e-02
-7.191812247037887573e-02
3.938153851777315140e-03
-6.474967580288648605e-03
4.683611541986465454e-02
-1.134002506732940674e-01
-4.142113029956817627e-02
-7.635356485843658447e-02
5.359821394085884094e-02
8.785489201545715332e-02
6.219034641981124878e-02
-1.664061844348907471e-02
6.568644940853118896e-02
1.492273900657892227e-02
-8.340287953615188599e-02
5.006037279963493347e-02
-4.958972707390785217e-02
-8.906956762075424194e-02
3.698540478944778442e-02
-8.004710823297500610e-02
-4.517459496855735779e-02
4.663966130465269089e-03
5.748123303055763245e-02
-5.845458805561065674e-02
4.761109873652458191e-02
-9.009178727865219116e-02
4.652138426899909973e-02
-9.180765599012374878e-02
5.173125490546226501e-02
4.970836453139781952e-03
2.158496528863906860e-02
-8.421232923865318298e-03
-8.217134326696395874e-02
6.176280602812767029e-02
-8.543899655342102051e-02
-5.602577328681945801e-02
-3.842791169881820679e-02
-4.928177967667579651e-02
2.079033292829990387e-02
2.030217088758945465e-02
2.424168214201927185e-02
-5.137529969215393066e-02
8.256207406520843506e-02
-6.626034528017044067e-02
2.173681743443012238e-02
9.832026064395904541e-02
-6.467773020267486572e-02
-8.430711925029754639e-03
-8.692526817321777344e-02
7.199708838015794754e-03
4.772580042481422424e-02
-2.845870517194271088e-02
2.539017610251903534e-02
-7.837707549333572388e-02
9.065940976142883301e-02
4.777198657393455505e-03
-3.372915461659431458e-02
5.603181570768356323e-02
-3.547789156436920166e-02
-5.726461485028266907e-02
6.906515359878540039e-02
-6.060163304209709167e-02
-4.640347510576248169e-02
-6.857299804687500000e-02
-5.534230545163154602e-02
3.256734833121299744e-02
6.832955032587051392e-02
-4.869969934225082397e-02
-4.960761964321136475e-02
3.990345448255538940e-02
7.281852513551712036e-02
-7.222592085599899292e-02
-3.431405127048492432e-02
4.381528124213218689e-02
7.084298878908157349e-02
1.107903104275465012e-02
-1.329249888658523560e-02
5.214901641011238098e-02
1.353124827146530151e-01
-1.266421526670455933e-01
1.085358187556266785e-01
1.153443679213523865e-01
7.185239344835281372e-02
-7.475391030311584473e-02
-5.972698330879211426e-02
1.070844978094100952e-01
2.982094511389732361e-02
-1.455726027488708496e-01
-1.184537857770919800e-01
-7.245505694299936295e-03
5.321718752384185791e-03
-5.266054719686508179e-02
2.135622687637805939e-02
-3.014088608324527740e-02
-5.720224976539611816e-02
-2.867133170366287231e-02
1.138795688748359680e-01
7.184847444295883179e-02
-4.183769971132278442e-02
-6.132819876074790955e-02
8.581165224313735962e-03
8.195105940103530884e-02
4.132599383592605591e-02
-8.533081412315368652e-02
-1.002804189920425415e-02
1.989625841379165649e-01
-1.542616635560989380e-01
9.949158877134323120e-02
5.901838187128305435e-03
-1.084791570901870728e-01
3.437054902315139771e-02
7.687878608703613281e-02
-1.157115027308464050e-01
1.180068030953407288e-01
1.269248127937316895e-01
1.940156705677509308e-02
1.157504469156265259e-01
-2.087854593992233276e-02
1.452136225998401642e-02
5.611713603138923645e-02
-8.583550155162811279e-02
1.395122557878494263e-01
7.891863584518432617e-02
3.008901700377464294e-02
1.571006923913955688e-01
1.190283671021461487e-01
8.605515211820602417e-02
-8.951139450073242188e-02
-4.663629457354545593e-03
5.582135543227195740e-02
-7.496675103902816772e-02
-4.584781825542449951e-02
8.639356493949890137e-02
1.513623744249343872e-01
1.158535331487655640e-01
4.277953132987022400e-02
1.055127382278442383e-02
-1.093264296650886536e-02
-2.663973160088062286e-02
-8.441258221864700317e-03
2.813300117850303650e-02
-3.175774216651916504e-02
-3.597651049494743347e-02
-2.367203496396541595e-02
-9.531299583613872528e-03
2.275619097054004669e-02
6.636605411767959595e-02
2.115860022604465485e-02
7.312223315238952637e-02
-1.119200512766838074e-01
5.947583355009555817e-03
4.686187207698822021e-02
4.234884306788444519e-02
-3.535487875342369080e-02
1.588665843009948730e-01
-1.438237875699996948e-01
1.197319999337196350e-01
8.882965892553329468e-02
-6.566243618726730347e-02
-1.223553903400897980e-03
-5.278418958187103271e-02
5.930236075073480606e-03
1.093180570751428604e-02
-3.140291571617126465e-02
-6.074214354157447815e-03
-1.108546927571296692e-01
3.403020789846777916e-03
-1.665584929287433624e-02
7.540971040725708008e-02
-4.374928027391433716e-02
-9.899079054594039917e-02
-5.115330219268798828e-02
1.258041560649871826e-01
-2.643903903663158417e-02
5.449842661619186401e-03
1.530759781599044800e-01
7.837393879890441895e-02
8.476443588733673096e-03
-5.358701571822166443e-02
7.970267534255981445e-02
-1.588000506162643433e-01
1.053354069590568542e-01
-3.112500905990600586e-02
3.770223120227456093e-03
3.236578032374382019e-02
7.925865054130554199e-02
-1.681727170944213867e-02
-8.039707690477371216e-02
-8.136022835969924927e-02
-5.949273705482482910e-02
-1.134871020913124084e-01
-3.114841505885124207e-02
6.572547554969787598e-02
-2.099491953849792480e-01
2.152626216411590576e-02
-1.448848247528076172e-01
5.416711792349815369e-03
1.067355647683143616e-01
9.433437138795852661e-02
-1.605804660357534885e-03
1.048367768526077271e-01
-1.070488840341567993e-01
2.268778532743453979e-01
3.405367583036422729e-02
2.288063615560531616e-01
-2.119830623269081116e-02
1.063547208905220032e-01
1.026612296700477600e-01
2.159797698259353638e-01
1.067876815795898438e-02
1.253538578748703003e-01
-1.916154623031616211e-01
3.715314343571662903e-02
8.821143954992294312e-02
1.774804145097732544e-01
9.751022607088088989e-02
-7.597458362579345703e-02
-1.975181885063648224e-02
-5.642808228731155396e-02
-2.860426437109708786e-03
1.905126422643661499e-01
-3.419924154877662659e-02
-1.041237264871597290e-01
1.618853807449340820e-01
9.773589670658111572e-02
-5.593032389879226685e-02
-4.565510898828506470e-02
-2.845885753631591797e-01
2.225188724696636200e-02
1.511457264423370361e-01
-4.770826175808906555e-02
1.947980374097824097e-01
-1.493741292506456375e-02
2.293612062931060791e-02
1.358013004064559937e-01
9.058129042387008667e-02
-1.201870739459991455e-01
-4.589431732892990112e-02
3.590764850378036499e-02
-5.096226464956998825e-03
-3.729184344410896301e-02
-9.872950613498687744e-02
3.037679381668567657e-02
6.488422304391860962e-02
1.413308680057525635e-01
-1.935781687498092651e-01
1.859656535089015961e-03
-6.198110431432723999e-02
-5.413394793868064880e-02
-9.726829826831817627e-02
-1.016949862241744995e-01
1.614321619272232056e-01
-1.834358572959899902e-01
7.083339244127273560e-02
-5.399733781814575195e-02
7.074771821498870850e-02
-1.886541843414306641e-01
-1.029767841100692749e-01
-2.734445035457611084e-02
1.303271353244781494e-01
-2.400103583931922913e-02
-1.586835533380508423e-01
-2.600904107093811035e-01
5.438530072569847107e-02
-1.279239822179079056e-02
-2.539685182273387909e-02
1.863630264997482300e-01
-2.684572339057922363e-02
5.048363283276557922e-02
-4.425677284598350525e-02
-2.096494138240814209e-01
-1.203411221504211426e-01
1.100951209664344788e-01
8.119948208332061768e-02
4.644508007913827896e-03
-8.166115731000900269e-02
2.186477482318878174e-01
-6.513460725545883179e-02
3.046656399965286255e-02
-1.109714806079864502e-01
-7.690756767988204956e-02
-2.688377350568771362e-02
9.488885849714279175e-02
-4.811534658074378967e-02
2.124089151620864868e-01
-5.281388387084007263e-02
-5.406452342867851257e-02
9.867666661739349365e-02
-1.239353269338607788e-01
-4.508806392550468445e-02
-1.145016849040985107e-01
-1.228919103741645813e-01
6.836923956871032715e-02
-1.563268303871154785e-01
-1.359575390815734863e-01
-1.977899074554443359e-01
1.610760092735290527e-01
8.104270696640014648e-02
3.522013127803802490e-02
-1.160674616694450378e-01
1.564981415867805481e-02
1.151945218443870544e-01
-6.051329523324966431e-02
2.058826386928558350e-02
1.029636412858963013e-01
-5.502622947096824646e-02
-3.216447308659553528e-02
2.207099199295043945e-01
-5.893548578023910522e-02
6.350189447402954102e-02
-1.440992951393127441e-01
-2.525676190853118896e-01
1.029628291726112366e-01
5.406180024147033691e-02
-1.046632677316665649e-01
5.220298841595649719e-02
1.979517564177513123e-02
-8.698964118957519531e-02
4.831784591078758240e-02
-4.017785191535949707e-02
-3.883386403322219849e-02
4.760599508881568909e-02
1.686701178550720215e-01
-1.268103271722793579e-01
-7.426467258483171463e-03
-7.969817519187927246e-02
1.042708456516265869e-01
1.257849764078855515e-02
7.384168356657028198e-02
1.201919987797737122e-01
-5.224170908331871033e-02
-8.704043179750442505e-02
3.152575716376304626e-02
1.183784902095794678e-01
1.014245003461837769e-01
1.800283640623092651e-01
1.639414578676223755e-01
-1.885580122470855713e-01
-6.838960945606231689e-02
3.680967912077903748e-02
3.899377305060625076e-03
4.799201339483261108e-02
-4.968305304646492004e-02
-1.475942134857177734e-01
4.528919700533151627e-03
-6.638024002313613892e-02
-2.031969139352440834e-03
-4.678839072585105896e-02
2.737450227141380310e-02
-7.309582084417343140e-02
6.301121413707733154e-02
-3.730304539203643799e-02
7.379785925149917603e-02
-1.255591306835412979e-02
5.505950376391410828e-02
4.073755349963903427e-03
1.393132656812667847e-01
-5.740712955594062805e-02
1.189639940857887268e-01
8.684495836496353149e-02
-3.713991492986679077e-02
-2.219161577522754669e-02
-1.872781896963715553e-03
8.972604572772979736e-02
1.147926524281501770e-01
-1.461848244071006775e-02
-3.934614732861518860e-02
-1.523026376962661743e-01
1.215474400669336319e-02
-8.876361697912216187e-02
-1.198055967688560486e-01
-6.512334197759628296e-02
1.899402402341365814e-02
-4.122094810009002686e-02
-1.375111788511276245e-01
-4.027691483497619629e-02
5.734088271856307983e-02
1.066794320940971375e-01
1.467997301369905472e-02
2.750179916620254517e-02
-5.274558439850807190e-02
1.407584100961685181e-01
1.150772497057914734e-01
-7.995916157960891724e-02
-1.682664826512336731e-02
1.728399470448493958e-02
8.507062494754791260e-02
1.033373773097991943e-01
-1.142285913228988647e-01
-1.364164948463439941e-01
9.608902782201766968e-02
7.929587736725807190e-03
8.703217655420303345e-02
-3.152595460414886475e-02
5.530870519578456879e-03
1.299678161740303040e-02
-5.805821623653173447e-03
-3.503262624144554138e-02
-1.434082537889480591e-01
4.461582005023956299e-02
-1.637242175638675690e-02
6.983376294374465942e-02
-1.655450314283370972e-01
6.623905897140502930e-02
-1.230475008487701416e-01
-1.273606717586517334e-01
-6.114830449223518372e-02
4.503247141838073730e-02
2.758372128009796143e-01
6.855722516775131226e-02
-8.697719871997833252e-02
-4.622788727283477783e-02
1.403931081295013428e-01
7.492929697036743164e-02
-5.714265629649162292e-02
2.563015744090080261e-02
-1.415126323699951172e-01
-1.385715752840042114e-01
6.816940009593963623e-02
4.661017283797264099e-02
2.053576894104480743e-02
-4.821682348847389221e-03
1.288067102432250977e-01
-1.572458632290363312e-02
-1.513236314058303833e-01
1.342168729752302170e-02
1.030513346195220947e-01
2.128016650676727295e-01
3.679335489869117737e-02
7.191002368927001953e-02
-3.891080245375633240e-02
-2.762032113969326019e-02
-3.695985302329063416e-02
8.295251987874507904e-03
-9.180540591478347778e-02
1.525322049856185913e-01
-5.013942718505859375e-02
-1.471074763685464859e-02
4.854057729244232178e-02
1.268137246370315552e-01
3.331804275512695312e-02
-4.302215576171875000e-02
-1.037001088261604309e-01
-1.040903665125370026e-02
-1.154841631650924683e-01
-7.654783874750137329e-02
-3.653043508529663086e-02
-4.074521828442811966e-03
-7.837574183940887451e-02
-4.276125133037567139e-02
7.599425315856933594e-02
4.765968397259712219e-02
-7.060791552066802979e-02
-2.487655729055404663e-02
-6.601273268461227417e-02
-1.012026425451040268e-02
-1.363619267940521240e-01
-2.584396488964557648e-02
-9.103950113058090210e-02
2.985504455864429474e-02
-9.567364468239247799e-04
8.240097016096115112e-02
-2.528497204184532166e-02
-2.440559864044189453e-02
-7.690955698490142822e-02
-9.550385177135467529e-02
9.705182909965515137e-02
-9.314481914043426514e-02
-6.501658353954553604e-03
3.715407848358154297e-02
8.564327657222747803e-02
-2.212626487016677856e-02
2.453265525400638580e-02
7.542536407709121704e-02
2.062743902206420898e-02
2.423929283395409584e-03
4.519030451774597168e-02
-1.809192937798798084e-03
-1.214727312326431274e-01
1.715476997196674347e-02
-1.569010689854621887e-02
6.714460905641317368e-03
-1.038021370768547058e-01
-9.304479695856571198e-03
7.576387375593185425e-03
1.571061275899410248e-02
-6.399884819984436035e-02
2.122888341546058655e-02
-6.403960287570953369e-02
4.084359481930732727e-02
8.887047320604324341e-02
-1.070674061775207520e-01
1.396852917969226837e-02
1.010956391692161560e-01
-1.023786738514900208e-01
3.747244179248809814e-02
-3.486299887299537659e-02
-9.455048292875289917e-02
-9.230955690145492554e-02
1.435839105397462845e-02
5.124829709529876709e-02
8.423021435737609863e-02
1.905100978910923004e-02
1.491333730518817902e-02
-8.549810945987701416e-02
-8.186094462871551514e-02
-8.517189323902130127e-02
-3.893322125077247620e-02
2.706579864025115967e-02
5.091820377856492996e-03
5.893410369753837585e-02
-8.698906004428863525e-02
1.166886556893587112e-02
-6.329815834760665894e-02
-6.170136854052543640e-02
-4.762458056211471558e-02
6.223465874791145325e-02
6.175678968429565430e-02
7.939267903566360474e-02
2.277270890772342682e-02
-1.755977049469947815e-02
-7.394456304609775543e-03
-2.576139569282531738e-02
7.143599539995193481e-02
-8.054262399673461914e-02
-7.519534975290298462e-02
6.351568549871444702e-02
1.056393887847661972e-02
5.440346896648406982e-02
-7.438997924327850342e-02
4.988779872655868530e-02
4.876741394400596619e-02
-6.227461993694305420e-02
-7.990433275699615479e-02
-5.709789320826530457e-02
-3.983247652649879456e-02
1.456307768821716309e-01
-1.460127439349889755e-02
1.948697678744792938e-02
9.129884839057922363e-02
2.719031088054180145e-02
2.464203163981437683e-02
-9.515034407377243042e-02
8.976499550044536591e-03
-6.163316220045089722e-02
-4.439623095095157623e-03
-5.332163721323013306e-02
-3.123019263148307800e-02
-8.488960564136505127e-02
4.147755727171897888e-02
4.376025125384330750e-02
8.211552165448665619e-03
-1.484296843409538269e-02
1.557239741086959839e-01
-1.390556991100311279e-02
1.413713991641998291e-01
-2.327647358179092407e-01
-8.401437103748321533e-02
6.193843670189380646e-03
-9.081437438726425171e-02
1.126843243837356567e-01
-5.164157971739768982e-02
-5.700588598847389221e-02
3.836680948734283447e-02
-1.746206432580947876e-01
3.288159519433975220e-02
4.326238855719566345e-02
4.714195802807807922e-02
-9.115476161241531372e-02
2.396836280822753906e-01
-7.346462458372116089e-02
1.087622046470642090e-01
-1.134269684553146362e-01
3.209101408720016479e-02
1.539938617497682571e-02
-2.230046316981315613e-02
-2.292167767882347107e-02
3.982094582170248032e-03
1.159681845456361771e-02
9.394367039203643799e-02
2.045007944107055664e-01
4.942040517926216125e-02
-1.097770258784294128e-01
-9.679500944912433624e-03
1.020274460315704346e-01
-6.710591167211532593e-02
-4.552680999040603638e-02
-2.453849464654922485e-01
4.303172975778579712e-02
1.229459494352340698e-01
4.720376804471015930e-02
2.281374633312225342e-01
-2.052740305662155151e-01
1.016698926687240601e-01
-1.481544375419616699e-01
2.119972743093967438e-02
4.000035300850868225e-02
-9.666091203689575195e-02
-5.275831744074821472e-02
-4.741832613945007324e-02
-3.994037210941314697e-02
-2.193180769681930542e-01
1.131462454795837402e-01
5.435926839709281921e-02
3.455266728997230530e-02
1.255422830581665039e-01
-4.190373048186302185e-02
8.971535600721836090e-03
-2.462845668196678162e-02
4.430062696337699890e-02
-1.151139885187149048e-01
6.749036721885204315e-03
-2.126635462045669556e-01
-1.331047415733337402e-01
5.010673776268959045e-02
-4.127349704504013062e-02
-7.727043330669403076e-02
-9.633137285709381104e-02
-3.369948267936706543e-02
-2.010886371135711670e-01
-1.238711327314376831e-01
6.894507259130477905e-02
-1.114975661039352417e-01
-1.267242729663848877e-01
5.721243470907211304e-02
-1.905736327171325684e-02
-1.079807355999946594e-01
9.338229894638061523e-02
-1.121301501989364624e-01
1.382926106452941895e-01
1.191195994615554810e-01
-1.401796657592058182e-02
6.707213073968887329e-02
-7.457920908927917480e-02
-5.606929212808609009e-02
3.343457356095314026e-02
-8.159393072128295898e-02
1.333698164671659470e-02
5.129262339323759079e-03
1.032122522592544556e-01
1.290462911128997803e-01
4.405786097049713135e-02
7.752614468336105347e-02
-1.188730448484420776e-01
7.089896500110626221e-02
2.224188297986984253e-02
-3.263951465487480164e-02
1.045976579189300537e-01
5.606083571910858154e-02
1.876068860292434692e-01
1.498923450708389282e-01
1.003245338797569275e-01
-2.262423001229763031e-02
1.438305974006652832e-01
8.287023752927780151e-02
2.623582780361175537e-01
5.469956248998641968e-02
1.587850898504257202e-01
7.589094340801239014e-02
-3.776170685887336731e-02
4.809912759810686111e-03
-3.659137338399887085e-02
-1.184337958693504333e-01
-2.799432352185249329e-02
1.279631555080413818e-01
1.741550117731094360e-02
-3.250207379460334778e-02
4.423935338854789734e-02
-8.122712373733520508e-02
4.514875356107950211e-03
1.255586147308349609e-01
2.035527229309082031e-01
-1.436863243579864502e-01
9.000081568956375122e-03
5.121624562889337540e-03
2.159591391682624817e-02
-7.874514907598495483e-02
2.431060001254081726e-02
7.720018178224563599e-02
7.754859328269958496e-02
-6.410381942987442017e-02
-6.463454663753509521e-02
3.083721362054347992e-02
1.682176813483238220e-02
5.208746343851089478e-02
-1.218092963099479675e-01
2.281441586092114449e-03
-9.544066339731216431e-02
-3.827156871557235718e-02
5.306063964962959290e-02
-6.391177326440811157e-02
-2.534100227057933807e-02
-7.623673975467681885e-02
-1.356919854879379272e-01
8.056230098009109497e-02
1.596014201641082764e-01
-7.541643083095550537e-02
-8.246160298585891724e-02
7.682142406702041626e-02
1.068826839327812195e-01
-9.927164018154144287e-02
1.919786185026168823e-01
-1.558898687362670898e-01
8.894824981689453125e-02
8.896715939044952393e-02
4.227196332067251205e-03
7.971116900444030762e-02
-9.791860729455947876e-02
1.093552336096763611e-01
7.399957627058029175e-02
-8.085370995104312897e-03
5.274243280291557312e-02
2.422434650361537933e-02
-7.082907855510711670e-02
-3.268634527921676636e-02
-3.192548081278800964e-02
-4.677605256438255310e-02
-1.661233790218830109e-02
4.058562964200973511e-02
5.031700432300567627e-02
7.618425041437149048e-02
-8.653676509857177734e-02
7.229799032211303711e-02
-1.320458799600601196e-01
-8.613892644643783569e-02
2.440771460533142090e-02
-7.988563925027847290e-02
-4.513547942042350769e-02
9.356564283370971680e-02
-2.101485617458820343e-02
1.082337368279695511e-02
-6.401941925287246704e-02
1.132796052843332291e-02
6.881567183881998062e-03
1.756171584129333496e-01
1.323814243078231812e-01
-2.618168480694293976e-02
1.929805800318717957e-02
8.890026062726974487e-02
1.339272856712341309e-01
-9.406613558530807495e-02
1.108886003494262695e-01
-6.985138356685638428e-02
5.501939356327056885e-02
-8.953664451837539673e-02
2.924033068120479584e-02
4.308027774095535278e-02
-6.854513287544250488e-02
-5.381070077419281006e-02
2.527849748730659485e-02
9.912158548831939697e-02
5.284084472805261612e-03
-8.815784007310867310e-02
6.075496785342693329e-03
-4.762137681245803833e-02
-4.859352484345436096e-03
-1.810522973537445068e-01
3.796541690826416016e-02
-2.417488209903240204e-02
-4.072195664048194885e-02
1.202052310109138489e-01
-4.525915533304214478e-02
1.935516893863677979e-01
-5.755273252725601196e-02
-2.370856516063213348e-02
1.533530466258525848e-02
7.264446467161178589e-02
-6.925009936094284058e-02
-7.264370471239089966e-02
-8.898296952247619629e-02
7.809080928564071655e-02
-1.536388099193572998e-01
2.595071308314800262e-02
-7.627053186297416687e-03
6.653569638729095459e-02
1.117770448327064514e-01
5.837893486022949219e-02
-7.825566828250885010e-02
3.656901419162750244e-02
-8.772850036621093750e-02
1.524171382188796997e-01
-9.691136330366134644e-02
1.427689641714096069e-01
3.446210920810699463e-02
2.450193464756011963e-02
-2.992796152830123901e-02
8.934462815523147583e-02
7.902925834059715271e-03
3.392370417714118958e-02
-7.799064740538597107e-03
1.226322203874588013e-01
3.115769661962985992e-02
9.559851139783859253e-02
-1.654047220945358276e-01
-7.670965790748596191e-02
-3.132511302828788757e-02
1.678018122911453247e-01
1.207993701100349426e-01
2.314448729157447815e-02
7.238911092281341553e-02
-3.135932981967926025e-02
-4.059344902634620667e-02
-5.340271815657615662e-02
-4.748657718300819397e-02
1.096710935235023499e-02
-1.500062793493270874e-01
5.688002333045005798e-02
3.337194025516510010e-02
9.764707088470458984e-02
-4.040256142616271973e-02
-1.272228062152862549e-01
-5.753115564584732056e-02
3.010932356119155884e-02
-1.536085605621337891e-01
-1.804431676864624023e-01
9.290275163948535919e-03
-1.982023566961288452e-02
-4.067524150013923645e-02
-1.300327926874160767e-01
-8.130399137735366821e-02
-2.787690050899982452e-02
-1.009621936827898026e-02
3.778904303908348083e-02
6.919484585523605347e-02
1.506082564592361450e-01
-4.530809819698333740e-02
-1.665860265493392944e-01
5.166705325245857239e-02
-2.907080575823783875e-02
-8.002723008394241333e-02
7.338313013315200806e-02
2.269702702760696411e-01
5.923562124371528625e-02
-1.898022592067718506e-01
1.530971229076385498e-01
3.235680982470512390e-02
-1.009214147925376892e-01
1.225924268364906311e-01
-2.096520736813545227e-02
1.567149907350540161e-01
1.244877651333808899e-01
6.751277297735214233e-02
5.966885387897491455e-02
1.236051172018051147e-01
1.390332132577896118e-01
2.501668594777584076e-02
3.959774598479270935e-02
-4.937276244163513184e-02
2.925873175263404846e-02
-4.202312603592872620e-02
1.017878055572509766e-01
3.523797541856765747e-02
1.385860145092010498e-01
8.951202034950256348e-02
5.270108953118324280e-02
2.322680316865444183e-02
3.727361932396888733e-02
7.937476783990859985e-02
1.149445027112960815e-01
1.653231382369995117e-01
1.101556047797203064e-01
-1.410221159458160400e-01
5.501807108521461487e-02
1.345472931861877441e-01
1.027245074510574341e-02
-3.383800014853477478e-02
9.276235848665237427e-02
3.094138205051422119e-02
7.095496356487274170e-02
-2.009703069925308228e-01
4.827666096389293671e-03
6.237446144223213196e-02
-8.680775761604309082e-02
-4.429837688803672791e-03
2.565025724470615387e-02
2.717831544578075409e-02
4.126400128006935120e-02
-3.453465178608894348e-02
-2.443989738821983337e-02
1.685669086873531342e-02
5.583303049206733704e-02
6.604935973882675171e-02
3.884996846318244934e-02
9.295426309108734131e-02
-2.462047934532165527e-01
5.791414901614189148e-02
-3.975930809974670410e-02
-1.573993712663650513e-01
-7.183021306991577148e-02
-7.707184553146362305e-02
-1.230849772691726685e-01
7.752949744462966919e-02
7.296192646026611328e-02
-1.275433003902435303e-01
-9.346212260425090790e-03
3.315565735101699829e-02
-4.228672012686729431e-03
-1.677206531167030334e-02
-3.753416612744331360e-02
1.192249283194541931e-01
6.311678793281316757e-03
-9.511770308017730713e-02
-6.290620565414428711e-02
1.039079483598470688e-02
-1.228763908147811890e-01
1.768869459629058838e-01
7.028426229953765869e-02
4.206741228699684143e-02
3.840482980012893677e-02
-1.273960433900356293e-02
-1.060874536633491516e-01
-2.218706905841827393e-02
-5.698924418538808823e-03
-6.813497841358184814e-02
7.628856599330902100e-02
1.724848300218582153e-01
-1.726264655590057373e-01
2.022247463464736938e-01
6.791453063488006592e-02
-2.828768268227577209e-02
-1.017063781619071960e-01
-1.115025300532579422e-02
1.466329991817474365e-01
3.684224933385848999e-02
3.740088269114494324e-02
-1.169933006167411804e-01
-1.453423798084259033e-01
-5.871821567416191101e-02
-2.606373280286788940e-02
3.875700756907463074e-02
7.858705520629882812e-02
9.508524835109710693e-02
-7.925392687320709229e-02
-7.584537565708160400e-02
3.776281373575329781e-03
1.249733716249465942e-01
-5.443565547466278076e-03
2.982244826853275299e-02
8.734410256147384644e-02
-7.524710893630981445e-02
1.475269794464111328e-01
2.119063958525657654e-02
-6.041749194264411926e-02
3.853316977620124817e-02
9.821338951587677002e-02
6.196529604494571686e-03
-7.643843442201614380e-02
-3.093125671148300171e-02
2.313182130455970764e-02
2.749134302139282227e-01
4.618713632225990295e-03
-2.681699953973293304e-02
-7.458455860614776611e-02
6.435997784137725830e-04
3.073917701840400696e-03
-7.089968770742416382e-02
2.738690236583352089e-03
-4.316366463899612427e-02
-5.829475820064544678e-02
5.965939536690711975e-02
-3.777119517326354980e-02
-4.833562299609184265e-02
1.466407347470521927e-02
-4.385210573673248291e-02
-1.347917169332504272e-01
-2.529877983033657074e-02
-8.147894591093063354e-02
-1.851514577865600586e-01
5.138209834694862366e-02
-7.285092771053314209e-02
5.632695183157920837e-02
1.397724598646163940e-01
-7.931286096572875977e-02
1.388445943593978882e-01
5.537119880318641663e-02
1.257770210504531860e-01
-4.514927044510841370e-02
1.083323955535888672e-01
5.588001012802124023e-02
-3.426348045468330383e-02
-1.960271596908569336e-02
1.090424433350563049e-01
-7.717395573854446411e-02
1.852270960807800293e-02
4.303134605288505554e-02
-8.457935601472854614e-02
-8.049182593822479248e-02
3.921754658222198486e-02
-4.598543792963027954e-02
-1.242188513278961182e-01
1.486882269382476807e-01
1.095171179622411728e-02
2.910762093961238861e-02
-6.888648867607116699e-02
6.363242119550704956e-02
-1.369140744209289551e-01
-1.257646270096302032e-02
1.592615693807601929e-01
1.157533898949623108e-01
6.910168379545211792e-02
3.479017689824104309e-02
-4.792557656764984131e-02
2.354826033115386963e-02
-1.278237402439117432e-01
2.253648266196250916e-02
1.025506928563117981e-01
-1.159739345312118530e-01
2.530030207708477974e-03
4.804911836981773376e-02
-4.744196683168411255e-02
-4.843617975711822510e-02
3.681791573762893677e-02
-1.794932782649993896e-02
5.378690361976623535e-02
-9.621933847665786743e-02
-6.171510741114616394e-02
1.552903354167938232e-01
-1.061184033751487732e-01
7.600144296884536743e-02
-2.518312260508537292e-02
-1.297673881053924561e-01
3.186745103448629379e-03
-4.265980422496795654e-02
7.622412592172622681e-02
-2.141115255653858185e-02
-9.240928292274475098e-02
3.847559168934822083e-02
3.603833913803100586e-02
-1.026776731014251709e-01
-9.444883465766906738e-02
5.927189067006111145e-02
-8.404731005430221558e-02
-5.087006092071533203e-02
4.944057017564773560e-02
-8.411259949207305908e-02
-1.624795608222484589e-02
-2.958065830171108246e-03
-8.293207734823226929e-03
1.511202473193407059e-02
1.054341346025466919e-02
-7.267104089260101318e-02
9.013007581233978271e-02
5.049004405736923218e-02
1.403595600277185440e-02
8.488033711910247803e-02
7.614959031343460083e-02
-4.699444025754928589e-02
5.446964502334594727e-02
-1.001512333750724792e-01
1.089468002319335938e-01
7.612227648496627808e-02
2.878001518547534943e-02
-4.460730031132698059e-02
2.003904432058334351e-03
1.238574609160423279e-01
9.644699096679687500e-02
-4.850417375564575195e-02
-2.912167273461818695e-02
4.280814528465270996e-02
5.078139156103134155e-02
2.159046940505504608e-02
1.170841604471206665e-01
-1.336982822977006435e-03
9.405763447284698486e-02
1.898735910654067993e-01
-5.231675133109092712e-02
4.930087551474571228e-02
-8.772405982017517090e-02
-5.573872849345207214e-02
4.335772991180419922e-02
-1.787117682397365570e-02
-5.956219509243965149e-03
9.446685761213302612e-02
-9.648421779274940491e-03
7.978131063282489777e-03
-6.121931597590446472e-03
-2.800195105373859406e-02
-7.424277067184448242e-02
1.471144855022430420e-01
6.866979598999023438e-02
-8.437144011259078979e-02
-4.032701253890991211e-02
-9.327041357755661011e-02
1.399912685155868530e-02
5.710389092564582825e-02
1.094311699271202087e-01
-1.629179269075393677e-01
-7.698089629411697388e-02
8.058530092239379883e-02
-1.877078600227832794e-02
2.890962734818458557e-02
5.862220376729965210e-02
-1.420716196298599243e-01
-1.049263402819633484e-01
2.481398358941078186e-02
6.387117505073547363e-02
-1.172632351517677307e-01
5.712077021598815918e-02
-6.774293631315231323e-02
1.387353893369436264e-02
-3.280496224761009216e-02
-2.073190920054912567e-02
3.579455241560935974e-02
-2.558532729744911194e-02
-1.079061161726713181e-02
-4.459111019968986511e-02
1.796066947281360626e-02
-7.824396714568138123e-03
-1.523878425359725952e-02
8.652376383543014526e-02
1.266017742455005646e-02
9.906425327062606812e-02
-1.884513497352600098e-01
-3.396765515208244324e-02
-1.147148534655570984e-01
7.615663856267929077e-02
4.404584690928459167e-02
1.133018359541893005e-02
3.185683488845825195e-02
9.994546882808208466e-03
1.372309774160385132e-01
6.915966421365737915e-02
1.249697431921958923e-01
2.771694399416446686e-02
-3.334881365299224854e-02
4.274740070104598999e-02
5.133977904915809631e-02
9.712240099906921387e-02
-6.507849693298339844e-02
2.101546525955200195e-02
5.662529543042182922e-02
-5.478778108954429626e-02
-9.425657987594604492e-02
-7.943071424961090088e-02
4.567050933837890625e-02
7.262763381004333496e-02
9.110482782125473022e-02
4.764378443360328674e-02
9.435559809207916260e-02
-4.940308257937431335e-02
5.347086116671562195e-02
-7.317047566175460815e-02
7.236866652965545654e-02
-9.492369741201400757e-02
1.101676672697067261e-01
4.800398647785186768e-02
-1.295171491801738739e-02
1.791286319494247437e-01
8.663102053105831146e-03
3.593513369560241699e-02
-8.371851593255996704e-02
-7.344777882099151611e-02
9.320351481437683105e-02
3.063702024519443512e-02
1.014496460556983948e-01
-4.052666947245597839e-02
-6.859068572521209717e-02
2.013585902750492096e-02
8.482398092746734619e-02
1.678887009620666504e-02
4.334352910518646240e-02
-4.083295166492462158e-02
-6.871189922094345093e-02
-5.804807320237159729e-02
2.441011182963848114e-02
1.018204092979431152e-01
6.470195204019546509e-02
5.905414000153541565e-02
-1.397151947021484375e-01
8.018093556165695190e-02
4.295632615685462952e-02
5.820661317557096481e-03
1.575469076633453369e-01
-3.491640463471412659e-02
-1.220540106296539307e-01
-1.136119216680526733e-01
5.675326287746429443e-02
3.491266816854476929e-02
-4.376178234815597534e-02
5.408135429024696350e-02
4.536136612296104431e-02
-2.929980121552944183e-02
-5.442669615149497986e-02
-5.603073164820671082e-02
-8.348245173692703247e-02
6.184667348861694336e-02
1.019726842641830444e-01
-9.183391928672790527e-02
3.161009773612022400e-02
-3.412361070513725281e-02
5.460862070322036743e-03
8.545084297657012939e-02
2.042499780654907227e-01
5.729937180876731873e-02
7.057578116655349731e-02
-1.663684658706188202e-02
-1.896479576826095581e-01
-4.218013957142829895e-02
3.336546942591667175e-02
-9.654152393341064453e-02
-1.001885607838630676e-01
-7.087463885545730591e-02
-8.299145847558975220e-02
1.738445460796356201e-02
-9.789809584617614746e-03
2.712730690836906433e-02
-7.548763602972030640e-02
1.099365472327917814e-04
-7.349852472543716431e-03
-3.194979950785636902e-02
2.869060821831226349e-02
7.712502032518386841e-02
3.989428747445344925e-03
4.317647591233253479e-02
-9.576443582773208618e-02
-9.767255932092666626e-02
1.333444416522979736e-01
1.207247674465179443e-01
-9.888218343257904053e-02
-7.187189161777496338e-02
-1.135638635605573654e-02
1.065905764698982239e-01
-3.344262391328811646e-02
2.936026453971862793e-02
5.795730650424957275e-02
3.278741985559463501e-02
8.241516537964344025e-03
-2.050161920487880707e-02
-1.832141727209091187e-02
1.074173226952552795e-01
-2.363003231585025787e-02
-6.186956539750099182e-02
6.505054235458374023e-02
3.089334070682525635e-02
-8.068303577601909637e-03
-6.408451497554779053e-02
-3.209720179438591003e-02
-6.487391144037246704e-02
1.186011284589767456e-01
5.632618814706802368e-02
-8.224757760763168335e-02
-5.729860439896583557e-02
8.947573369368910789e-04
4.126670211553573608e-02
1.995064876973628998e-02
4.381690919399261475e-02
-7.013908773660659790e-02
1.814226619899272919e-02
2.626298740506172180e-02
-1.725660264492034912e-02
8.854017406702041626e-02
8.153621107339859009e-03
-8.536967635154724121e-02
2.318472415208816528e-02
-7.419579476118087769e-02
-1.301074307411909103e-02
6.436283234506845474e-03
1.174338385462760925e-01
1.206284835934638977e-01
9.809795767068862915e-02
8.178447186946868896e-02
6.972121447324752808e-02
-6.541908532381057739e-02
1.089160665869712830e-01
6.369914859533309937e-02
-1.043463498353958130e-01
2.113382332026958466e-02
-8.997591584920883179e-02
-4.758046939969062805e-02
3.053849376738071442e-02
-4.025674983859062195e-02
-1.833170801401138306e-01
-8.514370769262313843e-02
1.409031003713607788e-01
-2.036287821829319000e-02
2.279411554336547852e-01
9.641536325216293335e-02
-2.967148646712303162e-02
-6.767261773347854614e-02
1.908506602048873901e-01
1.718816310167312622e-01
-6.497604399919509888e-02
2.076653540134429932e-01
-8.129964768886566162e-02
1.060438156127929688e-01
-1.464416831731796265e-01
-1.332419514656066895e-01
6.337029486894607544e-02
3.501217439770698547e-02
2.106006145477294922e-01
-1.302198469638824463e-01
-3.137162700295448303e-02
7.207571715116500854e-02
2.920825220644474030e-02
2.985222637653350830e-02
1.154441311955451965e-01
-1.148346364498138428e-01
-6.672050058841705322e-02
1.166209280490875244e-01
-3.956080600619316101e-02
3.835916146636009216e-02
-7.119511067867279053e-02
-1.756561398506164551e-01
-7.948036491870880127e-02
-1.017656847834587097e-01
-1.062184274196624756e-01
1.132887694984674454e-02
7.043781876564025879e-02
-4.970495402812957764e-02
2.403655787929892540e-03
4.752763733267784119e-02
-7.747644186019897461e-02
5.528872087597846985e-02
1.542403399944305420e-01
-2.537291646003723145e-01
4.629502072930335999e-02
-4.119626432657241821e-02
1.206026896834373474e-01
4.913924727588891983e-03
-2.094452083110809326e-01
6.429914385080337524e-03
-1.498430818319320679e-01
-8.855535089969635010e-02
8.888760209083557129e-02
-1.001788899302482605e-01
-1.101520881056785583e-01
1.633232645690441132e-02
-4.782665520906448364e-02
-2.563034556806087494e-02
-1.129445135593414307e-01
-4.993943125009536743e-02
1.342383772134780884e-01
-1.430002152919769287e-01
2.997364476323127747e-02
-1.500213146209716797e-01
-1.539171040058135986e-01
-2.911393530666828156e-02
1.002117618918418884e-01
-1.284526586532592773e-01
5.959584936499595642e-02
1.291460543870925903e-01
-6.684322655200958252e-02
2.222458720207214355e-01
-3.714921697974205017e-02
-7.378888875246047974e-02
1.428262442350387573e-01
1.184637472033500671e-02
-1.595274545252323151e-02
-3.688921779394149780e-02
1.473752558231353760e-01
2.384803146123886108e-01
-6.723216921091079712e-02
1.243905574083328247e-01
5.223252996802330017e-02
-8.899948000907897949e-02
1.871130764484405518e-01
-9.252105653285980225e-02
3.941778838634490967e-02
-1.039393991231918335e-01
-6.427467614412307739e-02
4.488484468311071396e-03
-5.452015623450279236e-02
-1.113795023411512375e-02
-4.568574577569961548e-02
3.766182437539100647e-02
1.129830032587051392e-01
-1.111045777797698975e-01
-1.748462766408920288e-01
1.381355524063110352e-01
7.722417265176773071e-02
-1.465131193399429321e-01
-7.505983859300613403e-02
1.729763299226760864e-02
1.255713701248168945e-01
-1.015222743153572083e-01
8.265432715415954590e-02
1.739060729742050171e-01
-9.645152837038040161e-02
-8.150078356266021729e-02
-1.443468630313873291e-01
1.449682116508483887e-01
-9.932466782629489899e-03
1.771368831396102905e-01
1.819578707218170166e-01
1.411065012216567993e-01
-2.012426853179931641e-01
-1.085423305630683899e-01
1.490055918693542480e-01
1.309123784303665161e-01
8.052680641412734985e-02
2.315403372049331665e-01
5.257546901702880859e-02
-8.139416575431823730e-02
-1.025039777159690857e-01
4.962680861353874207e-02
3.809734806418418884e-02
-7.612578570842742920e-02
-6.856218725442886353e-02
1.443783193826675415e-01
-9.244012832641601562e-02
8.382254838943481445e-02
-2.412290498614311218e-02
6.932520121335983276e-02
-9.783214330673217773e-02
-2.521977946162223816e-02
1.449753344058990479e-02
1.309864372014999390e-01
8.565992116928100586e-02
9.175073355436325073e-02
4.781974852085113525e-02
-6.546964496374130249e-02
-6.116079911589622498e-02
-1.165821962058544159e-02
7.522166520357131958e-02
1.152546852827072144e-01
8.129921555519104004e-02
-3.636062517762184143e-02
-8.994837105274200439e-02
3.554101288318634033e-02
1.154222860932350159e-01
-7.094811648130416870e-02
-4.010100662708282471e-02
2.986302971839904785e-02
1.314744055271148682e-01
-9.148556739091873169e-02
7.032652199268341064e-02
5.059654638171195984e-02
-1.686028689146041870e-01
-2.647834271192550659e-02
8.903682231903076172e-02
1.493310648947954178e-02
1.757310330867767334e-02
3.017035871744155884e-02
-1.514867413789033890e-03
6.635937094688415527e-02
1.418346073478460312e-02
1.107602473348379135e-02
-1.035113930702209473e-01
7.146873325109481812e-02
7.979014515876770020e-02
-8.606100827455520630e-02
-1.834860146045684814e-01
-7.167173177003860474e-02
2.683705277740955353e-02
-1.248353859409689903e-03
-3.509452566504478455e-02
-5.328106880187988281e-02
2.872391790151596069e-02
-2.445223275572061539e-03
-8.953338116407394409e-02
-4.293204843997955322e-02
7.823187857866287231e-02
5.241129174828529358e-02
1.098886281251907349e-01
-4.272972419857978821e-02
1.894753426313400269e-02
-2.311228401958942413e-02
-5.297340452671051025e-02
-2.668015472590923309e-02
1.594720035791397095e-01
1.508165732957422733e-03
-7.523860037326812744e-02
-4.698081314563751221e-02
-8.666169829666614532e-03
8.629817515611648560e-02
7.838610559701919556e-02
-6.457045674324035645e-02
-7.224421948194503784e-02
-1.748740300536155701e-02
7.404198497533798218e-02
3.131872415542602539e-02
2.032691054046154022e-02
1.772624440491199493e-02
9.784834086894989014e-02
-1.803211867809295654e-01
-5.933313444256782532e-02
-3.955873474478721619e-02
-8.674629032611846924e-02
4.964624717831611633e-02
-1.461165305227041245e-02
1.025727167725563049e-01
3.051017411053180695e-02
-4.883377999067306519e-02
3.832056885585188866e-03
1.143073439598083496e-01
-4.516084492206573486e-02
-8.286627382040023804e-02
-1.268659438937902451e-02
-3.924498707056045532e-02
4.259395971894264221e-02
-5.029625818133354187e-02
-9.529397636651992798e-02
-1.596245318651199341e-01
1.376038342714309692e-01
-7.607866823673248291e-02
-1.919312961399555206e-02
1.188165917992591858e-01
-2.707809442654252052e-03
3.363876370713114738e-03
-8.398561924695968628e-02
5.185116827487945557e-02
-2.886934950947761536e-02
1.253914535045623779e-01
9.933806955814361572e-02
-1.906359009444713593e-02
-1.007214859127998352e-01
8.775911293923854828e-03
-3.093038219958543777e-03
1.145403981208801270e-01
8.137325942516326904e-02
1.175590883940458298e-02
-1.037453711032867432e-01
1.344049125909805298e-01
-1.157762780785560608e-01
3.197007998824119568e-02
2.674159593880176544e-02
-9.465843439102172852e-02
-1.180851235985755920e-01
4.762875661253929138e-02
4.073590040206909180e-02
1.611982658505439758e-02
-1.549403667449951172e-01
-3.629959421232342720e-03
-6.968856602907180786e-02
-6.299687176942825317e-02
1.138857826590538025e-01
-9.655731171369552612e-02
-1.000928804278373718e-01
-9.261199831962585449e-02
-1.391797959804534912e-01
9.186215465888381004e-04
-6.280750781297683716e-02
-8.130956441164016724e-02
7.581181358546018600e-03
-1.210060715675354004e-02
3.773339092731475830e-02
2.225318253040313721e-01
7.968798279762268066e-02
-2.195640932768583298e-03
-3.854664415121078491e-02
-4.677327722311019897e-02
3.120085783302783966e-02
-1.468334794044494629e-01
-1.383386254310607910e-01
-1.090205088257789612e-01
5.220073461532592773e-02
6.971550732851028442e-02
3.222272172570228577e-02
5.843004584312438965e-02
-1.287910044193267822e-01
-1.501957699656486511e-02
-3.554945345968008041e-03
8.807345479726791382e-02
-1.310247648507356644e-02
1.127935796976089478e-01
9.864551015198230743e-03
1.491756737232208252e-01
4.306975752115249634e-02
-1.404776424169540405e-01
-3.739029169082641602e-02
8.852640539407730103e-02
3.364705666899681091e-02
-3.545015305280685425e-02
8.462177356705069542e-04
-7.030832022428512573e-02
-3.977156430482864380e-02
9.702939540147781372e-02
8.421447873115539551e-02
2.185506001114845276e-02
-5.527031794190406799e-02
-8.790562301874160767e-02
7.779848575592041016e-02
7.512348145246505737e-02
1.247657760977745056e-01
-9.227102994918823242e-02
3.343195840716362000e-02
5.185988545417785645e-02
-1.275223642587661743e-01
-6.005637347698211670e-02
1.860089413821697235e-02
-2.085198648273944855e-02
8.308368921279907227e-02
-5.926211178302764893e-02
-9.107739478349685669e-02
7.160504162311553955e-02
3.957613930106163025e-02
-1.491764038801193237e-01
1.153053063899278641e-02
-1.996555179357528687e-02
1.023231670260429382e-01
1.700005382299423218e-01
-1.188203394412994385e-01
-1.376485228538513184e-01
-4.167908057570457458e-02
1.893383115530014038e-01
-2.141921669244766235e-01
8.574875444173812866e-02
1.258699148893356323e-01
1.314024776220321655e-01
4.645153880119323730e-02
-8.063608407974243164e-02
5.405188724398612976e-02
-3.636739775538444519e-02
1.357720494270324707e-01
1.121652796864509583e-01
1.022423617541790009e-02
-2.033125311136245728e-01
-1.730954274535179138e-03
2.487175725400447845e-02
6.301347911357879639e-02
1.522935181856155396e-01
4.250944778323173523e-02
8.850618451833724976e-02
1.715059280395507812e-01
8.147943019866943359e-02
1.263671219348907471e-01
1.075635030865669250e-01
8.201284334063529968e-03
-2.710166759788990021e-02
5.583570897579193115e-02
1.273896843194961548e-01
-6.138396263122558594e-02
9.521283954381942749e-02
5.468881223350763321e-03
7.775548845529556274e-02
4.350619390606880188e-02
-1.023705825209617615e-01
-1.643961966037750244e-01
-4.573374520987272263e-03
9.348960965871810913e-02
8.534364402294158936e-02
1.655732840299606323e-01
-2.232893602922558784e-03
5.868889763951301575e-02
-4.038801789283752441e-02
5.001140385866165161e-02
1.785589009523391724e-02
-8.502029627561569214e-02
4.095119610428810120e-02
4.917797446250915527e-02
-7.444276660680770874e-02
2.859155833721160889e-02
-6.955716013908386230e-02
-4.279161803424358368e-03
-2.238902822136878967e-02
2.722935192286968231e-02
-5.042395740747451782e-02
3.961053118109703064e-02
8.650198578834533691e-02
8.246671408414840698e-02
-1.263470202684402466e-02
9.000661224126815796e-02
-8.523364365100860596e-02
-5.502569023519754410e-03
-5.203364416956901550e-02
3.046020492911338806e-02
-1.033186763525009155e-01
2.913206443190574646e-02
-5.124203115701675415e-02
-2.566314861178398132e-02
-2.622759714722633362e-02
7.092377543449401855e-02
-6.686593592166900635e-02
-7.530729472637176514e-02
6.762333214282989502e-02
8.459287881851196289e-02
-2.971955575048923492e-03
-1.131699085235595703e-01
-6.645756214857101440e-02
-3.372107818722724915e-02
-1.030753329396247864e-01
5.788433551788330078e-02
-4.504516720771789551e-02
-2.467496506869792938e-02
-5.863108113408088684e-02
-3.563205897808074951e-02
-6.722316145896911621e-02
-2.926428802311420441e-02
1.184112671762704849e-02
-4.949812963604927063e-02
-5.688924342393875122e-02
1.367917191237211227e-02
5.976144224405288696e-03
6.579019129276275635e-02
-8.221111446619033813e-02
-1.699902303516864777e-02
-9.148015081882476807e-02
6.542314589023590088e-02
4.587868601083755493e-02
4.455643706023693085e-03
8.584771305322647095e-02
2.164083719253540039e-02
1.080794185400009155e-01
-1.654719002544879913e-02
2.666068263351917267e-02
-7.363785803318023682e-02
4.530066624283790588e-02
-7.229748368263244629e-02
-7.659868150949478149e-02
4.393092915415763855e-02
-8.053451776504516602e-02
-4.376195371150970459e-02
-2.204014733433723450e-02
6.783989816904067993e-02
3.268234059214591980e-02
-2.902605757117271423e-02
5.860188230872154236e-02
-7.254063338041305542e-02
1.738195121288299561e-02
-4.877057299017906189e-02
6.600362807512283325e-02
-4.658322036266326904e-02
8.435972779989242554e-02
8.923418074846267700e-02
2.719471417367458344e-02
-4.697636142373085022e-02
-1.003150269389152527e-02
