4.755389392375946045e-01
-3.763177096843719482e-01
-1.733342707157135010e-01
1.859400570392608643e-01
3.827315196394920349e-02
-1.643685698509216309e-01
-7.293917983770370483e-02
2.220437861979007721e-02
1.944627314805984497e-01
2.741400599479675293e-01
-1.069693043828010559e-01
-1.987515389919281006e-01
8.545129001140594482e-02
-8.080906420946121216e-02
3.000534474849700928e-01
3.582324087619781494e-01
1.707352399826049805e-01
-1.849750578403472900e-01
-3.211738541722297668e-02
2.983010411262512207e-01
-5.218141674995422363e-01
2.619536519050598145e-01
8.951264619827270508e-02
-3.802088797092437744e-01
-6.891997996717691422e-03
2.790396511554718018e-01
-3.035466670989990234e-01
-1.716377288103103638e-01
-1.805650740861892700e-01
-1.965354979038238525e-01
-1.206441000103950500e-01
-1.580375432968139648e-01
-9.786440432071685791e-02
4.541889429092407227e-01
-3.760988414287567139e-01
-1.243101507425308228e-01
-4.922294989228248596e-02
-1.769292652606964111e-01
-5.626457929611206055e-02
3.810331523418426514e-01
-2.985418736934661865e-01
3.190732598304748535e-01
-3.685033321380615234e-01
-2.553046941757202148e-01
2.886804044246673584e-01
-6.500874459743499756e-02
1.688633561134338379e-01
-9.777287393808364868e-02
-2.084791809320449829e-01
2.479024976491928101e-01
-3.972593247890472412e-01
-2.326961308717727661e-01
2.761012911796569824e-01
3.788258135318756104e-01
-8.565083146095275879e-02
-5.106402635574340820e-01
2.705204486846923828e-01
4.482935369014739990e-01
1.212768256664276123e-01
2.349191159009933472e-01
-4.532438516616821289e-01
1.693330518901348114e-02
2.295016050338745117e-01
2.208866029977798462e-01
2.982205450534820557e-01
-3.219164535403251648e-02
1.938883513212203979e-01
3.805228471755981445e-01
1.224437355995178223e-01
-4.132692217826843262e-01
-2.359189838171005249e-02
3.396667242050170898e-01
-2.134334146976470947e-01
3.480994105339050293e-01
-2.341421246528625488e-01
-2.699663341045379639e-01
4.543470740318298340e-01
2.588114142417907715e-01
-5.751553922891616821e-02
-4.095321893692016602e-02
4.461550561245530844e-04
2.328127771615982056e-01
1.626244634389877319e-01
3.108469843864440918e-01
1.587707176804542542e-02
9.011151641607284546e-02
8.709730580449104309e-03
-5.463485419750213623e-02
-1.338422000408172607e-01
9.966135770082473755e-02
2.741218507289886475e-01
2.548200264573097229e-02
-3.955110013484954834e-01
3.802498579025268555e-01
4.051566123962402344e-01
-6.497722864151000977e-02
1.237104609608650208e-01
1.196957677602767944e-01
-2.452302724123001099e-01
1.930482238531112671e-01
4.006330668926239014e-01
-5.357813462615013123e-02
7.137346267700195312e-02
-9.179241955280303955e-02
-3.350222706794738770e-01
2.807185351848602295e-01
-9.292506426572799683e-02
7.987117022275924683e-02
-1.355445981025695801e-01
-1.223735958337783813e-01
3.463916853070259094e-02
-1.626765727996826172e-02
7.513484358787536621e-02
5.241960287094116211e-01
-2.483337074518203735e-01
-2.272405475378036499e-01
-1.219045594334602356e-01
-1.245138421654701233e-01
-1.172731071710586548e-01
1.283298991620540619e-02
3.096676804125308990e-02
2.606938481330871582e-01
-9.860033541917800903e-02
-5.781964585185050964e-02
-1.415053755044937134e-01
-2.092451155185699463e-01
-2.991953119635581970e-02
4.153604507446289062e-01
-2.253220230340957642e-01
-8.452300727367401123e-02
-9.563904255628585815e-02
-3.358875960111618042e-02
4.546492695808410645e-01
-1.493043005466461182e-01
-2.693502604961395264e-01
-1.386276539415121078e-02
-5.531765222549438477e-01
-4.101827368140220642e-02
3.554014861583709717e-01
-2.832828462123870850e-01
-1.525510847568511963e-01
-2.269899696111679077e-01
-2.279732078313827515e-01
3.479754626750946045e-01
5.617925524711608887e-02
-1.824179291725158691e-01
-9.766013920307159424e-02
-8.236408978700637817e-02
-1.845358014106750488e-01
2.206443995237350464e-02
-1.662134230136871338e-01
-1.563153117895126343e-01
-1.764957420527935028e-02
8.882407844066619873e-02
-2.412247061729431152e-01
2.917655110359191895e-01
3.352337181568145752e-01
-6.613472849130630493e-02
-9.921972639858722687e-03
-3.739321827888488770e-01
1.078548654913902283e-02
-3.142616748809814453e-01
-1.637889146804809570e-01
8.604682236909866333e-02
-1.063583865761756897e-01
-3.705901801586151123e-01
-8.420347422361373901e-02
-1.485519260168075562e-01
-1.268916726112365723e-01
4.127912223339080811e-02
-2.039647288620471954e-02
-2.243380993604660034e-01
-3.320562094449996948e-02
-3.391476869583129883e-01
4.943912103772163391e-02
-3.801877796649932861e-01
-3.045016154646873474e-02
4.511557519435882568e-02
-6.588281393051147461e-01
-1.509068012237548828e-01
4.226241707801818848e-01
1.992543488740921021e-01
3.192785009741783142e-02
-3.892001509666442871e-01
-9.421228617429733276e-02
-3.739426732063293457e-01
6.411545909941196442e-03
3.168879747390747070e-01
-2.512772083282470703e-01
-8.209189772605895996e-02
9.705960750579833984e-02
-7.273747026920318604e-02
3.001461327075958252e-01
3.318443894386291504e-01
2.214533090591430664e-01
6.490384042263031006e-02
-1.109746377915143967e-02
-2.780010402202606201e-01
-2.931616604328155518e-01
6.847979128360748291e-02
8.144394308328628540e-02
1.502029299736022949e-01
-4.425769746303558350e-01
1.074057966470718384e-01
-2.099559009075164795e-01
1.579920649528503418e-01
9.967404603958129883e-02
-4.186628162860870361e-01
-1.351176500320434570e-01
-1.026203483343124390e-01
1.713045686483383179e-02
-1.867302656173706055e-01
-1.278839111328125000e-01
4.312883615493774414e-01
-5.632143020629882812e-01
9.378809481859207153e-02
-3.235020861029624939e-02
3.797317296266555786e-02
1.908919513225555420e-01
-1.167899742722511292e-01
2.013303339481353760e-01
-2.112900912761688232e-01
-1.123868897557258606e-01
4.423806667327880859e-01
-3.156446218490600586e-01
5.483369231224060059e-01
3.684669733047485352e-01
-7.621226459741592407e-02
9.354295581579208374e-02
-6.071867942810058594e-01
3.341782689094543457e-01
-2.034773230552673340e-01
-4.109801948070526123e-01
-2.204468697309494019e-01
-1.389643847942352295e-01
4.440335631370544434e-01
2.426267266273498535e-01
1.281324625015258789e-01
2.978543341159820557e-01
-2.483446151018142700e-01
3.855492174625396729e-01
-1.073024198412895203e-01
2.722296118736267090e-01
2.331556081771850586e-01
1.660356819629669189e-01
2.763801813125610352e-01
-2.686835229396820068e-01
-3.197177648544311523e-01
3.407326340675354004e-01
-2.764437496662139893e-01
2.942152619361877441e-01
6.001502871513366699e-01
-2.938682138919830322e-01
2.822608053684234619e-01
-2.160301059484481812e-01
1.506965607404708862e-01
9.810955077409744263e-02
8.873449265956878662e-02
1.063624992966651917e-01
2.443213760852813721e-01
6.844604015350341797e-02
4.036364555358886719e-01
-1.601769775152206421e-01
-1.981095522642135620e-01
-4.611242115497589111e-01
-1.030723452568054199e-01
-2.699424326419830322e-01
-1.983451694250106812e-01
7.545433938503265381e-02
-1.697407215833663940e-01
4.726023972034454346e-02
-8.157978206872940063e-02
-1.452640891075134277e-01
-6.807947997003793716e-03
-2.272458821535110474e-01
2.601648569107055664e-01
3.233550190925598145e-01
-5.114127397537231445e-01
6.486478447914123535e-02
2.058621048927307129e-01
1.500214915722608566e-02
2.759867608547210693e-01
7.721464335918426514e-02
-1.159718111157417297e-01
-4.233750328421592712e-02
-1.613810956478118896e-01
-1.268664747476577759e-01
-2.449208172038197517e-03
4.030383229255676270e-01
1.242270469665527344e-01
-1.206861361861228943e-01
1.260620504617691040e-01
4.849878698587417603e-02
-1.927469223737716675e-01
-3.380078375339508057e-01
1.673237085342407227e-01
1.461630612611770630e-01
-1.580174118280410767e-01
5.250954627990722656e-02
4.374482482671737671e-02
1.505363136529922485e-01
2.570669949054718018e-01
-3.190133273601531982e-01
1.327126026153564453e-01
2.971662878990173340e-01
-2.631479203701019287e-01
-3.015809059143066406e-01
4.694602191448211670e-01
1.572199165821075439e-01
3.139636218547821045e-01
5.277942866086959839e-02
-2.304333299398422241e-01
1.987125724554061890e-01
-2.144249081611633301e-01
9.044463187456130981e-02
-1.816609352827072144e-01
2.413638830184936523e-01
1.605565249919891357e-01
4.927528277039527893e-02
-4.080730676651000977e-01
2.515379525721073151e-02
-8.756086230278015137e-02
2.404906898736953735e-01
-2.088960260152816772e-01
-1.872875541448593140e-01
8.243165165185928345e-02
1.925891488790512085e-01
2.778984308242797852e-01
-1.241064667701721191e-01
-1.228537932038307190e-01
2.284654378890991211e-01
3.989638686180114746e-01
-3.637960180640220642e-02
3.635384440422058105e-01
-9.226483106613159180e-02
-3.488098084926605225e-01
1.461216248571872711e-02
7.361380010843276978e-02
-2.492383718490600586e-01
-3.652444481849670410e-01
-1.111371219158172607e-01
1.907015293836593628e-01
-5.249959230422973633e-01
2.205945402383804321e-01
-2.176376283168792725e-01
2.354453504085540771e-01
3.954446017742156982e-01
-1.872014105319976807e-01
-2.989698350429534912e-01
-3.839060366153717041e-01
2.614493072032928467e-01
-3.379376828670501709e-01
-3.526391386985778809e-01
-2.210747823119163513e-02
-7.825450599193572998e-02
3.010337054729461670e-01
-4.638916254043579102e-02
1.662528216838836670e-01
1.847504824399948120e-01
6.009905338287353516e-01
1.357744261622428894e-02
-1.398801431059837341e-02
-1.668458729982376099e-01
8.190549165010452271e-02
3.715057671070098877e-01
-1.014507934451103210e-01
7.684296369552612305e-02
3.283137083053588867e-01
1.289348304271697998e-01
-1.844512224197387695e-01
1.675144769251346588e-02
1.115898415446281433e-02
3.553669154644012451e-01
-5.190074443817138672e-01
3.094358444213867188e-01
-1.310973465442657471e-01
-7.182339578866958618e-02
1.153440773487091064e-01
-3.016645908355712891e-01
-7.574304938316345215e-03
2.065353095531463623e-01
-3.001460433006286621e-01
3.268320858478546143e-01
1.652140319347381592e-01
-1.455594003200531006e-01
-3.255966901779174805e-01
1.542604714632034302e-01
1.739044040441513062e-01
-3.578243553638458252e-01
-2.490126788616180420e-01
1.046656146645545959e-01
6.608593463897705078e-01
1.994973570108413696e-01
1.545935273170471191e-01
1.396164745092391968e-01
2.216170579195022583e-01
3.042785227298736572e-01
4.599410593509674072e-01
-1.988274604082107544e-01
2.986750900745391846e-01
1.921456679701805115e-02
-2.040138542652130127e-01
4.007725417613983154e-02
7.066069543361663818e-02
1.155121475458145142e-01
3.520287871360778809e-01
-3.262662589550018311e-01
-1.611247807741165161e-01
5.749914050102233887e-01
-6.228826045989990234e-01
-1.296541392803192139e-01
1.115141212940216064e-01
-4.885932803153991699e-01
3.789409101009368896e-01
-1.425015479326248169e-01
-3.211338520050048828e-01
2.101109027862548828e-01
-1.757659763097763062e-01
5.346211791038513184e-01
1.601679921150207520e-01
4.270551800727844238e-01
-2.551739290356636047e-02
-2.889634966850280762e-01
-1.697402000427246094e-01
-1.322939395904541016e-01
-1.301272660493850708e-01
2.145504392683506012e-02
4.749394580721855164e-02
2.962212860584259033e-01
-2.211420685052871704e-01
8.073540031909942627e-02
4.865120649337768555e-01
3.102187812328338623e-01
-1.882954151369631290e-03
-1.649435423314571381e-02
-3.417629599571228027e-01
-8.980236016213893890e-03
-7.716517895460128784e-02
3.880831971764564514e-02
-5.011380314826965332e-01
2.981818318367004395e-01
-9.482087939977645874e-02
-5.911896936595439911e-03
-1.503121554851531982e-01
5.445328075438737869e-03
1.782147437334060669e-01
-2.276279926300048828e-01
1.982422173023223877e-01
-2.361367493867874146e-01
-3.260317742824554443e-01
1.005456000566482544e-01
-1.379421055316925049e-01
5.398327857255935669e-02
3.472885116934776306e-02
-3.879267349839210510e-02
-7.350706309080123901e-02
-4.933064430952072144e-02
1.254705190658569336e-01
-4.303417226765304804e-04
-3.800507187843322754e-01
6.261852569878101349e-03
6.613926589488983154e-02
5.312124639749526978e-02
1.607601195573806763e-01
-6.086687557399272919e-03
3.654398024082183838e-02
1.502168923616409302e-01
6.466953456401824951e-02
-4.301011562347412109e-02
5.590462684631347656e-02
1.091199368238449097e-01
-3.782726824283599854e-01
-3.257102966308593750e-01
-3.627551198005676270e-01
-1.058109924197196960e-01
-1.460800617933273315e-01
-2.208687812089920044e-01
-4.679701626300811768e-01
2.663293294608592987e-02
-7.307647168636322021e-02
1.058742776513099670e-01
1.307961158454418182e-02
-2.187749296426773071e-01
-4.732453450560569763e-02
-3.395914435386657715e-01
-5.960980430245399475e-02
2.024845033884048462e-01
1.227128729224205017e-01
1.026196405291557312e-01
-3.271095752716064453e-01
-5.317791923880577087e-02
2.173752188682556152e-01
-8.814930915832519531e-02
-1.006064116954803467e-01
-4.138266667723655701e-02
-2.651448547840118408e-01
2.941934764385223389e-01
2.994507551193237305e-01
3.649627268314361572e-01
4.338010847568511963e-01
-1.548066437244415283e-01
4.634443223476409912e-01
-1.832371652126312256e-01
-4.053704068064689636e-02
-2.336354553699493408e-01
-1.147773563861846924e-01
4.589520990848541260e-01
1.143680438399314880e-01
-5.039795637130737305e-01
-2.127748131752014160e-01
-3.846591338515281677e-02
-2.839201986789703369e-01
1.848934441804885864e-01
-3.894837498664855957e-01
1.928084716200828552e-02
-8.765485882759094238e-02
-4.631365239620208740e-01
2.851403057575225830e-01
1.482684463262557983e-01
4.318299591541290283e-01
-6.688881199806928635e-03
3.959504067897796631e-01
1.962759941816329956e-01
1.266895234584808350e-01
-3.335310220718383789e-01
1.560092717409133911e-01
-9.283558279275894165e-02
-2.627080976963043213e-01
2.029999643564224243e-01
1.152646690607070923e-01
-2.990051917731761932e-02
-1.144230514764785767e-01
-2.463725805282592773e-01
3.978025913238525391e-01
2.647229433059692383e-01
3.381142318248748779e-01
-2.509303763508796692e-02
-1.577172130346298218e-01
9.047149419784545898e-01
-1.029967367649078369e-01
-3.107061684131622314e-01
-2.257054597139358521e-01
2.380303889513015747e-01
-1.484792772680521011e-02
4.635575041174888611e-02
-2.308144420385360718e-01
2.512844204902648926e-01
1.361151039600372314e-01
-3.426727950572967529e-01
2.034027315676212311e-02
2.958979308605194092e-01
-9.804671257734298706e-02
-3.630823269486427307e-02
-2.584962844848632812e-01
3.411749601364135742e-01
6.730349361896514893e-02
2.424111664295196533e-01
4.966211318969726562e-01
-1.603393852710723877e-01
-2.557082101702690125e-02
-1.096466854214668274e-01
3.792139887809753418e-01
1.787599176168441772e-01
-5.939117670059204102e-01
2.673439085483551025e-01
-1.254974454641342163e-01
-1.149496138095855713e-01
4.266443103551864624e-02
5.090428590774536133e-01
4.137071073055267334e-01
-4.822516441345214844e-01
1.501739919185638428e-01
-1.332541853189468384e-01
5.690509080886840820e-02
7.044040597975254059e-03
1.368188858032226562e-01
2.404075115919113159e-01
-1.444181650876998901e-01
-2.573025226593017578e-02
1.343677788972854614e-01
3.064011037349700928e-01
-4.502894282341003418e-01
1.377813667058944702e-01
-3.291057348251342773e-01
1.790238618850708008e-01
3.440513014793395996e-01
4.608188867568969727e-01
-1.993524283170700073e-01
-2.266078889369964600e-01
-8.143210411071777344e-02
3.524552658200263977e-02
2.318733632564544678e-01
2.349573224782943726e-01
5.118723213672637939e-02
-3.571092486381530762e-01
1.918239891529083252e-01
-7.416035979986190796e-03
-2.278526276350021362e-01
6.167322397232055664e-02
3.739610016345977783e-01
1.745144873857498169e-01
-9.956205636262893677e-02
-1.556318998336791992e-01
3.712552366778254509e-03
-1.637270115315914154e-02
-7.860072702169418335e-02
6.833149492740631104e-02
-1.556371003389358521e-01
2.920829653739929199e-01
-5.958646908402442932e-02
1.042499765753746033e-01
-8.285692334175109863e-02
-1.671537309885025024e-01
-6.085124984383583069e-02
-2.080634236335754395e-01
-4.034972190856933594e-02
8.429311960935592651e-02
6.308425217866897583e-03
1.353131234645843506e-01
-3.155799582600593567e-02
7.808479480445384979e-03
-1.209562569856643677e-01
-1.707692444324493408e-01
5.753176286816596985e-02
6.232495978474617004e-02
1.222593039274215698e-01
-7.096068467944860458e-03
1.521016955375671387e-01
4.430750906467437744e-01
1.311700884252786636e-02
2.448811978101730347e-01
1.704215556383132935e-01
-9.640347212553024292e-02
-1.242428719997406006e-01
1.414727121591567993e-01
1.077543720602989197e-01
-2.662269175052642822e-01
1.344406753778457642e-01
4.484486207365989685e-02
2.226833552122116089e-01
1.364813596010208130e-01
-4.845598712563514709e-02
3.180190324783325195e-01
-3.703978955745697021e-01
-6.285949796438217163e-02
-3.362633585929870605e-01
-4.386547207832336426e-01
9.590738266706466675e-02
-2.009820491075515747e-01
2.679938673973083496e-01
5.198924243450164795e-02
-4.713856056332588196e-02
9.036403149366378784e-02
2.615210227668285370e-02
2.160798907279968262e-01
-4.297915995121002197e-01
-7.835661619901657104e-02
2.478107661008834839e-01
3.097590059041976929e-02
-3.661459386348724365e-01
-2.242294251918792725e-01
2.070497125387191772e-01
-4.917524456977844238e-01
-2.164361476898193359e-01
2.899300456047058105e-01
3.734470810741186142e-03
2.019716799259185791e-01
1.406002938747406006e-01
1.602880954742431641e-01
-4.904627501964569092e-01
-9.674196839332580566e-01
1.462964713573455811e-01
-1.587613821029663086e-01
1.686942726373672485e-01
-1.078240200877189636e-01
-5.595687776803970337e-02
3.989689052104949951e-01
-8.985926955938339233e-02
4.935797154903411865e-01
2.684056162834167480e-01
-1.611573994159698486e-01
-3.662541210651397705e-01
-3.372254073619842529e-01
-4.593880176544189453e-01
2.045870274305343628e-01
-5.363434925675392151e-02
3.659406006336212158e-01
-9.057511389255523682e-02
-5.556324124336242676e-02
-2.251781523227691650e-01
2.149688638746738434e-02
1.995533555746078491e-01
7.350818514823913574e-01
2.256485223770141602e-01
9.222244843840599060e-03
-1.325879245996475220e-01
9.861629456281661987e-02
-1.666532829403877258e-02
3.050324916839599609e-01
2.590369284152984619e-01
1.191302165389060974e-01
-1.152969673275947571e-01
1.291180551052093506e-01
-4.415882229804992676e-01
-8.723334223031997681e-02
-1.595874279737472534e-01
6.025023758411407471e-02
4.652609676122665405e-02
1.002707853913307190e-01
2.428818792104721069e-01
2.385243773460388184e-03
6.582061201333999634e-02
-5.675095319747924805e-01
2.099021375179290771e-01
-1.790368407964706421e-01
-1.144457235932350159e-01
-1.415849924087524414e-01
-6.581115722656250000e-02
1.296939980238676071e-02
2.255824208259582520e-02
-1.205227002501487732e-01
-3.227093815803527832e-02
2.771476283669471741e-02
1.252913773059844971e-01
2.951045930385589600e-01
3.069733083248138428e-01
-3.293064534664154053e-01
1.869037374854087830e-02
-3.711146116256713867e-02
-8.119812607765197754e-01
1.153308153152465820e-02
6.115902960300445557e-02
-8.297838270664215088e-02
3.510866165161132812e-01
-2.483125776052474976e-01
-1.573824882507324219e-01
-2.378757596015930176e-01
-1.327004283666610718e-01
-8.034288883209228516e-02
-3.074075579643249512e-01
3.296462120488286018e-03
2.927818894386291504e-01
-8.874042332172393799e-02
-2.371294051408767700e-01
-4.215249121189117432e-01
3.878982961177825928e-01
3.482551872730255127e-01
4.791241139173507690e-02
-3.577811717987060547e-01
-8.632822334766387939e-02
-5.470793247222900391e-01
-3.642283678054809570e-01
1.761104911565780640e-01
3.055186755955219269e-02
-1.272292584180831909e-01
-1.536260992288589478e-01
-5.501245334744453430e-02
9.876330196857452393e-02
1.296067833900451660e-01
2.388621717691421509e-01
1.296932399272918701e-01
3.293119966983795166e-01
4.416160658001899719e-02
-3.548028767108917236e-01
1.487785726785659790e-01
-1.520463675260543823e-01
3.364259600639343262e-01
3.087611496448516846e-01
1.380931884050369263e-01
5.119222030043601990e-02
-3.553341031074523926e-01
1.766740083694458008e-01
-8.921684697270393372e-03
5.429901182651519775e-02
3.373222053050994873e-02
3.431055322289466858e-02
3.696432113647460938e-01
-6.540933847427368164e-01
8.777462691068649292e-02
1.559477299451828003e-01
-3.933560252189636230e-01
-1.199220642447471619e-01
1.815927624702453613e-01
-3.265733718872070312e-01
-5.542391911149024963e-02
-3.022040724754333496e-01
-2.897573634982109070e-02
1.139830574393272400e-01
-6.260867416858673096e-02
5.777791375294327736e-04
2.250497490167617798e-01
-1.555461809039115906e-02
2.486657351255416870e-02
8.110989630222320557e-02
-1.835191100835800171e-01
1.619656533002853394e-01
2.695736885070800781e-01
-1.366876363754272461e-01
3.009642660617828369e-01
-2.608390450477600098e-01
7.009020447731018066e-02
1.069034412503242493e-01
-2.008175104856491089e-01
1.055595949292182922e-01
9.078077226877212524e-02
-5.267903581261634827e-02
8.491073735058307648e-03
-2.836797572672367096e-02
4.469091445207595825e-02
4.144880548119544983e-02
2.398056238889694214e-01
-2.611686885356903076e-01
3.078670799732208252e-02
-1.416851431131362915e-01
-3.699989914894104004e-01
1.311302632093429565e-01
-3.071715310215950012e-02
1.968906372785568237e-01
8.992383629083633423e-02
-1.751355011947453022e-04
4.356319829821586609e-02
7.509107142686843872e-02
1.847653239965438843e-01
1.743121594190597534e-01
-6.084132194519042969e-02
-1.616486459970474243e-01
4.149055108428001404e-02
2.546991780400276184e-02
-1.534711271524429321e-01
1.824888885021209717e-01
5.201852694153785706e-02
7.934593409299850464e-02
-2.964895367622375488e-01
-6.071633100509643555e-02
2.326721400022506714e-01
1.942545324563980103e-01
-3.093046545982360840e-01
-2.866129577159881592e-01
-4.169243276119232178e-01
-3.061908185482025146e-01
